0,515.0,2.0,-70.66331389481145,48.887622,3.901446,-15.080361455475845
1,515.0,6.0,-79.38305286148116,14.672069,0.675603,-23.800100422145555
2,515.0,12.0,-91.14999698200353,-2.475752,-14.245376,-35.56704454266792
3,515.0,13.0,-66.48649090663189,37.803745,5.989189,-10.90353846729628
4,515.0,14.0,-52.09676328040625,-7.825549,5.916146,3.4861891589293563
5,515.0,15.0,-68.93945309296353,33.846884,-0.786217,-13.356500653627926
6,515.0,17.0,-66.47648636463302,-14.909345,-6.09413,-10.893533925297412
7,515.0,19.0,-85.21274978299145,-11.229287,-8.932877,-29.629797343655845
8,515.0,24.0,-96.10939161838563,-14.801848,-11.708181,-40.52643917905002
9,515.0,28.0,-63.44920710443229,-2.82777,2.603578,-7.866254665096683
10,516.0,2.0,-80.52645641753745,37.921806,-7.220425,-2.1328017675968027
11,516.0,6.0,-84.9708958645821,4.849894,-9.629785,-6.577241214641461
12,516.0,12.0,-96.09032301128532,5.652976,-14.598919,-17.696668361344678
13,516.0,13.0,-76.23518185044921,9.747784,-1.353744,2.1584727994914346
14,516.0,14.0,-75.71675941331245,-10.985247,1.371093,2.676895236628198
15,516.0,15.0,-80.5450486958231,64.872997,-5.56378,-2.151394045882455
16,516.0,17.0,-82.47076682453125,3.231098,-7.85611,-4.07711217459061
17,516.0,19.0,-94.9017394486726,-14.184463,-14.09135,-16.508084798731957
18,516.0,24.0,-96.63644634968215,-17.452151,-17.906029,-18.242791699741502
19,516.0,28.0,-82.28386522820959,-8.296959,-2.535573,-3.890210578268949
20,517.0,2.0,-119.50156211788754,15.421912,-14.717398,-4.509009288201042
21,517.0,6.0,-123.77902544059896,-32.673673,-15.770597,-8.786472610912455
22,517.0,12.0,-135.96158524935436,-37.445631,-19.457663,-20.969032419667855
23,517.0,13.0,-116.79118834809218,9.431442,-6.988718,-1.7986355184056748
24,517.0,14.0,-112.07238705687632,-17.399547,1.879208,2.9201657728101793
25,517.0,15.0,-117.14088408038806,51.738531,-11.661653,-2.1483312507015597
26,517.0,24.0,-140.03024908463948,-33.907879,-25.936721,-25.037696254952976
27,517.0,28.0,-126.2880003238494,-29.715554,-3.214302,-11.2954474941629
28,518.0,2.0,-124.10099794428439,-51.583394,-22.756496,-5.212937048082026
29,518.0,6.0,-124.5045499597123,-42.433136,-33.297991,-5.616489063509945
30,518.0,12.0,-138.45969997009644,-52.326267,-29.664626,-19.571639073894076
31,518.0,13.0,-115.48549269151914,6.038533,-1.707037,3.40256820468322
32,518.0,14.0,-117.98348449940484,-17.116773,-8.432951,0.9045763967975233
33,518.0,15.0,-119.36444546940457,-17.283083,-7.205228,-0.4763845732022105
34,518.0,24.0,-142.24165269219768,-59.585248,-42.826703,-23.353591795995314
35,518.0,28.0,-131.27846627093842,-2.894197,-17.982154,-12.390405374736062
36,519.0,2.0,-117.54717220697256,-54.413315,-20.275438,0.13464909184916962
37,519.0,6.0,-117.77013521882611,-63.581683,-36.46308,-0.08831392000438143
38,519.0,12.0,-134.2416666232751,-49.445774,-39.055449,-16.559845324453377
39,519.0,13.0,-112.89022496962606,3.466482,5.799985,4.79159632919567
40,519.0,14.0,-112.47842544070903,-45.949309,-8.955604,5.2033958581127
41,519.0,15.0,-115.36328925694411,-10.104611,-3.53273,2.318532041877617
42,519.0,24.0,-132.2321418161125,-66.74391,-51.805854,-14.550320517290757
43,519.0,28.0,-124.20015016268691,38.069321,-21.387635,-6.518328863865179
44,520.0,2.0,-99.20221486400575,-45.877687,-19.570493,-0.5731873718729332
45,520.0,6.0,-102.46433797071273,-49.385101,-35.777594,-3.8353104785799133
46,520.0,12.0,-116.02603917481778,-23.852035,-38.472226,-17.397011682684962
47,520.0,14.0,-96.70939632391566,-34.64418,-8.934011,1.9196311682171654
48,520.0,15.0,-97.91884933401646,-1.601067,-3.02303,0.7101781581163635
49,520.0,24.0,-114.33611406816694,-53.905621,-50.891107,-15.707086576034115
50,521.0,2.0,-106.70002547432043,-61.696191,-20.724959,2.0783759293537116
51,521.0,6.0,-109.56196002222875,-55.361714,-36.768054,-0.7835586185546077
52,521.0,12.0,-123.52151179812796,-62.519288,-39.752691,-14.743110394453822
53,521.0,13.0,-101.97874803422997,13.09449,5.435447,6.799653369444172
54,521.0,14.0,-106.22828781576617,-36.036346,-8.610965,2.5501135879079726
55,521.0,15.0,-106.09819931354205,-18.688108,-4.116033,2.6802020901320844
56,521.0,19.0,-121.25752724251531,-21.152836,-52.983498,-12.47912583884117
57,521.0,24.0,-121.07432943894271,-72.90043,-52.610969,-12.295928035268574
58,521.0,28.0,-112.34042267894657,71.823059,-21.183362,-3.5620212752724285
59,522.0,2.0,-56.54662349367064,17.248682,-23.135753,5.280190495909018
60,522.0,6.0,-49.91441196804541,7.261801,-38.051257,11.912402021534248
61,522.0,12.0,-76.93241878752667,-15.608759,-36.021728,-15.105604797947016
62,522.0,14.0,-39.97634469483998,-3.213124,-10.528662,21.850469294739675
63,522.0,15.0,-87.10935820870387,2.027857,-4.694938,-25.282544219124212
64,522.0,19.0,-68.20888617177012,-28.148891,-50.998101,-6.382072182190463
65,522.0,24.0,-82.57075018255186,-27.022177,-50.213839,-20.743936192972207
66,523.0,2.0,-48.12416934246457,-35.62797,-22.457653,-0.5255943679968311
67,523.0,6.0,-42.63279898853535,-23.086754,-36.373191,4.965775985932389
68,523.0,12.0,-60.25791400463652,-47.30289,-27.917197,-12.65933903016878
69,523.0,14.0,-29.549873988170564,-26.123007,-13.439673,18.048700986297174
70,523.0,15.0,-69.45769454826343,-35.551161,-2.297047,-21.859119573795695
71,523.0,17.0,-43.98579122157617,-22.55346,-32.875046,3.6127837528915663
72,523.0,19.0,-53.35717541916352,-68.052496,-45.53746,-5.75860044469578
73,523.0,24.0,-64.88608747865507,-57.005621,-42.23868,-17.287512504187333
74,523.0,28.0,-38.965747003144386,18.002411,-23.277318,8.632827971323351
75,524.0,2.0,-69.65328514144731,-36.166978,-27.52361,-5.083628064171521
76,524.0,6.0,-74.98921523996842,-24.833199,-36.897585,-10.419558162692624
77,524.0,12.0,-89.10720943030063,-51.001687,-26.338268,-24.537552353024836
78,524.0,15.0,-74.49167518956084,-38.746408,-8.72297,-9.922018112285045
79,524.0,17.0,-76.38436877337708,-13.712218,-26.525477,-11.814711696101284
80,524.0,19.0,-90.32409689331087,-46.834584,-40.935425,-25.754439816035074
81,524.0,24.0,-90.04383764955782,-30.550464,-42.062033,-25.474180572282023
82,524.0,28.0,-72.36738716252363,25.679877,-20.218257,-7.797730085247835
83,525.0,2.0,-63.37119727869188,-73.559448,-23.869448,-6.719981376168754
84,525.0,6.0,-69.148609057804,-34.646658,-34.096236,-12.497393155280868
85,525.0,12.0,-84.17603241542487,-61.675958,-30.753319,-27.524816512901744
86,525.0,17.0,-63.51618093953144,-41.196399,-27.484313,-6.864965037008311
87,525.0,19.0,-78.34229945447692,-76.422043,-42.110918,-21.69108355195379
88,525.0,24.0,-83.35212496657651,-49.684583,-44.269078,-26.700909064053384
89,525.0,28.0,-64.85404917120843,-6.994798,-17.768545,-8.202833268685303
90,526.0,2.0,-67.7958350430907,-59.417197,-28.613453,-9.05907497346066
91,526.0,6.0,-69.97590595286519,-48.73321,-32.882251,-11.239145883235146
92,526.0,12.0,-84.69004096576046,-68.605247,-36.137531,-25.953280896130416
93,526.0,14.0,-57.981999192064514,23.82222,-0.033644,0.7547608775655306
94,526.0,17.0,-78.75562071427305,-35.200534,-19.566919,-20.018860644643006
95,526.0,19.0,-89.06150314727915,-69.652447,-38.318531,-30.32474307764911
96,526.0,24.0,-87.1329610221355,-75.266481,-49.652143,-28.39620095250546
97,526.0,28.0,-70.54947337186965,-11.417822,-10.025786,-11.812713302239608
98,527.0,2.0,-60.61437864658112,-15.386893,-21.988496,-7.029777230922981
99,527.0,6.0,-64.34137811157039,-8.709014,-24.885761,-10.75677669591225
100,527.0,12.0,-80.8425610430822,-40.037001,-27.92633,-27.257959627424057
101,527.0,14.0,-53.44446248754899,33.332013,0.539902,0.14013892810915252
102,527.0,17.0,-71.4087269226263,-6.910474,-14.416641,-17.82412550696816
103,527.0,19.0,-82.2994190306872,-16.10605,-28.944275,-28.714817615029062
104,527.0,24.0,-79.75872005048345,-20.068772,-38.160208,-26.174118634825305
105,527.0,28.0,-62.198111647952274,34.221415,-7.094699,-8.613510232294132
106,528.0,2.0,-96.7847806238361,-26.875524,-19.584986,-6.57680324251875
107,528.0,6.0,-100.89434649916879,-0.541857,-26.77965,-10.686369117851442
108,528.0,12.0,-119.06039197492517,-20.633272,-25.350199,-28.85241459360782
109,528.0,14.0,-83.72603229833867,-3.601754,-4.996691,6.481945082978683
110,528.0,17.0,-96.70641408773814,-0.082103,-20.569232,-6.49843670642079
111,528.0,19.0,-111.27870905863615,-10.452338,-32.820571,-21.070731677318804
112,528.0,24.0,-120.96928890487702,-33.639839,-36.001482,-30.76131152355967
113,528.0,28.0,-96.12980939821391,40.576411,-12.804442,-5.921832016896559
114,529.0,2.0,-115.5699110367986,-11.566461,-20.45924,-9.314319396677405
115,529.0,6.0,-120.23153178129085,-28.819693,-27.612713,-13.975940141169659
116,529.0,12.0,-132.8933043200523,-34.692525,-23.570078,-26.6377126799311
117,529.0,14.0,-104.29850893219259,42.156932,-6.389875,1.9570827079286062
118,529.0,17.0,-117.57238187001437,-3.370495,-20.51751,-11.316790229893172
119,529.0,19.0,-131.67107492251517,-19.802706,-32.455535,-25.41548328239398
120,529.0,24.0,-137.1489243036934,-40.668231,-34.87851,-30.89333266357221
121,529.0,28.0,-115.97422501884564,-3.481248,-13.879321,-9.718633378724448
122,530.0,2.0,-118.2148658807238,-3.515368,-18.916267,-7.620608002883941
123,530.0,6.0,-118.10025851468575,-40.8668,-28.482941,-7.506000636845883
124,530.0,12.0,-132.40525723514344,-44.846499,-25.276016,-21.810999357303572
125,530.0,17.0,-132.7268805007614,-10.525446,-24.312973,-22.132622622921545
126,530.0,19.0,-137.38031789707154,-38.738263,-35.918782,-26.78606001923167
127,530.0,24.0,-135.92579821605761,-51.382635,-36.370747,-25.33154033821775
128,530.0,28.0,-125.2623082803902,-1.092779,-15.857962,-14.668050402550335
129,531.0,6.0,-98.86014962395156,-16.234051,-27.912926,-19.041693941117614
130,531.0,12.0,-113.70224304618371,-23.1489,-24.846508,-33.88378736334977
131,531.0,13.0,-106.45594973674226,211.319111,-0.000986,-26.637494053908313
132,531.0,17.0,-107.57005266069059,-18.640438,-24.220746,-27.75159697785665
133,531.0,19.0,-116.78843338906546,-18.277592,-35.487684,-36.96997770623152
134,531.0,24.0,-126.02610429710879,-19.700473,-35.646761,-46.207648614274845
135,531.0,28.0,-107.51298976108527,23.402614,-15.751561,-27.694534078251323
136,532.0,6.0,-106.84328082773648,10.913747,-27.048321,0.8542460834592447
137,532.0,12.0,-122.0030363514558,13.686732,-24.173555,-14.305509440260082
138,532.0,15.0,-115.95328593038603,-24.640438,-3.319012,-8.255759019190307
139,532.0,17.0,-121.40241615603365,5.168585,-24.604486,-13.70488924483793
140,532.0,19.0,-126.60171442802404,8.829406,-35.17601,-18.904187516828316
141,532.0,24.0,-127.03521733997083,2.489339,-34.45147,-19.337690428775105
142,532.0,28.0,-117.76122861124703,41.859408,-15.925316,-10.063701700051311
143,533.0,6.0,-107.88916991122336,9.415396,-27.031917,7.191269357696015
144,533.0,12.0,-124.83928512790698,9.356659,-24.457017,-9.758845858987598
145,533.0,13.0,-104.29948412461795,71.362579,1.788965,10.78095514430143
146,533.0,15.0,-113.52163259339744,-1.003473,-2.999211,1.5588066755219359
147,533.0,17.0,-122.58460338453828,-1.060913,-25.016872,-7.504164115618906
148,533.0,19.0,-126.97312938757543,4.330953,-35.544097,-11.892690118656049
149,533.0,24.0,-126.70583834773267,3.843898,-34.631114,-11.625399078813288
150,533.0,28.0,-116.13777087109486,8.314057,-16.051121,-1.0573316021754806
151,534.0,6.0,-110.9394579462914,6.033916,-26.892078,3.5036990519938627
152,534.0,12.0,-127.91325306127703,1.627818,-24.876542,-13.470096062991772
153,534.0,13.0,-104.96042883533836,2.564584,1.936649,9.482728162946898
154,534.0,14.0,-109.65472752740902,17.455475,-7.681409,4.788429470876238
155,534.0,17.0,-124.58516691729218,-5.712418,-25.065786,-10.142009919006924
156,534.0,19.0,-129.14523457681378,3.069228,-35.672918,-14.702077578528517
157,534.0,24.0,-128.10897765956554,0.346691,-34.916667,-13.665820661280279
158,534.0,28.0,-117.4306646675843,13.674512,-15.841801,-2.9875076692990348
159,535.0,2.0,-112.3962019602722,83.693471,-16.524819,3.9475571502973708
160,535.0,6.0,-114.41228569260244,3.991765,-26.854618,1.9314734179671262
161,535.0,12.0,-133.0107347653859,3.127619,-25.177806,-16.66697565481634
162,535.0,13.0,-105.97396994970923,10.040975,1.747954,10.369789160860336
163,535.0,14.0,-109.94642903359122,-0.232754,-7.387847,6.397330076978349
164,535.0,17.0,-125.08477762145897,-7.126576,-24.893176,-8.741018510889404
165,535.0,19.0,-132.06928457491514,-5.031393,-35.649996,-15.72552546434558
166,535.0,24.0,-130.13625220048993,-1.660073,-35.1897,-13.79249308992037
167,535.0,28.0,-119.13533244097185,0.185917,-15.587783,-2.7915733304022865
168,536.0,6.0,-119.75495414555867,-9.657876,-26.793595,-2.4761515618560708
169,536.0,12.0,-137.3658500708479,-9.172946,-25.483376,-20.0870474871453
170,536.0,13.0,-108.95075000861222,-2.646272,1.702521,8.328052575090382
171,536.0,14.0,-114.07924224682449,-8.66144,-7.137823,3.1995603368781076
172,536.0,15.0,-113.62340956455314,100.623965,-3.588323,3.6553930191494572
173,536.0,17.0,-126.87620584632226,-14.917725,-24.825862,-9.597403262619665
174,536.0,19.0,-135.95405018382786,-10.703403,-35.689905,-18.67524760012526
175,536.0,24.0,-136.04799148481675,-15.950128,-35.436312,-18.76918890111415
176,536.0,28.0,-123.43036753055902,-2.797628,-15.387616,-6.151564946856425
177,537.0,2.0,-107.14631683486284,-20.386484,-16.809318,2.297126120384334
178,537.0,6.0,-110.4251150099013,-34.540535,-26.9996,-0.9816720546541262
179,537.0,12.0,-127.58631201352645,-34.913913,-25.506121,-18.142869058279274
180,537.0,13.0,-101.08024549920044,90.239104,1.467244,8.363197456046734
181,537.0,14.0,-106.73237842343643,-36.223812,-7.173354,2.7110645318107487
182,537.0,15.0,-106.6690962834571,101.030595,-3.774216,2.7743466717900844
183,537.0,17.0,-121.89789239790966,-40.816832,-24.775813,-12.45444944266248
184,537.0,19.0,-128.27570866261823,-38.655924,-35.739465,-18.83226570737105
185,537.0,24.0,-126.45345160718671,-44.759934,-35.582256,-17.01000865193953
186,537.0,28.0,-114.1783955078738,-31.77848,-15.429626,-4.734952552626623
187,538.0,2.0,-102.42239639245952,31.943322,-17.478463,4.773561305958779
188,538.0,6.0,-106.79082786272329,-7.653447,-27.553738,0.40512983569500705
189,538.0,12.0,-124.59389403845633,-8.337547,-25.084269,-17.39793634003803
190,538.0,13.0,-95.6520711733396,18.001619,0.954382,11.54388652507869
191,538.0,14.0,-102.870133151147,-2.440314,-7.611405,4.325824547271296
192,538.0,17.0,-116.63864029971833,-8.576227,-24.715275,-9.442682601300035
193,538.0,19.0,-124.56039955276415,-11.125278,-35.7524,-17.364441854345856
194,538.0,24.0,-122.73122586761126,-16.189889,-35.533113,-15.53526816919296
195,538.0,28.0,-108.81534017569321,-16.282527,-15.79983,-1.619382477274911
196,539.0,2.0,-116.84486989339038,27.380189,-18.840855,4.78629212638711
197,539.0,6.0,-121.05556090398967,-28.690562,-28.030866,0.5756011157878191
198,539.0,12.0,-139.29202079558956,-17.91238,-24.096304,-17.660858775812073
199,539.0,14.0,-115.74665192495459,-21.862646,-7.768758,5.8845100948229
200,539.0,17.0,-130.5265810163694,1.326864,-23.496803,-8.8954189965919
201,539.0,19.0,-138.97664296938714,-33.576952,-34.762362,-17.34548094960965
202,539.0,24.0,-138.34891529795422,-33.654904,-35.102192,-16.71775327817673
203,539.0,28.0,-124.58430935475822,-21.822566,-15.66475,-2.953147334980727
204,540.0,2.0,-112.01863691473386,-19.108976,-17.474462,1.8413810485615016
205,540.0,6.0,-117.5545230390257,-50.696987,-29.376499,-3.6945050757303335
206,540.0,12.0,-137.11941407102162,-51.958153,-25.953327,-23.25939610772626
207,540.0,13.0,-104.4263520037126,-32.533363,2.876325,9.433665959582768
208,540.0,14.0,-109.68366688573856,-15.253937,-9.39042,4.176351077556802
209,540.0,15.0,-108.65460240524443,-0.804696,-2.094024,5.20541555805093
210,540.0,17.0,-123.96277917905546,-52.013138,-27.852968,-10.102761215760097
211,540.0,19.0,-132.77586916122905,-54.383521,-38.829537,-18.91585119793369
212,540.0,24.0,-134.81496243440176,-49.433778,-36.916927,-20.9549444711064
213,540.0,28.0,-119.39670526340362,-25.427028,-18.115504,-5.536687300108255
214,541.0,2.0,-76.34172670101864,-50.205222,-19.048394,4.413181778426335
215,541.0,6.0,-72.92917218991191,-69.027934,-27.785084,7.825736289533069
216,541.0,12.0,-93.15240648870213,-61.282436,-27.017772,-12.397498009257149
217,541.0,13.0,-80.91212720840775,29.057796,-1.242667,-0.1572187289627749
218,541.0,14.0,-62.25592663310726,-28.286024,-5.674864,18.49898184633772
219,541.0,15.0,-98.89385578383015,-13.428458,-6.834053,-18.13894730438517
220,541.0,17.0,-79.07950306930691,-44.126129,-23.158449,1.6754054101380689
221,541.0,19.0,-95.97694204287643,-77.686192,-35.489481,-15.222033563431452
222,541.0,24.0,-104.02118716095224,-73.971529,-37.65983,-23.26627868150726
223,541.0,28.0,-76.29178081634183,-34.586306,-14.089986,4.463127663103151
224,542.0,2.0,-107.29450134349482,-22.963882,-22.267322,4.626457238699643
225,542.0,6.0,-112.27813768105456,-51.376311,-26.818407,-0.3571790988601009
226,542.0,12.0,-128.33464036564743,-41.34604,-22.837888,-16.413681783452972
227,542.0,13.0,-103.7454941760312,27.196639,-7.54072,8.175464406163258
228,542.0,14.0,-109.20809884713171,0.506127,-4.480953,2.71285973506275
229,542.0,15.0,-110.97690240452386,7.136555,-11.176284,0.9440561776706033
230,542.0,17.0,-125.16117125757344,-47.637515,-16.575732,-13.240212675378984
231,542.0,19.0,-130.2114544417566,-46.927268,-29.243374,-18.290495859562128
232,542.0,24.0,-128.71660423784303,-53.205309,-34.295866,-16.79564565564857
233,542.0,28.0,-116.48052625096236,-26.773986,-11.416465,-4.559567668767897
234,543.0,2.0,-114.0679649626611,-17.688718,-19.205713,0.1940342230108456
235,543.0,6.0,-119.4058356889977,-28.980869,-27.260994,-5.143836503325758
236,543.0,12.0,-137.20649052967968,-30.552492,-27.083543,-22.944491344007744
237,543.0,13.0,-106.92207262120964,3.941637,-2.0129,7.339926564462303
238,543.0,15.0,-111.62381030180343,14.639138,-7.712346,2.6381888838685086
239,543.0,17.0,-128.70048869478288,-42.702056,-22.072489,-14.438489509110937
240,543.0,19.0,-136.90536380011676,-47.824935,-34.589764,-22.64336461444482
241,543.0,24.0,-135.57803552256038,-43.206084,-37.564943,-21.316036336888445
242,543.0,28.0,-122.20554887630054,-2.189376,-13.170714,-7.9435496906286005
243,544.0,2.0,-104.36757700494705,-14.950769,-14.299183,0.8895250687584308
244,544.0,6.0,-104.82140275710248,-49.095384,-29.260865,0.43569931660300654
245,544.0,12.0,-118.82349666125904,-42.843648,-35.678381,-13.56639458755356
246,544.0,13.0,-102.84646520623693,31.282946,8.227912,2.410636867468554
247,544.0,14.0,-99.75244480833491,25.189963,-6.087162,5.504657265370568
248,544.0,15.0,-112.57574439560388,-28.872594,-1.349301,-7.318642321898395
249,544.0,17.0,-115.77654009309262,-27.944253,-33.246932,-10.519438019387138
250,544.0,19.0,-122.55794925112777,-56.285807,-45.857697,-17.300847177422284
251,544.0,24.0,-122.86300766959295,-47.022149,-44.834843,-17.605905595887464
252,544.0,28.0,-114.86601261557139,7.660122,-17.201739,-9.60891054186591
253,545.0,2.0,-106.37367448151083,-32.542369,-6.748909,5.506095144217909
254,545.0,6.0,-111.58621884827312,-64.719464,-20.904839,0.2935507774556214
255,545.0,12.0,-129.346050625031,-69.410492,-32.018212,-17.46628099930227
256,545.0,13.0,-101.73054122047778,57.443567,11.682029,10.149228405250966
257,545.0,14.0,-108.68106185482006,-7.437753,-3.195407,3.1987077709086833
258,545.0,15.0,-108.04679167539591,-10.729498,1.650598,3.8329779503328325
259,545.0,17.0,-125.06206354269447,-70.667624,-29.354154,-13.182293916965733
260,545.0,19.0,-130.09743463191182,-70.377765,-38.831894,-18.217665006183083
261,545.0,24.0,-128.22709274196689,-68.292034,-37.090945,-16.347323116238144
262,545.0,28.0,-115.2599604941121,-24.832754,-12.936351,-3.3801908683833517
263,546.0,2.0,-84.95657545459535,-43.736222,-17.543434,0.8539277964154479
264,546.0,6.0,-91.1434956989892,-43.772455,-28.342148,-5.332992447978398
265,546.0,12.0,-107.33122991127127,-50.952978,-30.415898,-21.520726660260465
266,546.0,13.0,-79.25679359710965,60.838329,1.910675,6.5537096539011515
267,546.0,17.0,-104.61477368836546,-50.997228,-26.572851,-18.80427043735466
268,546.0,19.0,-111.20540558023602,-48.487726,-39.177981,-25.394902329225218
269,546.0,24.0,-109.39927646530927,-51.083221,-40.52415,-23.58877321429847
270,546.0,28.0,-92.23398880715516,-56.491843,-14.958684,-6.423485556144357
271,547.0,2.0,-81.5523489659149,-9.983175,-20.062996,5.344512292426259
272,547.0,6.0,-88.62941708409417,-13.499167,-28.416604,-1.7325558257530105
273,547.0,12.0,-105.49077554072369,-17.295837,-27.574042,-18.593914282382528
274,547.0,13.0,-75.87949153052833,58.568484,-2.152178,11.017369727812834
275,547.0,15.0,-85.01199657287397,-10.72333,-7.797761,1.8848646854671927
276,547.0,17.0,-99.50558475300426,-26.809525,-22.856344,-12.608723494663096
277,547.0,19.0,-110.79955810346256,-20.008853,-35.709462,-23.902696845121397
278,547.0,24.0,-107.25385490841528,-22.413638,-38.56085,-20.356993650074116
279,548.0,2.0,-98.34099039118163,6.818075,-20.922666,3.939798658057427
280,548.0,6.0,-106.26859036507315,-2.794728,-32.977088,-3.9878013158340906
281,548.0,12.0,-124.42411725966147,-3.685077,-36.196284,-22.14332821042241
282,548.0,13.0,-91.55222980149948,17.858808,1.452994,10.728559247739582
283,548.0,15.0,-97.58083227061853,-8.87786,-7.15961,4.699956778620532
284,548.0,19.0,-124.64495029355191,-9.457826,-45.459376,-22.364161244312854
285,548.0,24.0,-122.8893422049467,-9.87333,-47.96737,-20.60855315570764
286,548.0,28.0,-106.49402194902004,14.838284,-16.67155,-4.2132328997809765
287,549.0,2.0,-103.56500180042251,-7.875906,-22.401661,-10.064847011393695
288,549.0,6.0,-110.37186377271311,-13.959872,-34.352662,-16.8717089836843
289,549.0,12.0,-131.01739568713117,-14.677112,-37.387655,-37.51724089810236
290,549.0,13.0,-91.34961472685815,-6.626648,0.539626,2.1505400621706627
291,549.0,15.0,-98.0995652998995,-6.455661,-8.240913,-4.599410510870683
292,549.0,19.0,-126.30622209952722,-13.844224,-46.651126,-32.806067310498406
293,549.0,24.0,-133.001617559865,-19.026784,-49.810119,-39.501462770836184
294,550.0,2.0,-103.85744409211551,-42.760257,-25.539533,6.255662827098362
295,550.0,6.0,-112.67332433995756,-52.896861,-37.620435,-2.560217420743683
296,550.0,12.0,-134.52542037445494,-55.512125,-40.230664,-24.412313455241062
297,550.0,14.0,-102.77934513070036,97.602966,-5.788774,7.333761788513513
298,550.0,19.0,-128.16603311761565,-58.124787,-49.840824,-18.052926198401778
299,550.0,24.0,-131.6916322207595,-61.32431,-54.126194,-21.57852530154561
300,550.0,28.0,-111.6232392785415,-31.090811,-17.956453,-1.5101323593276277
301,551.0,2.0,-103.60835633412155,-16.094849,-32.781329,4.873619056909192
302,551.0,6.0,-111.54804615828118,-21.365973,-44.708142,-3.0660707672504373
303,551.0,12.0,-131.25783710806294,-21.440995,-47.189783,-22.7758617170322
304,551.0,19.0,-130.76221882005498,-23.139485,-56.712027,-22.28024342902424
305,551.0,24.0,-128.67424020245997,-29.887166,-64.297591,-20.192264811429226
306,552.0,2.0,-105.51788538552623,5.323325,-36.973643,4.8202678034360815
307,552.0,6.0,-113.25965368224486,-6.691642,-48.86984,-2.921500493282551
308,552.0,12.0,-131.65351969936503,-13.623675,-52.296059,-21.315366510402725
309,552.0,13.0,-99.55776025207828,-1.669364,-7.42423,10.780392936884027
310,552.0,19.0,-132.73862082847847,-15.359217,-61.2468,-22.400467639516165
311,552.0,24.0,-130.75471798420762,-15.514068,-71.161995,-20.416564795245307
312,553.0,2.0,-99.01728353343289,8.676639,-37.988437,-8.189483361266142
313,553.0,6.0,-111.23794527079787,0.194135,-50.84643,-20.41014509863112
314,553.0,12.0,-130.11857776701467,-5.422475,-53.484081,-39.290777594847924
315,553.0,13.0,-89.16902393299412,-3.33791,-6.966367,1.6587762391726244
316,553.0,17.0,-115.04687891204462,-11.552384,-38.486411,-24.219078739877872
317,553.0,19.0,-130.2557858098059,-11.456336,-63.750785,-39.42798563763915
318,553.0,24.0,-126.95776089544178,-5.610156,-73.099901,-36.12996072327503
319,553.0,28.0,-106.65933511681084,57.054363,-21.599028,-15.83153494464409
320,554.0,2.0,-94.80125921719731,7.783137,-40.071066,-19.508356359506635
321,554.0,6.0,-109.30870883313294,-22.50689,-52.655023,-34.01580597544226
322,554.0,12.0,-125.71981565008696,-25.852808,-52.311153,-50.42691279239628
323,554.0,17.0,-104.6539663542814,-36.609911,-38.461719,-29.361063496590717
324,554.0,19.0,-125.60402911061412,-35.714992,-63.983704,-50.311126252923444
325,554.0,24.0,-127.51436113515405,-42.092469,-73.114431,-52.22145827746337
326,554.0,28.0,-97.58441429994994,30.122485,-22.834309,-22.291511442259264
327,555.0,2.0,-77.545962620859,-60.555598,-42.523678,-8.162376327390461
328,555.0,6.0,-95.64509947915273,-86.623949,-55.179342,-26.261513185684194
329,555.0,12.0,-110.78926601406333,-86.579021,-54.262344,-41.40567972059479
330,555.0,13.0,-62.05543576228392,-10.380389,-9.744228,7.328150531184619
331,555.0,17.0,-92.94366333258614,-35.009045,-39.497104,-23.5600770391176
332,555.0,19.0,-111.3009027142741,-82.589517,-66.308675,-41.91731642080556
333,555.0,24.0,-112.91131145656705,-89.534411,-76.233491,-43.52772516309851
334,555.0,28.0,-77.76223658036125,22.652437,-23.668184,-8.378650286892707
335,556.0,2.0,-71.26166231406211,-29.932583,-43.011254,-18.37242032351122
336,556.0,6.0,-87.12254667638615,-66.659821,-55.6193,-34.233304685835265
337,556.0,12.0,-101.2666378196621,-49.095754,-53.260289,-48.37739582911121
338,556.0,13.0,-48.834069178586745,-59.972495,-10.093585,4.055172811964141
339,556.0,17.0,-82.9500422144988,-32.812106,-39.426191,-30.060800223947908
340,556.0,19.0,-101.67556010068108,-65.237173,-66.061712,-48.786318110130196
341,556.0,24.0,-105.60338694955725,-74.188597,-75.588685,-52.71414495900636
342,556.0,28.0,-61.42388690444852,37.695508,-24.237783,-8.534644913897637
343,557.0,2.0,-64.33548127470931,-51.019651,-44.078321,-12.371890927277903
344,557.0,6.0,-78.63441572866574,-52.015432,-56.493498,-26.670825381234337
345,557.0,12.0,-91.01426504414576,-54.363969,-53.808116,-39.05067469671435
346,557.0,13.0,-33.112020443123676,-36.585094,-10.873349,18.85156990430773
347,557.0,14.0,-50.455722146638934,78.968922,-8.235879,1.5078682007924726
348,557.0,17.0,-85.15536983795987,15.506336,-39.464787,-33.19177949052846
349,557.0,19.0,-98.90983393047642,-53.999273,-66.604796,-46.94624358304502
350,557.0,24.0,-92.6783697219339,-57.674115,-76.598218,-40.7147793745025
351,557.0,28.0,-60.709510269700935,68.084274,-24.383236,-8.745919922269529
352,558.0,2.0,-81.95340503418456,-30.017589,-45.240176,-1.1254748920534041
353,558.0,6.0,-100.67367711828298,-41.173514,-57.730784,-19.84574697615183
354,558.0,12.0,-115.42486982702454,-34.14594,-54.064931,-34.596939684893385
355,558.0,13.0,-68.91862216049734,-12.326849,-11.442019,11.909307981633816
356,558.0,17.0,-100.20386424171036,4.094933,-39.939975,-19.37593409957921
357,558.0,19.0,-117.98671990215148,-35.224752,-67.469474,-37.158789760020326
358,558.0,24.0,-117.94461044639519,-46.83954,-77.491133,-37.11668030426404
359,559.0,2.0,-60.59720655764234,-18.067847,-45.703497,3.8555535630832196
360,559.0,6.0,-77.3867380826557,-28.446989,-58.017509,-12.93397796193014
361,559.0,12.0,-89.29973532061982,-31.911156,-54.51583,-24.84697519989426
362,559.0,13.0,-52.84107559843061,-30.610046,-11.857636,11.611684522294944
363,559.0,19.0,-104.12108046165869,-37.420318,-67.656953,-39.668320340933136
364,559.0,24.0,-93.63046443114565,-48.639167,-78.083765,-29.177704310420097
365,560.0,2.0,-113.06118058202513,-7.361988,-45.861443,-0.6037974372008961
366,560.0,6.0,-124.13517768808913,-19.702331,-58.041838,-11.677794543264895
367,560.0,12.0,-141.8819983925726,-22.449364,-54.758915,-29.424615247748363
368,560.0,13.0,-100.31833657142528,-25.128867,-12.059332,12.139046573398957
369,560.0,17.0,-130.30927051456888,-45.439105,-39.672436,-17.851887369744645
370,560.0,19.0,-142.66157371887115,-28.577787,-67.646245,-30.20419057404692
371,560.0,24.0,-142.47261440109534,-38.261906,-78.335741,-30.015231256271107
372,561.0,2.0,-108.41821460914204,10.830861,-45.906492,-11.197093377334113
373,561.0,6.0,-120.56308512250745,-16.713315,-58.043488,-23.341963890699517
374,561.0,12.0,-138.78161574904158,-17.155552,-54.738377,-41.56049451723365
375,561.0,13.0,-80.35301247770815,-24.667152,-12.112251,16.86810875409978
376,561.0,17.0,-125.6988528321151,-46.32695,-39.605502,-28.477731600307166
377,561.0,19.0,-140.8966109741166,-28.429144,-67.59014,-43.675489742308685
378,561.0,24.0,-141.49994666972307,-36.921236,-78.320298,-44.278825437915145
379,562.0,2.0,-77.98459723001776,-18.027102,-45.91456,-10.352795323269248
380,562.0,6.0,-96.42180210809678,-34.435499,-58.034094,-28.790000201348278
381,562.0,12.0,-113.2201031740318,-27.969984,-54.70814,-45.5883012672833
382,562.0,13.0,-59.59292552763534,-28.866754,-12.117408,8.03887637911317
383,562.0,17.0,-91.50504448753833,-45.330617,-39.570192,-23.87324258078982
384,562.0,19.0,-112.41250822925994,-48.070604,-67.547507,-44.780706322511435
385,562.0,24.0,-118.31103262009024,-50.307728,-78.28428,-50.67923071334174
386,563.0,2.0,-101.73221055952438,-20.416587,-45.862517,-12.36658266214981
387,563.0,6.0,-117.69633562938017,-24.849514,-57.972222,-28.330707732005607
388,563.0,12.0,-126.44272037919573,-26.05991,-54.674305,-37.07709248182117
389,563.0,13.0,-81.41536548770607,-54.129063,-12.080043,7.950262409668497
390,563.0,17.0,-113.73975038276704,-52.902416,-39.53039,-24.374122485392476
391,563.0,19.0,-132.31128912530608,-34.336258,-67.481058,-42.94566122793151
392,563.0,24.0,-133.5383242789577,-44.780495,-78.214122,-44.17269638158314
393,563.0,28.0,-98.41089225472427,50.658668,-24.649776,-9.045264357349708
394,564.0,2.0,-79.30758347376808,-19.329321,-45.795968,-9.39620251073275
395,564.0,6.0,-97.69671741461954,-38.824949,-57.886066,-27.785336451584215
396,564.0,12.0,-108.41278333425376,-40.114131,-54.62642,-38.50140237121843
397,564.0,17.0,-92.4760774679331,-62.928599,-39.468604,-22.564696504897768
398,564.0,19.0,-111.44557496283333,-47.709691,-67.385911,-41.534193999798006
399,564.0,24.0,-115.6078183657627,-57.109554,-78.120145,-45.69643740272737
400,565.0,2.0,-62.74905130018647,-36.1245,-45.716214,-6.958141344729121
401,565.0,6.0,-74.25532135417602,-62.599113,-57.785721,-18.464411398718667
402,565.0,12.0,-90.57721891677525,-64.174949,-54.578015,-34.7863089613179
403,565.0,13.0,-32.2648422787027,-99.165072,-12.003206,23.52606767675465
404,565.0,14.0,-48.747861843565076,136.615856,-8.198486,7.043048111892276
405,565.0,17.0,-83.19542111091774,-98.860226,-39.401454,-27.404511155460384
406,565.0,19.0,-95.46514577931833,-63.347713,-67.281734,-39.67423582386098
407,565.0,24.0,-91.7864160722205,-78.644825,-78.018035,-35.99550611676315
408,565.0,28.0,-61.1963388380557,60.715371,-24.531994,-5.4054288825983505
409,566.0,2.0,-63.22215972870468,-30.744219,-45.629653,-2.531021227273257
410,566.0,6.0,-77.30718229760983,-40.604547,-57.681323,-16.616043796178403
411,566.0,12.0,-92.62634112173154,-42.933953,-54.540119,-31.935202620300117
412,566.0,17.0,-87.95896123097899,-29.25662,-39.33826,-27.26782272954756
413,566.0,19.0,-101.05346547598133,-35.858306,-67.182459,-40.3623269745499
414,566.0,24.0,-92.08946729918986,-54.708711,-77.922404,-31.398328797758438
415,566.0,28.0,-64.33284866356746,53.242942,-24.464832,-3.641710162136036
416,567.0,2.0,-67.086661330333,-42.182202,-45.535599,-15.40525427806324
417,567.0,6.0,-82.56245708046401,-34.247278,-57.570528,-30.881050028194252
418,567.0,12.0,-94.95450050322684,-33.072539,-54.507733,-43.27309345095708
419,567.0,17.0,-85.31759945761267,-50.756936,-39.27547,-33.63619240534291
420,567.0,19.0,-100.14560653252126,-29.664102,-67.083056,-48.464199480251494
421,567.0,24.0,-102.6113913269993,-39.517705,-77.827867,-50.929984274729534
422,567.0,28.0,-58.36176410795806,74.864622,-24.392875,-6.680357055688297
423,568.0,2.0,-67.85627214539991,-63.013936,-45.432922,-18.59680793082309
424,568.0,6.0,-83.51995686090365,-58.308395,-57.472353,-34.260492646326824
425,568.0,12.0,-90.78606658741907,-64.899453,-54.518299,-41.52660237284225
426,568.0,13.0,-36.33468264572038,239.259713,-11.817068,12.924781568856446
427,568.0,17.0,-85.55632456653407,-42.297803,-39.250753,-36.29686035195725
428,568.0,19.0,-99.27282591238482,-46.058106,-67.029082,-50.013361697807994
429,568.0,24.0,-99.17325641559903,-61.045387,-77.773735,-49.913792201022204
430,568.0,28.0,-58.30769397325095,62.270519,-24.330975,-9.048229758674125
431,569.0,2.0,-75.16384508051394,-47.806843,-45.287057,-25.471237846531707
432,569.0,6.0,-89.834823194641,-50.308529,-57.343251,-40.142215960658774
433,569.0,12.0,-90.41820804516402,-50.156576,-54.596176,-40.72560081118179
434,569.0,13.0,-40.13382569925555,-58.004134,-11.694065,9.558781534726677
435,569.0,17.0,-96.37756298833185,-30.742005,-39.242478,-46.684955754349616
436,569.0,19.0,-109.70749196064943,-43.204733,-66.998637,-60.014884726667205
437,569.0,24.0,-100.74937542740898,-46.604354,-77.759396,-51.05676819342675
438,569.0,28.0,-69.08503190646513,63.565728,-24.237186,-19.392424672482903
439,570.0,6.0,-107.31933438220446,-23.660947,-57.097546,-25.865387854044513
440,570.0,12.0,-123.91109374980724,-40.982693,-54.736024,-42.45714722164729
441,570.0,13.0,-75.73512253110562,-19.090697,-11.52917,5.718823997054329
442,570.0,17.0,-105.85992007913089,-2.257607,-39.185228,-24.40597355097094
443,570.0,19.0,-125.86488402600706,-20.190023,-66.914378,-44.410937497847115
444,570.0,24.0,-129.05838831512625,-19.519763,-77.739043,-47.604441786966305
445,570.0,28.0,-88.65629894176632,92.262199,-24.038009,-7.202352413606377
446,571.0,2.0,-99.02940736063331,-34.415925,-44.727669,2.302559926468305
447,571.0,6.0,-113.9831859867183,-55.032151,-56.788227,-12.651218699616678
448,571.0,12.0,-131.27157572204968,-53.67069,-54.88871,-29.939608434948056
449,571.0,13.0,-87.25832099090837,-32.356342,-11.318315,14.073646296193246
450,571.0,14.0,-96.50620805068532,84.511544,-7.471332,4.825759236416303
451,571.0,17.0,-116.75470183348297,-14.602215,-39.119245,-15.42273454638135
452,571.0,19.0,-132.6239289981579,-51.516634,-66.805242,-31.291961711056288
453,571.0,24.0,-129.81937827036293,-57.616102,-77.693336,-28.487410983261313
454,571.0,28.0,-105.91975571974766,37.534993,-23.801467,-4.587788432646036
455,572.0,2.0,-79.66094283161415,-69.573529,-43.350103,-6.43591939825518
456,572.0,6.0,-99.52104076083768,-86.045729,-55.690515,-26.296017327478708
457,572.0,12.0,-113.80677238906352,-96.56645,-54.345911,-40.581748955704555
458,572.0,14.0,-70.60743002335815,8.247001,-7.398743,2.617593410000822
459,572.0,17.0,-99.08300944311108,-59.838868,-39.12952,-25.85798600975211
460,572.0,19.0,-117.0824835058576,-91.887171,-66.204895,-43.857460072498625
461,572.0,24.0,-115.14255083569994,-92.772424,-76.526938,-41.917527402340966
462,572.0,28.0,-81.86859196852276,25.271804,-23.587097,-8.643568535163794
463,573.0,2.0,-55.87947674529218,-75.941915,-45.264332,-5.369980204256976
464,573.0,6.0,-68.94327079219883,-98.976315,-57.916347,-18.433774251163626
465,573.0,12.0,-83.85685613648698,-97.859432,-53.011957,-33.34735959545178
466,573.0,13.0,-33.374886280562336,-1.274363,-11.053261,17.13461026047287
467,573.0,14.0,-40.26842357023876,56.699459,-9.535591,10.241072970796445
468,573.0,17.0,-76.01176764118443,-61.401014,-40.015658,-25.50227110014923
469,573.0,19.0,-90.10421771314337,-97.46626,-67.141006,-39.594721172108166
470,573.0,24.0,-80.20206923076682,-108.367389,-76.503263,-29.69257268973162
471,573.0,28.0,-47.747893756424745,21.90619,-25.6326,2.76160278461046
472,574.0,2.0,-67.37769048602325,-41.28169,-49.461272,-12.198428910681827
473,574.0,6.0,-84.54738852581883,-47.696626,-58.167037,-29.368126950477404
474,574.0,12.0,-100.68551487901895,-50.129186,-58.89964,-45.506253303677525
475,574.0,17.0,-81.51023906746616,37.06353,-35.335783,-26.33097749212473
476,574.0,19.0,-100.99761438422475,-43.404709,-66.218921,-45.81835280888332
477,574.0,24.0,-104.70839875869436,-50.938518,-82.772953,-49.52913718335293
478,574.0,28.0,-58.091772825744066,44.472501,-20.297035,-2.9125112504026376
479,575.0,2.0,-71.5324324531182,-132.105654,-49.875742,-25.57976110110176
480,575.0,6.0,-87.48732649410667,-123.29331,-58.175624,-41.53465514209022
481,575.0,12.0,-101.95104260430756,-130.35992,-59.424546,-55.998371252291115
482,575.0,13.0,-46.14736892468868,28.70345,-17.922102,-0.19469757267223287
483,575.0,19.0,-102.48593510818391,-126.123652,-66.071632,-56.533263756167464
484,575.0,24.0,-106.01048678091601,-126.53449,-83.330592,-60.057815428899566
485,575.0,28.0,-58.08775552841738,-19.213201,-19.763402,-12.135084176400937
486,576.0,2.0,-59.444589839489225,-121.777249,-46.148569,-28.740792335593866
487,576.0,6.0,-73.80866233485742,-127.946873,-55.599663,-43.10486483096206
488,576.0,12.0,-89.51700907447395,-131.11409,-57.469054,-58.81321157057859
489,576.0,19.0,-93.2226783199137,-128.980968,-64.830599,-62.51888081601834
490,576.0,24.0,-86.56254192567586,-133.977821,-79.884574,-55.8587444217805
491,576.0,28.0,-46.5417299293668,-28.873054,-19.932109,-15.837932425471443
492,577.0,2.0,-111.7139076864276,-115.226311,-48.566553,-4.087481762530956
493,577.0,6.0,-122.40341897221009,-116.861399,-68.400507,-14.776993048313443
494,577.0,12.0,-140.37445352114054,-120.336665,-63.355421,-32.74802759724389
495,577.0,17.0,-137.16461292155827,-57.956332,-54.084423,-29.538186997661626
496,577.0,19.0,-147.29756672935991,-119.277718,-84.084029,-39.67114080546327
497,577.0,24.0,-138.9289926162192,-120.257919,-89.849003,-31.302566692322557
498,577.0,28.0,-119.37254043723877,-34.147346,-34.141454,-11.746114513342121
499,578.0,2.0,-91.85324763240015,-80.0239,-39.697631,-15.246938504462406
500,578.0,6.0,-104.01504672558104,-76.335966,-71.942419,-27.408737597643295
501,578.0,12.0,-128.40765718030852,-87.102772,-75.823212,-51.80134805237077
502,578.0,13.0,-73.02043167578687,171.811595,13.37618,3.585877452150882
503,578.0,14.0,-74.84478243771599,7.262692,-18.022932,1.761526690221757
504,578.0,17.0,-127.50777718933578,-36.522963,-73.704032,-50.901468061398035
505,578.0,19.0,-141.11718609191774,-82.607317,-102.914083,-64.51087696398
506,578.0,24.0,-134.79165379225273,-87.017803,-100.015704,-58.18534466431498
507,578.0,28.0,-95.85993813260042,-75.475906,-42.263273,-19.25362900466267
508,579.0,2.0,-102.00031248537766,-40.61161,-40.767601,-10.908183396709674
509,579.0,6.0,-119.82221685313128,-39.705022,-87.857917,-28.730087764463292
510,579.0,12.0,-135.3062433667658,-37.058721,-84.728082,-44.214114278097824
511,579.0,14.0,-93.36389384619402,44.346248,-31.956159,-2.2717647575260287
512,579.0,17.0,-139.3534888150362,-36.408281,-99.711056,-48.26135972636821
513,579.0,19.0,-154.33145737258008,-43.01944,-129.321078,-63.23932828391209
514,579.0,24.0,-140.94006196681678,-48.537583,-113.345415,-49.8479328781488
515,579.0,28.0,-117.93285869367305,-9.049881,-60.993113,-26.840729605005066
516,580.0,2.0,-112.71849335428345,-53.999081,-40.080358,-13.522593879627692
517,580.0,6.0,-125.01134705098039,-83.127583,-90.368025,-25.81544757632463
518,580.0,12.0,-137.11939919817522,-92.468743,-87.978821,-37.923499723519456
519,580.0,13.0,-81.0968574468853,110.144734,32.325101,18.099042027770466
520,580.0,14.0,-99.8887196080572,-2.180436,-33.712803,-0.6928201334014403
521,580.0,15.0,-103.90852952818486,74.274737,12.346286,-4.712630053529097
522,580.0,17.0,-139.057890599986,-98.774804,-105.20693,-39.861991125330235
523,580.0,19.0,-155.95080374965804,-87.712222,-135.067383,-56.754904275002275
524,580.0,24.0,-143.25119269918127,-92.988674,-116.866352,-44.05529322452551
525,580.0,28.0,-120.7792029229702,-29.839953,-63.995066,-21.58330344831444
526,581.0,2.0,-40.91296459642245,-107.595234,-39.441965,-11.675051486183051
527,581.0,6.0,-51.403289797577486,-97.452778,-92.722963,-22.16537668733809
528,581.0,12.0,-69.04799057934356,-104.869516,-90.701161,-39.810077469104165
529,581.0,13.0,-21.789829967636916,97.587735,35.924209,7.448083142602481
530,581.0,17.0,-67.04816384218647,-110.50136,-110.313569,-37.81025073194707
531,581.0,19.0,-88.44816593782178,-104.790552,-140.3076,-59.21025282758239
532,581.0,24.0,-80.1228791238428,-106.554582,-119.875979,-50.884966013603396
533,581.0,28.0,-41.32755361275819,-53.190254,-66.921651,-12.08964050251879
534,582.0,2.0,-101.89301094335171,-36.916377,-38.898484,-6.215180809873786
535,582.0,6.0,-120.73611028953216,-46.200309,-92.962497,-25.058280156054238
536,582.0,12.0,-135.16685349580004,-59.606585,-91.11022,-39.489023362322115
537,582.0,14.0,-92.22118120988002,113.285409,-35.97964,3.4566489235979105
538,582.0,15.0,-94.21356565505171,35.797073,16.090444,1.464264478426216
539,582.0,17.0,-125.82870448875829,-54.25939,-111.499905,-30.150874355280365
540,582.0,19.0,-142.4753224188773,-56.400461,-141.324855,-46.797492285399386
541,582.0,24.0,-137.24503556135352,-62.109548,-120.163651,-41.56720542787559
542,582.0,28.0,-109.64162384484814,-22.332693,-67.563812,-13.963793711370215
543,583.0,2.0,-99.03137112146366,-93.100724,-39.165526,-16.684567455528978
544,583.0,6.0,-112.85208842905146,-112.39405,-93.128414,-30.505284763116777
545,583.0,12.0,-131.6503586101045,-116.599875,-90.283364,-49.303554944169804
546,583.0,13.0,-62.820884051625995,109.647396,36.833876,19.52591961430869
547,583.0,17.0,-115.0515377648837,-104.591866,-111.297239,-32.70473409894902
548,583.0,19.0,-131.590061178918,-112.830516,-140.948412,-49.24325751298332
549,583.0,24.0,-134.33235963801536,-122.352616,-119.518851,-51.985555972080675
550,583.0,28.0,-99.57042283606334,-61.226467,-67.858749,-17.223619170128657
551,584.0,2.0,-107.52607714529162,-133.044443,-39.717225,-18.573732337611347
552,584.0,6.0,-117.00398551998708,-149.946027,-93.73284,-28.051640712306806
553,584.0,12.0,-136.64973895668902,-142.182775,-89.876362,-47.697394149008744
554,584.0,14.0,-86.76080295528456,-14.395431,-37.019064,2.1915418523957158
555,584.0,15.0,-88.43133797130007,61.727585,16.337164,0.5210068363802094
556,584.0,17.0,-119.74373550345325,-139.993836,-111.479754,-30.791390695772975
557,584.0,19.0,-136.78657365590388,-149.644802,-141.141319,-47.8342288482236
558,584.0,24.0,-140.2603612452389,-162.004577,-119.45573,-51.30801643755862
559,584.0,28.0,-104.15179078392882,-111.021336,-68.390322,-15.19944597624854
560,585.0,2.0,-110.81629943803883,-202.947301,-39.757319,-22.517765437852304
561,585.0,6.0,-119.97343117348136,-169.355733,-93.807554,-31.674897173294838
562,585.0,12.0,-139.56380541974337,-161.301571,-89.904583,-51.26527141955685
563,585.0,13.0,-71.10892039165712,28.649316,36.630592,17.1896136085294
564,585.0,14.0,-90.65985482683875,-61.582599,-37.053576,-2.361320826652232
565,585.0,15.0,-90.03667330671384,55.432123,16.387962,-1.7381393065273159
566,585.0,17.0,-123.21787098716551,-163.815508,-111.541113,-34.91933698697899
567,585.0,19.0,-140.35037177200746,-175.867018,-141.21224,-52.05183777182094
568,585.0,24.0,-142.8161162651109,-186.997968,-119.487461,-54.517582264924386
569,585.0,28.0,-107.80921188881842,-133.905386,-68.43802,-19.510677888631903
570,586.0,2.0,-112.33772637801721,-174.203518,-39.752332,-30.630914441995372
571,586.0,6.0,-117.50964715381106,-180.974737,-93.809723,-35.80283521778922
572,586.0,12.0,-137.17136129753573,-175.537738,-89.960213,-55.46454936151389
573,586.0,13.0,-66.94062911151202,40.430853,36.674336,14.766182824509812
574,586.0,14.0,-87.90656879214332,-68.492779,-37.014882,-6.199756856121482
575,586.0,15.0,-89.25418196893115,30.635495,16.408764,-7.547370032909313
576,586.0,17.0,-120.36331499516757,-157.866136,-111.547527,-38.656503059145734
577,586.0,19.0,-137.2856032592645,-186.434588,-141.229417,-55.578791323242655
578,586.0,24.0,-143.28829527602545,-185.602552,-119.509423,-61.581483340003615
579,586.0,28.0,-104.5810491062825,-136.034695,-68.40986,-22.87423717026067
580,587.0,6.0,-118.11302517079034,-197.609969,-93.818275,-35.10396354646278
581,587.0,12.0,-137.7119135238572,-184.20134,-90.035043,-54.702851899529634
582,587.0,13.0,-68.3075454162728,30.479225,36.736523,14.701516208054755
583,587.0,14.0,-88.39313061476187,-71.359635,-36.978125,-5.384068990434315
584,587.0,15.0,-90.22466294459358,44.344278,16.440049,-7.215601320266018
585,587.0,17.0,-121.10966710578008,-155.632365,-111.576283,-38.10060548145252
586,587.0,19.0,-138.0514312065833,-188.185829,-141.270694,-55.04236958225573
587,587.0,24.0,-144.86805084745407,-187.136745,-119.548847,-61.858989223126514
588,587.0,28.0,-105.20663713521071,-153.287753,-68.389711,-22.197575510883155
589,588.0,2.0,-114.69092211841873,-262.768333,-39.71387,-38.95274207159726
590,588.0,6.0,-110.87712441842612,-184.653288,-93.863289,-35.13894437160465
591,588.0,12.0,-129.43515489105232,-184.469894,-90.10124,-53.69697484423085
592,588.0,13.0,-61.63476995595207,32.902275,36.85986,14.103410090869396
593,588.0,15.0,-84.60915407353586,72.797802,16.541669,-8.870974026714393
594,588.0,17.0,-112.76749602032797,-147.993854,-111.684915,-37.0293159735065
595,588.0,19.0,-129.77974193412396,-202.577845,-141.375602,-54.04156188730249
596,588.0,24.0,-136.9364978838596,-172.564658,-119.588881,-61.19831783703813
597,588.0,28.0,-96.76075995537846,-121.070064,-68.437515,-21.02257990855699
598,589.0,6.0,-65.24626831064884,-156.549464,-93.80231,-20.47443242928182
599,589.0,12.0,-82.29578276288953,-150.310368,-90.093793,-37.523946881522505
600,589.0,13.0,-30.101734586512194,44.567277,36.929225,14.670101294854831
601,589.0,15.0,-49.20993370592998,44.236564,16.600402,-4.438097824562952
602,589.0,17.0,-72.2434330878583,-122.717879,-111.659173,-27.471597206491282
603,589.0,19.0,-87.36079513445259,-163.696702,-141.325401,-42.58895925308556
604,589.0,24.0,-82.60001597147712,-150.345477,-119.52073,-37.828180090110095
605,589.0,28.0,-49.11271807739875,-114.402343,-68.39072,-4.340882196031728
606,590.0,6.0,-84.62087544583892,-21.151541,-93.73969,-14.879395208463734
607,590.0,12.0,-109.94015324110256,-28.827386,-90.102139,-40.19867300372738
608,590.0,17.0,-90.86016355830617,5.152513,-111.633539,-21.118683320930984
609,590.0,19.0,-109.504775300158,-30.368867,-141.280307,-39.76329506278282
610,590.0,24.0,-107.18569735478255,-14.236815,-119.465882,-37.44421711740736
611,590.0,28.0,-73.9583328944517,13.447795,-68.336422,-4.216852657076515
612,591.0,2.0,-56.523431113617654,106.818639,-39.608315,-18.575237404749693
613,591.0,6.0,-63.074695785397225,-115.076194,-93.737437,-25.126502076529263
614,591.0,12.0,-79.9974685583477,-128.48734,-90.048895,-42.049274849479744
615,591.0,14.0,-34.04566099607976,-16.350165,-36.910318,3.902532712788201
616,591.0,15.0,-51.78710515095517,30.64851,16.671076,-13.838911442087209
617,591.0,17.0,-79.9304596316432,-85.103381,-111.583426,-41.98226592277524
618,591.0,19.0,-99.22870403826356,-141.582802,-141.219345,-61.2805103293956
619,591.0,24.0,-88.51562888256619,-119.439443,-119.395963,-50.56743517369823
620,591.0,28.0,-49.49508719064542,-87.374675,-68.319057,-11.54689348177746
621,592.0,2.0,-93.96026891373434,93.95149,-39.612055,-9.363145996468106
622,592.0,6.0,-101.30393841294924,-102.655763,-93.753311,-16.706815495683003
623,592.0,12.0,-129.51764638173574,-127.04589,-90.059311,-44.92052346446951
624,592.0,13.0,-68.74276996441176,78.761688,37.03306,15.85435295285447
625,592.0,14.0,-76.29952212620384,11.248409,-36.907882,8.297600791062393
626,592.0,15.0,-88.63289281429704,-5.477276,16.713462,-4.035769897030804
627,592.0,17.0,-121.71267879828123,-80.574287,-111.595162,-37.115555881015
628,592.0,19.0,-139.9363452405221,-108.347891,-141.229013,-55.339222323255854
629,592.0,24.0,-129.195481957287,-109.293354,-119.384184,-44.59835904002077
630,592.0,28.0,-95.50615400495622,-61.902581,-68.319483,-10.909031087689982
631,593.0,2.0,-92.17121519807394,56.556157,-39.615076,-7.038974537648187
632,593.0,6.0,-101.76153540925294,-111.792038,-93.792237,-16.629294748827192
633,593.0,12.0,-130.12668479401492,-132.108401,-90.09906,-44.99444413358917
634,593.0,13.0,-63.29800239310419,81.349537,37.10134,21.83423826732156
635,593.0,14.0,-77.16369456562285,-1.895415,-36.917896,7.968546094802903
636,593.0,15.0,-86.29083531114371,-21.92674,16.773087,-1.1585946507179585
637,593.0,17.0,-120.22362654139425,-93.334416,-111.649619,-35.0913858809685
638,593.0,19.0,-139.2501484952422,-110.719619,-141.286144,-54.11790783481645
639,593.0,24.0,-129.57244024792692,-121.332835,-119.405627,-44.44019958750117
640,593.0,28.0,-95.97929137795722,-80.425519,-68.342943,-10.847050717531474
641,594.0,2.0,-96.88816495474465,12.621159,-39.632372,-10.375825185225594
642,594.0,6.0,-106.09575821367748,-108.655301,-93.808415,-19.583418444158426
643,594.0,12.0,-131.15138302115543,-128.66046,-90.091536,-44.639043251636366
644,594.0,13.0,-68.64338112074131,66.456646,37.121116,17.86895864877775
645,594.0,14.0,-80.37504660690436,8.754728,-36.916325,6.1372931626146965
646,594.0,17.0,-126.44850976618558,-102.090223,-111.641032,-39.93616999666652
647,594.0,19.0,-143.90402246233515,-119.354987,-141.275989,-57.39168269281609
648,594.0,24.0,-133.74037940455628,-128.271989,-119.381225,-47.22803963503722
649,594.0,28.0,-100.46437855064694,-87.746984,-68.338835,-13.952038781127882
650,595.0,2.0,-101.0283397966999,25.547347,-39.655347,-10.955458147568265
651,595.0,6.0,-109.37215168027352,-98.733823,-93.845324,-19.299270031141887
652,595.0,12.0,-135.88482874468548,-121.955821,-90.099262,-45.81194709555385
653,595.0,13.0,-69.33213359461702,70.7562,37.153858,20.74074805451461
654,595.0,14.0,-83.87292837174172,17.570301,-36.927749,6.199953277389909
655,595.0,17.0,-127.62299623265076,-93.175327,-111.660823,-37.55011458351913
656,595.0,19.0,-146.53632504670568,-107.668324,-141.297861,-56.46344339757405
657,595.0,24.0,-137.07265181960517,-112.844006,-119.378336,-46.99977017047354
658,595.0,28.0,-105.33917717179877,-96.623236,-68.354132,-15.266295522667136
659,596.0,2.0,-35.905313629597565,39.224489,-39.688708,-13.914003891676543
660,596.0,6.0,-47.138131924531294,-99.814898,-93.911842,-25.146822186610272
661,596.0,12.0,-60.520862175363895,-119.247048,-90.12414,-38.529552437442874
662,596.0,13.0,-11.348381676850257,64.749441,37.201286,10.642928061070764
663,596.0,14.0,-22.728624635970274,17.555186,-36.958722,-0.7373148980492523
664,596.0,15.0,-28.42795884522941,47.575609,16.894635,-6.436649107308387
665,596.0,17.0,-56.599753886045804,-107.763262,-111.717451,-34.60844414812478
666,596.0,19.0,-73.93839412396329,-98.228008,-141.361358,-51.94708438604227
667,596.0,24.0,-66.83399356520398,-116.812773,-119.40259,-44.84268382728296
668,596.0,28.0,-35.35323457276377,-84.344019,-68.39689,-13.361924834842746
669,597.0,2.0,-40.02520103370547,-5.877938,-39.719489,-15.114051486010823
670,597.0,6.0,-45.668720582282184,-71.601279,-93.980657,-20.757571034587535
671,597.0,12.0,-61.87433998573752,-90.416914,-90.149438,-36.96319043804287
672,597.0,13.0,-11.106824557129668,92.457839,37.255287,13.80432499056498
673,597.0,17.0,-53.35934910450537,-87.524364,-111.781499,-28.44819955681072
674,597.0,19.0,-69.03687521463665,-66.041092,-141.43079,-44.125725666942
675,597.0,24.0,-60.26049146004454,-86.67122,-119.427304,-35.34934191234989
676,597.0,28.0,-32.81742859402615,-54.036202,-68.444963,-7.906279046331498
677,598.0,2.0,-33.50328598230552,-4.150522,-39.724665,-13.906829219489815
678,598.0,6.0,-41.40240479138023,-27.749434,-94.005857,-21.805948028564522
679,598.0,12.0,-56.59046491791967,-54.877146,-90.162188,-36.99400815510396
680,598.0,13.0,-8.281475671221436,94.475439,37.3048,11.31498109159427
681,598.0,17.0,-53.08457047045943,-54.58665,-111.807008,-33.48811370764373
682,598.0,19.0,-68.52300640686754,-37.048412,-141.453909,-48.92654964405183
683,598.0,24.0,-58.442460441691075,-48.413133,-119.420806,-38.84600367887537
684,598.0,28.0,-30.43403758656063,-20.904305,-68.456675,-10.837580823744926
685,599.0,2.0,-31.572674893227532,17.2498,-39.724812,-23.178560970916248
686,599.0,6.0,-44.694004060331146,-20.948246,-93.998834,-36.29989013801986
687,599.0,12.0,-62.393975042746774,-53.88131,-90.146944,-53.99986112043549
688,599.0,15.0,-30.235375876407236,187.662773,17.035067,-21.841261954095952
689,599.0,17.0,-57.46215260285907,-47.7804,-111.78269,-49.06803868054779
690,599.0,19.0,-75.93044760710805,-42.68462,-141.421921,-67.53633368479677
691,599.0,24.0,-69.3852089162468,-47.20625,-119.377999,-60.99109499393551
692,599.0,28.0,-25.697174141636314,-21.752853,-68.436605,-17.30306021932503
693,600.0,2.0,-113.57029809900467,10.848249,-39.726691,-10.613765227247058
694,600.0,6.0,-125.11546231214862,-60.568488,-94.015817,-22.158929440391006
695,600.0,12.0,-145.87621232485407,-87.500124,-90.149644,-42.91967945309645
696,600.0,14.0,-99.54072908878429,126.158768,-36.991776,3.4158037829733274
697,600.0,17.0,-141.06891697350744,-80.113888,-111.797934,-38.112384101749825
698,600.0,19.0,-156.61714879039036,-75.795809,-141.431576,-53.66061591863274
699,600.0,24.0,-147.00250037749905,-78.635673,-119.359159,-44.04596750574143
700,600.0,28.0,-119.97795219699873,-61.139193,-68.442971,-17.021419325241112
701,601.0,2.0,-117.54886907505636,-5.627869,-39.727641,-18.32293783962254
702,601.0,6.0,-124.93538812421333,-107.645381,-94.048392,-25.709456888779513
703,601.0,12.0,-144.31137304278917,-123.348911,-90.165661,-45.08544180735535
704,601.0,13.0,-79.63072339671317,95.216753,37.437795,19.595207838720654
705,601.0,14.0,-98.13335499192895,75.552335,-37.008785,1.0925762435048654
706,601.0,17.0,-129.27528672701106,-120.370948,-111.841902,-30.049355491577245
707,601.0,19.0,-145.64712248678734,-104.606598,-141.470882,-46.42119125135352
708,601.0,24.0,-148.6731116252193,-113.299365,-119.356837,-49.44718038978547
709,601.0,28.0,-114.3522248146943,-106.95759,-68.467628,-15.126293579260476
710,602.0,2.0,-113.61031165345986,-53.254477,-39.707873,-25.99327548521478
711,602.0,6.0,-122.20580879368008,-138.84031,-94.11606,-34.588772625435
712,602.0,12.0,-141.69767186857877,-149.82429,-90.252347,-54.08063570033369
713,602.0,13.0,-73.21716759259576,72.104325,37.574718,14.399868575649322
714,602.0,14.0,-92.77004000652015,32.809217,-37.043842,-5.153003838275069
715,602.0,15.0,-105.17912756222249,-94.848938,17.260371,-17.56209139397741
716,602.0,17.0,-126.16546149645073,-136.562591,-111.980955,-38.54842532820565
717,602.0,19.0,-142.52262416519412,-131.900995,-141.611693,-54.90558799694904
718,602.0,24.0,-149.0630912858628,-137.787923,-119.423232,-61.44605511761773
719,602.0,28.0,-109.72644764191574,-117.327366,-68.53433,-22.10941147367066
720,603.0,2.0,-111.85617621774944,-75.045265,-39.700734,-21.562618598614492
721,603.0,6.0,-123.58585397203856,-129.865882,-94.20446,-33.29229635290362
722,603.0,12.0,-143.34244884936498,-151.318038,-90.358506,-53.04889123023004
723,603.0,13.0,-74.87610083154121,83.592626,37.713702,15.417456787593736
724,603.0,14.0,-95.98027129833177,6.358783,-37.084485,-5.686713679196828
725,603.0,15.0,-103.25042409689313,-70.824972,17.36922,-12.956866477758183
726,603.0,17.0,-127.98185084139854,-160.43797,-112.139247,-37.688293222263596
727,603.0,19.0,-144.30332739445495,-130.354998,-141.779925,-54.00976977532001
728,603.0,24.0,-150.0334881608331,-135.300108,-119.516417,-59.73993054169814
729,603.0,28.0,-112.16523923038841,-133.911328,-68.612947,-21.871681611253464
730,604.0,2.0,-118.44074938157456,-52.471717,-39.757217,-18.78248624249764
731,604.0,6.0,-130.29031664685897,-142.498185,-94.269988,-30.632053507782047
732,604.0,12.0,-150.06340033525407,-152.73647,-90.360553,-50.40513719617715
733,604.0,13.0,-81.93439412994421,76.855205,37.722039,17.723869009132713
734,604.0,14.0,-104.91687998648383,-21.256702,-37.110688,-5.258616847406913
735,604.0,17.0,-135.54461749769033,-165.66827,-112.159643,-35.8863543586134
736,604.0,19.0,-152.20999707339996,-138.989454,-141.810753,-52.55173393432304
737,604.0,24.0,-154.18851065845902,-143.042083,-119.525461,-54.5302475193821
738,604.0,28.0,-123.5094474990734,-131.550679,-68.643007,-23.85118435999648
739,605.0,2.0,-35.670382927804624,-16.71171,-39.817511,-11.150971574515061
740,605.0,6.0,-45.794149009457506,-124.331046,-94.33296,-21.274737656167943
741,605.0,12.0,-57.729704587869534,-162.516711,-90.342557,-33.21029323457997
742,605.0,13.0,-11.626429952731208,98.683495,37.720724,12.892981400558355
743,605.0,14.0,-26.05883150195671,-24.563152,-37.142412,-1.5394201486671477
744,605.0,15.0,-28.943052107028453,-7.62886,17.419291,-4.423640753738891
745,605.0,17.0,-56.78290607745498,-150.46729,-112.168211,-32.26349472416542
746,605.0,19.0,-70.80844513097172,-128.746753,-141.825613,-46.28903377768216
747,605.0,24.0,-62.49170042153881,-129.861975,-119.516871,-37.972289068249246
748,605.0,28.0,-37.072781373884204,-123.46484,-68.673514,-12.553370020594642
749,606.0,2.0,-39.61936140181107,34.176945,-39.864768,-13.631706401874272
750,606.0,6.0,-55.633560035687665,-56.894538,-94.411968,-29.645905035750868
751,606.0,12.0,-69.61285073464029,-99.862438,-90.368787,-43.625195734703496
752,606.0,14.0,-28.31313748462162,28.055564,-37.178131,-2.325482484684823
753,606.0,15.0,-31.916504076021788,24.154736,17.465618,-5.92884907608499
754,606.0,17.0,-62.17253349379643,-97.624768,-112.226536,-36.18487849385963
755,606.0,19.0,-81.94965425182876,-49.728899,-141.895298,-55.96199925189197
756,606.0,24.0,-74.20224792616408,-66.819833,-119.549341,-48.21459292622728
757,606.0,28.0,-43.82320030955243,-58.24267,-68.721877,-17.835545309615636
758,607.0,2.0,-60.38984168397676,55.182702,-39.91225,-21.8902295496869
759,607.0,6.0,-61.9842397362056,-51.750576,-94.503262,-23.48462760191574
760,607.0,12.0,-71.26980046917085,-86.816402,-90.434437,-32.770188334880984
761,607.0,14.0,-44.271414039461206,-0.148473,-37.206491,-5.771801905171344
762,607.0,17.0,-70.17607551202721,-103.0562,-112.309525,-31.67646337773735
763,607.0,19.0,-82.56615001734728,-50.614011,-141.999991,-44.06653788305742
764,607.0,24.0,-70.36779650521326,-65.774088,-119.620612,-31.8681843709234
765,607.0,28.0,-53.46954358176525,-51.643965,-68.773256,-14.969931447475389
766,608.0,2.0,-115.73827471870428,-36.979456,-39.95561,-20.96146585228712
767,608.0,6.0,-121.60361382258017,-85.196818,-94.60508,-26.826804956163016
768,608.0,12.0,-141.73096372048815,-55.574908,-90.530726,-46.95415485407099
769,608.0,13.0,-77.35937110798056,119.419912,37.882793,17.41743775843659
770,608.0,14.0,-91.53568521081209,-47.01755,-37.233369,3.2411236556050653
771,608.0,15.0,-105.03207670775538,-17.256617,17.562733,-10.255267841338224
772,608.0,17.0,-125.32451566436887,-119.984079,-112.419216,-30.54770679795172
773,608.0,19.0,-142.27674657413763,-77.163372,-142.137261,-47.49993770772048
774,608.0,24.0,-148.99876482246077,-89.51593,-119.721271,-54.221955956043615
775,608.0,28.0,-109.70460062824196,-79.913523,-68.83198,-14.927791761824807
776,609.0,2.0,-126.54716481590692,-42.398844,-39.962335,-19.4834899343836
777,609.0,6.0,-134.14893290388528,-101.788381,-94.750042,-27.085258022361955
778,609.0,12.0,-154.72180398982084,-96.412205,-90.742952,-47.658129108297516
779,609.0,13.0,-86.57691862194005,95.461529,38.063176,20.486756259583274
780,609.0,14.0,-110.95394539420215,-71.802958,-37.273677,-3.890270512678825
781,609.0,17.0,-140.56726535276482,-149.630398,-112.664467,-33.503590471241495
782,609.0,19.0,-156.55892437087692,-112.287349,-142.422047,-49.4952494893536
783,609.0,24.0,-153.49972811825094,-114.39484,-119.929128,-46.436053236727616
784,609.0,28.0,-133.8282928935374,-119.42711,-68.940995,-26.76461801201407
785,610.0,2.0,-117.53289623524572,-40.709682,-39.884529,-22.626381950600745
786,610.0,6.0,-125.64905455468883,-83.449392,-94.783611,-30.74254027004386
787,610.0,12.0,-145.58460856055984,-104.295034,-90.9172,-50.67809427591487
788,610.0,13.0,-79.14613615573849,103.54406,38.262414,15.760378128906481
789,610.0,14.0,-100.05203538953265,-69.982958,-37.257667,-5.145521104887678
790,610.0,17.0,-130.61075298709304,-137.334383,-112.836968,-35.704238702448066
791,610.0,19.0,-147.2535257941291,-99.239601,-142.603592,-52.34701150948413
792,610.0,24.0,-152.36499869749795,-110.643237,-120.047486,-57.45848441285298
793,610.0,28.0,-116.35782501400098,-106.820885,-68.975389,-21.45131072935601
794,611.0,2.0,-53.14736787930116,-46.672514,-39.914494,-10.712558870304818
795,611.0,6.0,-59.61206576527929,-130.651605,-94.890199,-17.17725675628295
796,611.0,12.0,-67.96871106838199,-136.289081,-90.987977,-25.533902059385653
797,611.0,13.0,-26.858309653308538,82.128259,38.359388,15.576499355687801
798,611.0,14.0,-45.12722055506562,-96.766637,-37.314306,-2.6924115460692803
799,611.0,17.0,-72.17879567062796,-153.943363,-112.969995,-29.743986661631624
800,611.0,19.0,-81.50984708643827,-165.783779,-142.749033,-39.07503807744193
801,611.0,24.0,-73.12269463806288,-153.255559,-120.123537,-30.687885629066542
802,611.0,28.0,-56.08319955277574,-146.205302,-69.061406,-13.6483905437794
803,612.0,2.0,-92.26295562895788,13.165179,-40.09043,-11.182536489756998
804,612.0,6.0,-97.39496398715211,-65.935159,-95.163582,-16.314544847951225
805,612.0,12.0,-118.0622648679187,-91.004191,-91.043805,-36.981845728717815
806,612.0,14.0,-68.53654282845514,-24.398151,-37.482218,12.543876310745745
807,612.0,17.0,-98.90665715387404,-74.3998,-113.176788,-17.82623801467315
808,612.0,19.0,-117.0712967942506,-65.794509,-143.000003,-35.990877655049715
809,612.0,24.0,-121.02728772377216,-77.057049,-120.274512,-39.94686858457128
810,612.0,28.0,-88.14700629996535,-69.655577,-69.268938,-7.06658716076447
811,613.0,2.0,-85.95671403100951,15.407013,-40.148867,-12.976422435176104
812,613.0,6.0,-89.67619752767966,-113.444712,-95.184371,-16.695905931846255
813,613.0,12.0,-108.5376961814854,-107.209967,-91.018182,-35.557404585651994
814,613.0,14.0,-59.971679077232544,-29.458341,-37.4674,13.008612518600863
815,613.0,17.0,-97.7483624595083,-118.364931,-113.117022,-24.768070863674893
816,613.0,19.0,-110.68116092046546,-107.64627,-142.950967,-37.70086932463205
817,613.0,24.0,-116.80376319230618,-119.052943,-120.245213,-43.82347159647277
818,613.0,28.0,-77.14546841931387,-111.265673,-69.243318,-4.165176823480465
819,614.0,2.0,-44.5133240308778,-55.851149,-40.089124,-14.247943021598605
820,614.0,6.0,-60.28735991115387,-186.810888,-95.001887,-30.02197890187468
821,614.0,13.0,-18.656893041056623,38.33792,38.28433,11.608487968222569
822,614.0,14.0,-26.713255852404185,-112.983368,-37.337634,3.5521251568750074
823,614.0,17.0,-72.35809868785202,-162.913066,-112.872218,-42.092717678572825
824,614.0,19.0,-88.12154547272449,-148.3644,-142.670569,-57.856164463445296
825,614.0,24.0,-82.99782214682917,-188.424057,-120.041322,-52.73244113754997
826,614.0,28.0,-43.0874836508815,-190.610209,-69.059864,-12.82210264160231
827,615.0,2.0,-103.63502207293264,-12.008279,-40.021502,-17.544126396256544
828,615.0,6.0,-107.56260671574809,-148.146443,-94.854374,-21.47171103907199
829,615.0,12.0,-126.51758894195943,-138.877297,-90.785911,-40.42669326528333
830,615.0,14.0,-73.26301170676774,-81.939647,-37.25446,12.827883969908356
831,615.0,17.0,-109.30573333800416,-135.474676,-112.696794,-23.214837661328062
832,615.0,19.0,-126.40920407126049,-151.306728,-142.450751,-40.31830839458439
833,615.0,24.0,-133.76742903361145,-163.459689,-119.850069,-47.67653335693535
834,615.0,28.0,-92.47953520123112,-162.920144,-68.931729,-6.388639524555018
835,616.0,2.0,-101.93600581584369,-66.252722,-39.911571,-18.378713906081487
836,616.0,6.0,-103.22448277407153,-170.432017,-94.743587,-19.667190864309333
837,616.0,12.0,-126.87821360769493,-157.104879,-90.695418,-43.32092169793273
838,616.0,13.0,-65.92876443389746,53.516943,38.355087,17.628527475864743
839,616.0,14.0,-81.95055633789866,-76.457511,-37.233203,1.6067355718635383
840,616.0,17.0,-112.4876922505288,-151.52397,-112.643385,-28.930400340766596
841,616.0,19.0,-128.0109361002712,-185.797611,-142.334207,-44.45364419050901
842,616.0,24.0,-127.82021377148833,-173.933599,-119.680851,-44.26292186172613
843,616.0,28.0,-98.6667632919093,-188.007509,-68.883154,-15.109471382147106
844,617.0,2.0,-79.65673448227712,-61.520489,-39.677801,-19.38801058028784
845,617.0,6.0,-83.50106816947554,-168.834621,-94.337309,-23.23234426748627
846,617.0,12.0,-101.0056881003325,-166.949618,-90.353888,-40.73696419834323
847,617.0,13.0,-53.57090363596283,54.554964,38.324748,6.697820266026447
848,617.0,17.0,-86.0170516273293,-164.570928,-112.241492,-25.74832772534002
849,617.0,19.0,-102.18276762224897,-217.925922,-141.786998,-41.9140437202597
850,617.0,24.0,-102.88255870115539,-174.956679,-119.166751,-42.61383479916611
851,617.0,28.0,-69.59580873103518,-170.837301,-68.607581,-9.327084829045901
852,618.0,2.0,-79.40385097886303,-115.466141,-39.727647,-21.672520102515627
853,618.0,6.0,-84.01819429824319,-184.027653,-93.900768,-26.28686342189578
854,618.0,12.0,-101.31710560494957,-155.706045,-89.579041,-43.58577472860217
855,618.0,13.0,-53.12162257107419,19.445471,37.786013,4.609708305273216
856,618.0,14.0,-49.97012538520594,-74.987461,-36.930198,7.761205491141467
857,618.0,17.0,-86.60142851952352,-146.616332,-111.348691,-28.870097643176116
858,618.0,19.0,-102.89275388169841,-212.856941,-140.747629,-45.161423005351004
859,618.0,24.0,-103.24422543573814,-181.35793,-118.330583,-45.51289455939074
860,618.0,28.0,-69.5968321954388,-195.848624,-68.209351,-11.865501319091386
861,619.0,6.0,-86.10793728421883,-227.975595,-93.469288,-29.519839000734706
862,619.0,14.0,-52.81146944730684,-90.885862,-36.676802,3.776628836177288
863,619.0,15.0,-80.51178531122756,112.405596,17.707903,-23.923687027743426
864,619.0,17.0,-90.37870096788004,-211.897435,-110.899886,-33.79060268439591
865,619.0,19.0,-106.80054484386322,-234.958513,-140.19616,-50.21244656037909
866,619.0,24.0,-105.2893538794871,-223.093288,-117.902006,-48.701255596002966
867,619.0,28.0,-72.14616317380964,-194.659927,-67.850323,-15.558064890325511
868,620.0,2.0,-57.65216223672024,-78.329506,-39.358753,-33.99639733637563
869,620.0,6.0,-53.58950290778165,-163.642293,-93.159447,-29.933738007437043
870,620.0,12.0,-71.33431162396792,-144.473782,-89.198846,-47.67854672362331
871,620.0,13.0,-16.1930690944323,42.222934,37.653108,7.462695805912308
872,620.0,17.0,-57.04180114256126,-149.295027,-110.562454,-33.386036242216655
873,620.0,19.0,-74.24767574808278,-184.433591,-139.799329,-50.59191084773818
874,620.0,24.0,-74.47365710475063,-167.663743,-117.617903,-50.81789220440602
875,620.0,28.0,-35.55550499929724,-139.969804,-67.566807,-11.899740098952634
876,621.0,2.0,-35.51489526926402,-7.315365,-39.156182,-20.68157445854601
877,621.0,6.0,-41.12581962803924,5.375927,-92.786798,-26.29249881732123
878,621.0,12.0,-59.85012755078285,-33.575413,-89.197437,-45.016806740064844
879,621.0,17.0,-48.51069390210989,-4.419163,-110.212731,-33.677373091391885
880,621.0,19.0,-64.50804376624393,-21.984038,-139.42052,-49.67472295552592
881,621.0,24.0,-56.167728079711736,-22.242984,-117.423383,-41.33440726899373
882,621.0,28.0,-22.411286445749308,15.275493,-67.188665,-7.577965635031301
883,622.0,2.0,-108.40026018924753,-8.063928,-38.784822,-10.32842668253899
884,622.0,6.0,-116.10855721002005,-58.079106,-92.402802,-18.03672370331151
885,622.0,12.0,-137.9370727039579,-63.470136,-89.516591,-39.865239197249366
886,622.0,14.0,-90.31967776567333,34.054116,-35.727521,7.75215574103521
887,622.0,17.0,-121.20275075414412,-60.353012,-110.113517,-23.130917247435576
888,622.0,19.0,-137.75955971486857,-70.564469,-139.318345,-39.68772620816003
889,622.0,24.0,-139.99073678813636,-70.20784,-117.466583,-41.918903281427816
890,622.0,28.0,-107.99284466149018,-43.597157,-66.818167,-9.921011154781638
891,623.0,2.0,-47.086884760327194,-82.230854,-39.256234,-12.031184057651586
892,623.0,6.0,-57.37046913501418,-85.072603,-92.974626,-22.314768432338575
893,623.0,12.0,-74.29566407175656,-101.377114,-89.515841,-39.239963369080954
894,623.0,13.0,-24.253895547122596,146.471123,37.732707,10.801805155553012
895,623.0,15.0,-44.7976823412791,69.276899,17.547513,-9.741981638603491
896,623.0,17.0,-68.51560041200324,-97.31836,-110.401986,-33.45989970932763
897,623.0,19.0,-87.58441898472186,-98.724011,-139.713955,-52.528718282046256
898,623.0,24.0,-79.38841071611176,-100.251781,-117.73416,-44.332710013436156
899,623.0,28.0,-42.68379968715574,-66.057709,-67.225966,-7.628098984480133
900,624.0,2.0,-58.783155113266226,-6.284939,-39.930058,-24.35101168586835
901,624.0,6.0,-69.70415785707351,-8.720498,-92.460544,-35.272014429675636
902,624.0,12.0,-87.25829136374557,-7.236798,-87.769328,-52.826147936347695
903,624.0,17.0,-83.63975980786405,-21.753111,-108.410458,-49.20761638046618
904,624.0,19.0,-102.73672152396031,-15.818758,-137.569291,-68.30457809656244
905,624.0,24.0,-93.14000475939771,-18.23512,-116.173659,-58.70786133199984
906,624.0,28.0,-55.85790222503012,16.788458,-66.551811,-21.42575879763224
907,625.0,2.0,-30.458615099163566,-9.216996,-37.783783,-17.14894781090871
908,625.0,6.0,-41.06892396565653,-21.12862,-88.074353,-27.759256677401673
909,625.0,12.0,-57.01297103551361,-0.171527,-85.819439,-43.70330374725875
910,625.0,13.0,-7.58362088944304,86.569922,34.889276,5.7260463988118175
911,625.0,15.0,-25.425386493835838,4.347731,15.360576,-12.11571920558098
912,625.0,17.0,-51.55022086882808,-30.719681,-103.858187,-38.24055358057322
913,625.0,19.0,-65.08099463566752,-26.972251,-132.2162,-51.771327347412665
914,625.0,24.0,-56.558093000695656,-32.050597,-112.529439,-43.2484257124408
915,625.0,28.0,-21.629370865526393,-7.852337,-62.777263,-8.319703577271536
916,626.0,2.0,-26.34336081048372,-7.941615,-35.901305,-6.100276195226552
917,626.0,6.0,-37.02922475548432,-91.988501,-82.823656,-16.786140140227154
918,626.0,12.0,-58.69848148193181,-92.150781,-78.780738,-38.45539686667464
919,626.0,13.0,-10.081960428945655,0.932848,32.149901,10.161124186311513
920,626.0,14.0,-12.810471673125482,-11.520642,-32.003596,7.432612942131685
921,626.0,15.0,-27.13126900052177,-19.764882,14.673478,-6.888184385264601
922,626.0,17.0,-51.92930963799966,-91.972606,-96.927795,-31.68622502274249
923,626.0,19.0,-67.13892303639835,-87.380771,-123.151873,-46.895838421141185
924,626.0,24.0,-64.04435691407735,-94.156421,-104.192147,-43.80127229882019
925,626.0,28.0,-23.91414229860677,-9.801112,-59.418552,-3.671057683349602
926,627.0,2.0,-36.65263396689332,-2.050881,-37.131064,-7.411633476688586
927,627.0,6.0,-53.47746494531168,-87.139335,-84.68908,-24.236464455106947
928,627.0,12.0,-75.0186001262053,-64.247864,-84.301011,-45.777599636000566
929,627.0,14.0,-18.479431927015987,-16.472357,-30.277353,10.761568563188746
930,627.0,15.0,-38.35965579968803,-58.913047,12.891548,-9.118655309483295
931,627.0,17.0,-68.0227554189392,-86.867052,-98.948635,-38.781754928734465
932,627.0,19.0,-86.62851624639408,-87.232503,-127.141985,-57.38751575618935
933,627.0,24.0,-81.8795780066544,-91.190488,-109.927986,-52.638577516449665
934,627.0,28.0,-36.20599288674806,-23.213249,-59.010146,-6.964992396543323
935,628.0,2.0,-25.912781676524713,-79.802252,-27.420088,-12.446735663632733
936,628.0,6.0,-45.905706907195594,-153.381758,-64.197568,-32.439660894303614
937,628.0,12.0,-66.26379589480473,-117.060733,-71.003355,-52.79774988191275
938,628.0,14.0,-14.661294699208995,-91.561154,-19.401539,-1.195248686317015
939,628.0,15.0,-34.108250533794404,-94.452878,8.077798,-20.642204520902425
940,628.0,17.0,-55.161952097560444,-126.507151,-76.809557,-41.695906084668465
941,628.0,19.0,-73.81169116636167,-150.207265,-100.096498,-60.34564515346969
942,628.0,24.0,-71.2746903913413,-154.74124,-89.396357,-57.808644378449316
943,628.0,28.0,-25.852363500210657,-92.177371,-42.713985,-12.386317487318678
944,629.0,2.0,-32.65196086472207,-65.199979,-26.09882,-14.535413295356953
945,629.0,6.0,-42.989897870213625,-126.930903,-65.176197,-24.873350300848507
946,629.0,12.0,-61.70820112455584,-116.706213,-67.409494,-43.591653555190724
947,629.0,14.0,-16.022136843993316,-66.388877,-23.583474,2.0944107253718016
948,629.0,17.0,-49.86032952788883,-105.283333,-79.835384,-31.743781958523712
949,629.0,19.0,-66.62128237668686,-126.286,-101.190203,-48.504734807321746
950,629.0,24.0,-65.9579525478498,-133.150339,-86.173203,-47.84140497848468
951,629.0,28.0,-25.98311029115429,-76.715728,-46.534868,-7.8665627217891725
952,630.0,2.0,-32.315577760550994,-59.077698,-8.75293,-14.146595079586287
953,630.0,6.0,-40.422408242793594,-98.580417,-34.01031,-22.253425561828887
954,630.0,12.0,-57.03656523219374,-86.983355,-47.359348,-38.867582551229034
955,630.0,13.0,-11.36673126087956,57.865663,23.613282,6.802251420085147
956,630.0,14.0,-15.064120571254215,-37.601314,-8.773013,3.104862109710492
957,630.0,17.0,-51.60624648025191,-100.451486,-49.74325,-33.43726379928721
958,630.0,19.0,-65.5602693070302,-105.231097,-62.51128,-47.391286626065494
959,630.0,24.0,-63.50894221300178,-105.330167,-54.481664,-45.33995953203707
960,630.0,28.0,-25.096497930417677,-42.591008,-23.860093,-6.92751524945297
961,631.0,2.0,-114.00157518400785,7.524592,-8.224819,-17.511723144666362
962,631.0,6.0,-116.23688578798425,-38.665019,-22.743354,-19.747033748642764
963,631.0,12.0,-135.1617415522027,-48.255728,-40.150122,-38.67188951286121
964,631.0,15.0,-101.59715500467176,-23.089109,-0.802643,-5.107302965330277
965,631.0,17.0,-118.63499330949271,-24.866937,-30.95748,-22.14514127015123
966,631.0,19.0,-134.93287380817227,-50.043644,-43.276676,-38.44302176883079
967,631.0,24.0,-141.77714378019652,-44.279306,-44.507081,-45.28729174085504
968,631.0,28.0,-101.38459327899746,-20.960572,-10.833852,-4.894741239655971
969,632.0,2.0,-69.90218527284803,-53.471415,-20.950961,-28.09203578190089
970,632.0,6.0,-65.50436925097058,-93.120622,-38.032026,-23.694219760023444
971,632.0,12.0,-84.58718943501532,-99.660915,-43.942331,-42.77703994406818
972,632.0,13.0,-33.35133235559206,37.474661,8.01891,8.458817135355076
973,632.0,14.0,-33.76773418083064,15.069557,-7.079416,8.042415310116503
974,632.0,15.0,-56.050322364249055,-45.257595,-3.13581,-14.240172873301916
975,632.0,17.0,-62.054092097463844,-51.877788,-39.215361,-20.243942606516704
976,632.0,19.0,-82.18015520794378,-97.485152,-55.766057,-40.370005716996644
977,632.0,24.0,-86.51077489514877,-94.887648,-55.763627,-44.70062540420163
978,632.0,28.0,-45.37486342015277,-47.027189,-20.641489,-3.564713929205631
979,633.0,2.0,-70.29554325784282,-69.307423,-17.211025,-15.021033715867944
980,633.0,6.0,-75.98515552629775,-78.584425,-30.074657,-20.710645984322866
981,633.0,12.0,-104.31194379076753,-84.404312,-31.220064,-49.03743424879265
982,633.0,13.0,-37.20532084107465,71.328136,5.144391,18.069188700900227
983,633.0,17.0,-79.12920904718081,-33.29367,-29.720348,-23.85469950520593
984,633.0,19.0,-100.04747258461657,-63.407211,-41.983423,-44.77296304264169
985,633.0,24.0,-108.78619578170026,-68.952658,-41.138771,-53.51168623972538
986,633.0,28.0,-65.12947165880884,-40.76721,-17.081996,-9.85496211683396
987,634.0,2.0,-101.65697209852962,-87.922791,-10.394181,-19.475042216699165
988,634.0,6.0,-109.68967255827658,-114.867979,-17.679286,-27.507742676446128
989,634.0,12.0,-133.5208009135905,-66.097943,-32.686322,-51.33887103176005
990,634.0,13.0,-66.2231420353382,50.517102,3.280172,15.958787846492257
991,634.0,17.0,-117.59144973536333,-84.86417,-18.711487,-35.40951985353287
992,634.0,19.0,-137.51324229445171,-101.616511,-30.594418,-55.33131241262126
993,634.0,24.0,-132.80132613244612,-127.236187,-36.894445,-50.619396250615665
994,634.0,28.0,-103.7421651251129,-53.366557,-4.511629,-21.56023524328245
995,635.0,2.0,-74.87428591407959,41.726485,48.88492,-21.56202115939142
996,635.0,6.0,-77.30725295306998,-53.495502,28.305802,-23.994988198381805
997,635.0,12.0,-95.66145725620149,-16.866574,-43.725336,-42.349192501513315
998,635.0,13.0,-44.65908323019929,36.165235,51.35785,8.653181524488879
999,635.0,17.0,-80.18241987980176,-69.426288,-25.31274,-26.870155125113584
1000,635.0,19.0,-99.64522123337944,-71.018654,-21.930349,-46.33295647869127
1001,635.0,24.0,-108.02755986705559,-74.649377,-17.465353,-54.715295112367414
1002,635.0,28.0,-66.45109518766024,-45.570486,15.741995,-13.138830432972071
1003,636.0,2.0,-95.99444400936143,70.841362,61.279297,-1.2810626756164538
1004,636.0,6.0,-106.94106449159517,-11.719744,45.819601,-12.227683157850194
1005,636.0,12.0,-126.35645954199197,30.559914,-60.378701,-31.64307820824699
1006,636.0,15.0,-105.7401859046465,-18.008201,13.995161,-11.026804570901518
1007,636.0,17.0,-108.42646361956685,-1.023937,-15.20591,-13.71308228582187
1008,636.0,19.0,-126.02360002315832,-16.298919,-14.647462,-31.310218689413347
1009,636.0,24.0,-134.11893528373096,-22.066122,-23.625135,-39.405553949985986
1010,636.0,28.0,-89.27055698869019,96.212183,36.594083,5.442824345054788
1011,637.0,2.0,-74.5691779968054,25.827269,2.810631,-14.809122861840244
1012,637.0,6.0,-89.41441901289832,-27.146398,-35.020617,-29.65436387793317
1013,637.0,12.0,-105.08158867927084,3.233572,-55.421815,-45.32153354430569
1014,637.0,13.0,-67.69639924884403,63.990836,43.788664,-7.9363441138788815
1015,637.0,14.0,-52.6028468300619,-22.699357,-13.487361,7.15720830490325
1016,637.0,15.0,-83.29507991564753,-4.288586,25.187732,-23.535024780682384
1017,637.0,17.0,-93.32928924832318,-44.437826,-68.208112,-33.56923411335803
1018,637.0,19.0,-109.15750172982258,-47.279106,-78.017852,-49.397446594857435
1019,637.0,24.0,-108.01435478679343,-46.405111,-58.852646,-48.25429965182828
1020,637.0,28.0,-72.04910589380577,-10.981283,-31.928696,-12.289050758840624
1021,638.0,2.0,-72.94544555337502,-30.859393,-23.376814,-9.681959324026408
1022,638.0,6.0,-82.83634400593468,-80.588097,-50.18589,-19.572857776586062
1023,638.0,12.0,-98.05676073243085,-23.921713,-41.378529,-34.79327450308223
1024,638.0,13.0,-65.44778195061721,-39.33988,16.750309,-2.1842957212685974
1025,638.0,14.0,-47.06008000415372,-45.024385,-21.804109,16.203406225194897
1026,638.0,15.0,-81.32566120829911,-78.788494,9.134481,-18.062174978950495
1027,638.0,17.0,-83.3781106386896,-91.044884,-55.714368,-20.11462440934099
1028,638.0,19.0,-99.08201929700272,-69.94312,-70.307128,-35.8185330676541
1029,638.0,24.0,-102.11467711556419,-83.419253,-57.771574,-38.851190886215576
1030,638.0,28.0,-68.70579419563425,-32.762373,-36.903656,-5.4423079662856395
1031,639.0,2.0,-62.03348639079021,-89.307099,-41.239329,-25.623504987453458
1032,639.0,6.0,-63.002976464741025,-119.550584,-56.194006,-26.592995061404274
1033,639.0,12.0,-82.42584620183618,-38.024963,-27.773518,-46.01586479849943
1034,639.0,13.0,-27.298550413396747,-90.314347,-6.413006,9.111430989940004
1035,639.0,14.0,-30.786488490623235,-22.249712,-24.437217,5.623492912713516
1036,639.0,15.0,-51.483140304724934,-91.629785,-5.526933,-15.073158901388183
1037,639.0,17.0,-63.8386628196064,-60.322632,-39.550431,-27.428681416269647
1038,639.0,19.0,-83.69106355957581,-102.819832,-56.928762,-47.28108215623906
1039,639.0,24.0,-91.28469593403858,-108.767925,-52.168369,-54.87471453070183
1040,639.0,28.0,-46.42007690565392,-47.876069,-35.594629,-10.01009550231717
1041,640.0,2.0,-74.30526776954886,-19.400305,-55.328115,-30.92756807903328
1042,640.0,6.0,-76.34024488632924,-48.630087,-64.339543,-32.96254519581366
1043,640.0,12.0,-94.37550802067719,-59.567011,-38.008767,-50.997808330161604
1044,640.0,14.0,-39.331593712390855,39.207225,-18.721502,4.046105978124729
1045,640.0,17.0,-77.90211824620168,-18.530025,-34.815066,-34.5244185556861
1046,640.0,19.0,-100.04217502047246,-40.470996,-60.40972,-56.66447532995687
1047,640.0,24.0,-106.63104978270032,-31.574562,-67.277237,-63.25335009218473
1048,640.0,28.0,-58.89940889575079,-1.969279,-31.675473,-15.521709205235204
1049,641.0,2.0,-76.42492790295562,-3.547025,-38.351034,-27.01600462942737
1050,641.0,6.0,-73.01494410798747,-30.786306,-55.840275,-23.60602083445923
1051,641.0,12.0,-92.20412608448693,-38.782115,-49.186177,-42.795202810958685
1052,641.0,17.0,-75.3909143731921,-1.261914,-45.343652,-25.98199109966386
1053,641.0,19.0,-94.8710346736014,-18.307038,-68.246545,-45.462111400073155
1054,641.0,24.0,-101.21985630794826,-20.968381,-70.180146,-51.81093303442002
1055,641.0,28.0,-59.00535227290176,3.487662,-29.56496,-9.596428999373515
1056,642.0,2.0,-110.60739252386625,-36.569938,-39.576196,-18.24367232414596
1057,642.0,6.0,-107.69171454623951,-48.13982,-56.516714,-15.327994346519219
1058,642.0,12.0,-129.69745569612482,-38.803001,-48.047888,-37.33373549640453
1059,642.0,17.0,-114.15945324756179,-12.869209,-44.646616,-21.795733047841495
1060,642.0,19.0,-132.50547547789466,-31.794769,-67.623677,-40.14175527817437
1061,642.0,24.0,-137.57203988110484,-53.081218,-69.687754,-45.20831968138455
1062,642.0,28.0,-100.21793290063795,-4.087641,-29.925651,-7.854212700917657
1063,643.0,2.0,-126.75690569584131,-39.715271,-41.094649,-12.397608844826237
1064,643.0,6.0,-126.63765638684404,-42.468421,-57.564278,-12.278359535828969
1065,643.0,12.0,-146.50963838817552,-37.252017,-47.019429,-32.15034153716044
1066,643.0,17.0,-134.74873119240786,-11.853913,-44.174073,-20.389434341392786
1067,643.0,19.0,-152.28405324146152,-35.473253,-67.326171,-37.92475639044645
1068,643.0,24.0,-148.05943155121076,-48.767753,-69.48101,-33.70013470019569
1069,643.0,28.0,-118.04874606263914,-7.60429,-30.531977,-3.6894492116240656
1070,644.0,2.0,-109.57881619674555,-19.15586,-38.068712,-22.155044851974452
1071,644.0,6.0,-108.09863806421423,-31.707896,-59.349675,-20.67486671944313
1072,644.0,12.0,-128.57015137503635,-30.303008,-47.826949,-41.14638003026525
1073,644.0,14.0,-74.46375250301901,38.253557,-19.059203,12.960018841752088
1074,644.0,17.0,-113.10243454868449,-39.422768,-51.38541,-25.678663203913388
1075,644.0,19.0,-134.06837797239154,-25.809833,-73.068505,-46.64460662762045
1076,644.0,24.0,-132.91816270315917,-40.328763,-69.943259,-45.49439135838807
1077,644.0,28.0,-95.94260015318302,0.191442,-35.305516,-8.518828808411925
1078,645.0,2.0,-57.2827654529553,-27.829973,-38.314524,-30.431958771140586
1079,645.0,6.0,-55.41065328291883,-26.611414,-59.28539,-28.559846601104113
1080,645.0,12.0,-75.27592698963282,-27.444449,-46.589889,-48.425120307818105
1081,645.0,14.0,-18.24251191280065,41.440616,-19.511748,8.608294769014066
1082,645.0,17.0,-62.75272448532864,-32.928521,-50.79742,-35.901917803513925
1083,645.0,19.0,-80.32421258982485,-22.211071,-72.210033,-53.473405908010136
1084,645.0,24.0,-86.79607373893131,-37.48822,-68.88647,-59.945267057116595
1085,645.0,28.0,-33.96886553628768,9.638869,-35.462388,-7.118058854472963
1086,646.0,2.0,-46.76256942659389,-24.944166,-38.404872,-25.7829140624238
1087,646.0,6.0,-44.29324693392157,-25.114057,-59.692078,-23.31359156975148
1088,646.0,12.0,-63.13845851369018,-25.183787,-46.358214,-42.15880314952009
1089,646.0,14.0,-15.109936481276701,16.198137,-20.078212,5.869718882893391
1090,646.0,15.0,-52.574862118516656,6.79425,-4.144181,-31.595206754346563
1091,646.0,17.0,-53.93964517124054,-14.102857,-51.317119,-32.95998980707045
1092,646.0,19.0,-68.14789990570944,-15.862342,-72.619438,-47.168244541539345
1093,646.0,24.0,-75.25945058576124,-35.566217,-68.817905,-54.27979522159115
1094,646.0,28.0,-25.3939779051091,-5.353045,-36.04916,-4.414322540939008
1095,647.0,2.0,-46.07945301682311,2.233729,-38.653322,-26.7796210122727
1096,647.0,6.0,-44.26565390813361,15.319728,-59.850434,-24.965821903583198
1097,647.0,12.0,-60.415394571856886,-45.386695,-45.938364,-41.115562567306476
1098,647.0,13.0,-29.40030215658046,147.913691,2.606024,-10.100470152030049
1099,647.0,14.0,-14.317594009141981,15.128257,-20.335483,4.982237995408429
1100,647.0,15.0,-48.83277950080475,34.22506,-4.147542,-29.532947496254337
1101,647.0,17.0,-50.9411954141886,96.845192,-51.186514,-31.64136340963819
1102,647.0,19.0,-67.99660357449235,-9.518226,-72.437529,-48.696771569941944
1103,647.0,24.0,-67.7603865193683,-12.659654,-68.54947,-48.460554514817886
1104,647.0,28.0,-24.91039668251606,-2.145041,-36.219161,-5.610564677965648
1105,648.0,2.0,-140.75925128186677,-2.360921,-38.865671,-16.563480982328613
1106,648.0,6.0,-136.477401556425,4.632016,-60.143736,-12.281631256886854
1107,648.0,12.0,-156.77316507594725,-42.496199,-45.973629,-32.57739477640909
1108,648.0,14.0,-109.80205780975257,17.667054,-20.523591,14.393712489785585
1109,648.0,15.0,-144.56535724835422,57.010062,-4.110038,-20.369586948816064
1110,648.0,17.0,-142.14102476947124,105.546191,-51.380273,-17.94525446993309
1111,648.0,19.0,-157.91317892508482,-8.968062,-72.682729,-33.71740862554667
1112,648.0,24.0,-162.79364478206324,-17.612305,-68.713333,-38.597874482525086
1113,648.0,28.0,-136.11840474970347,-6.228958,-36.443141,-11.922634450165319
1114,649.0,2.0,-136.15287451605963,-37.78032,-38.803379,-18.516961860316258
1115,649.0,6.0,-133.37241068282145,-35.445256,-60.140157,-15.736498027078085
1116,649.0,12.0,-153.54213229348034,-29.839502,-46.172613,-35.90621963773697
1117,649.0,14.0,-104.46865225656771,-8.165551,-20.444363,13.16726039917566
1118,649.0,17.0,-141.37340187375727,-41.211392,-51.477921,-23.737489218013906
1119,649.0,19.0,-154.77840028461202,-41.645887,-72.81252,-37.14248762886865
1120,649.0,24.0,-154.4682422598628,-45.645713,-68.860488,-36.83232960411942
1121,649.0,28.0,-131.6230989110885,-0.616088,-36.411045,-13.987186255345136
1122,650.0,2.0,-122.07460813455288,-25.494823,-38.586532,-21.137471392174234
1123,650.0,6.0,-120.27050522156792,-20.559676,-59.980284,-19.333368479189275
1124,650.0,12.0,-142.84080461305942,-25.57508,-46.466428,-41.90366787068078
1125,650.0,14.0,-88.83588954616309,20.997005,-20.226311,12.101247196215553
1126,650.0,17.0,-128.55011119264395,-34.219265,-51.539576,-27.612974450265312
1127,650.0,19.0,-146.7501602720213,-29.411671,-72.894344,-45.81302352964266
1128,650.0,24.0,-146.11427302004552,-35.036118,-69.003782,-45.177136277666875
1129,650.0,28.0,-112.69194447332465,3.399276,-36.249098,-11.754807730946013
