0,121,2,-5.096012698,-3.308673,-0.249902,-1.781634999
1,121,5,-11.50434318,-8.32445,-5.137482,-8.189965478
2,121,6,-4.930433174,-8.899894,-1.373527,-1.616055475
3,121,12,-3.280311324,-3.712128,1.446088,0.034066376
4,121,19,-8.702576598,-8.294229,-4.628035,-5.388198899
5,121,24,-4.274393684,4.191727,0.84137,-0.960015985
6,121,25,1.562444064,-0.930181,4.833276,4.876821763
7,121,29,3.351532262,16.219181,6.281032,6.665909962
8,122,2,-2.931168712,-1.105494,0.873696,-1.056229302
9,122,5,-11.28764709,-11.409722,-4.368546,-9.412707682
10,122,6,-2.708228447,-2.873357,-0.197348,-0.833289036
11,122,12,-0.797252133,-1.785445,2.317759,1.077687278
12,122,19,-7.186649679,-5.066373,-3.484966,-5.311710269
13,122,24,-2.901680962,1.106369,0.681426,-1.026741551
14,122,25,4.618556558,1.468605,5.153059,6.493495969
15,122,29,5.075585973,12.792377,5.817489,6.950525383
16,123,2,-4.398320757,-8.678623,1.534098,-1.431952201
17,123,5,-10.9701373,-16.790818,-4.570434,-8.00376874
18,123,6,-4.816279008,-2.634886,0.849703,-1.849910452
19,123,12,-2.426273276,-6.453012,2.776794,0.54009528
20,123,19,-7.944311098,-2.185424,-2.599495,-4.977942541
21,123,24,-3.631558668,-8.687568,-0.112971,-0.665190112
22,123,25,2.386672811,-1.147155,5.574005,5.353041367
23,123,29,3.539002416,17.220752,5.561517,6.505370972
24,124,2,-1.55208722,-5.858819,0.530958,0.648787011
25,124,5,-11.44322593,-7.514775,-5.956891,-9.242351695
26,124,6,-1.833396477,-10.972099,0.504039,0.367477755
27,124,12,0.366167809,1.249698,1.766661,2.56704204
28,124,19,-6.70237718,-1.824011,-2.883218,-4.501502949
29,124,24,-3.526531346,-1.818252,-1.239936,-1.325657115
30,124,25,5.629550504,2.296252,5.270712,7.830424735
31,124,29,6.134274626,45.009092,5.479233,8.335148857
32,125,2,-1.699474002,7.864365,0.441032,0.33529964
33,125,5,-11.56394462,1.18221,-6.07209,-9.529170975
34,125,6,-1.894025194,2.470071,0.683596,0.140748447
35,125,12,0.414649226,8.71252,1.560245,2.449422867
36,125,19,-6.088022757,0.833193,-2.57334,-4.053249116
37,125,24,-4.326357256,-1.63048,-1.67788,-2.291583614
38,125,25,5.771016595,11.581243,5.06241,7.805790237
39,125,29,5.811967833,-11.844796,5.129756,7.846741475
40,126,2,-1.148362066,5.292166,0.404083,0.813588985
41,126,5,-11.84095504,-3.799285,-5.876597,-9.879003994
42,126,6,-0.173514799,-8.748792,1.112206,1.788436252
43,126,12,0.415476865,5.028385,1.233642,2.377427916
44,126,19,-4.460078454,-0.285575,-1.759911,-2.498127404
45,126,24,-4.731252423,9.660903,-2.379707,-2.769301373
46,126,25,5.690867252,7.559015,4.489586,7.652818302
47,126,29,4.807826958,8.732656,4.20732,6.769778009
48,127,2,-0.904323838,5.772555,0.382423,0.70432979
49,127,5,-11.9798607,-6.171503,-5.33707,-10.37120708
50,127,6,0.639199556,-2.118934,1.586119,2.247853184
51,127,12,0.439882667,5.369021,0.833314,2.048536295
52,127,19,-3.157188649,-1.323656,-0.708331,-1.548535021
53,127,24,-5.176637481,-1.096461,-3.064632,-3.567983853
54,127,25,5.795963316,10.874044,3.629132,7.404616944
55,127,29,4.53478954,6.535665,2.935699,6.143443168
56,128,2,-14.64774981,1.825501,0.836292,3.626027409
57,128,5,-17.52874475,-6.817464,-4.153185,0.745032467
58,128,12,-14.26781744,-2.416167,1.122704,4.005959776
59,128,19,-13.84784946,6.924808,-0.139489,4.425927757
60,128,24,-13.71783022,3.266645,-2.59575,4.555947002
61,128,25,-16.21358232,0.102351,3.242384,2.060194895
62,128,29,-14.54780304,-3.779662,2.330725,3.725974178
63,129,2,-5.65758425,-6.491138,1.33642,0.016068421
64,129,5,-11.6624543,-9.241544,-2.809898,-5.988801625
65,129,6,-4.73060455,-4.78024,1.910045,0.943048121
66,129,12,-4.433378334,-7.224187,1.541821,1.240274336
67,129,19,-5.052528452,-2.318705,0.192236,0.621124218
68,129,24,-7.020864745,8.886694,-1.749017,-1.347212074
69,129,25,-1.384731343,-1.601778,2.950871,4.288921328
70,129,29,-2.975555752,-1.926508,1.948426,2.698096919
71,130,2,-10.89633988,-11.707212,1.148137,-1.5073178
72,130,5,-14.83697464,-11.772687,-2.218261,-5.447952565
73,130,6,-9.558231596,-3.722031,1.551554,-0.169209518
74,130,12,-10.31110619,-8.535967,1.330988,-0.922084111
75,130,19,-8.610595087,0.799347,0.127839,0.778426991
76,130,24,-11.96154657,-5.219244,-1.321051,-2.57252449
77,130,25,-8.069987565,-2.928269,2.451241,1.319034513
78,130,29,-8.39446814,-5.864001,1.642023,0.994553938
79,131,2,-1.537845533,-10.090385,1.113533,0.149194034
80,131,5,-10.94575039,-9.386418,-1.31871,-9.258710826
81,131,6,2.349396558,7.519328,1.268257,4.036436125
82,131,12,-0.765087454,-7.526144,1.24357,0.921952112
83,131,19,0.191063278,-4.382232,0.192628,1.878102845
84,131,24,-8.399799368,-7.605777,-0.737182,-6.712759801
85,131,25,3.483439697,-3.238325,1.903626,5.170479264
86,131,29,-0.301101558,-3.762518,1.228058,1.385938009
87,132,2,-6.18208893,5.166887,0.998366,-1.432294098
88,132,5,-11.09496156,-4.900979,-0.727346,-6.34516673
89,132,6,-4.854224149,7.426831,1.013874,-0.104429317
90,132,12,-5.753706334,4.310318,1.08596,-1.003911502
91,132,19,-4.616353542,5.503447,0.219707,0.13344129
92,132,24,-8.245903738,3.208714,-0.373394,-3.496108906
93,132,25,-3.200832245,1.167337,1.443047,1.548962587
94,132,29,-4.697890363,5.819074,0.892366,0.051904469
95,133,2,-67.02656448,-8.007612,1.004943,0.978779516
96,133,5,-66.99302484,-8.188504,-0.527706,1.012319158
97,133,6,-68.17998689,13.051542,0.979171,-0.174642892
98,133,12,-68.22678367,-2.036402,1.072535,-0.221439673
99,133,19,-66.40796354,-8.71595,0.264213,1.597380459
100,133,24,-65.84892181,-9.203454,-0.269247,2.156422182
101,133,25,-69.86672913,0.887843,1.322597,-1.86138513
102,133,29,-67.56722861,31.534646,0.782355,0.438115384
103,134,2,-38.01628798,-7.346022,1.004364,0.034332367
104,134,5,-39.51842337,-2.97839,-0.551235,-1.467803029
105,134,6,-39.08211906,2.342024,0.997282,-1.031498721
106,134,12,-42.30164306,-3.258334,1.066622,-4.251022714
107,134,19,-39.44543408,3.244722,0.280653,-1.394813736
108,134,24,-36.91580424,-4.001044,-0.30416,1.134816098
109,134,25,-42.10033262,-6.964679,1.325543,-4.049712277
110,134,29,-38.5841949,2.61751,0.773583,-0.53357456
111,135,2,-16.59930741,-8.460561,0.98392,1.587927059
112,135,5,-22.04242549,-9.0661,-0.798565,-3.85519102
113,135,6,-15.93031335,3.655205,1.073626,2.256921116
114,135,12,-18.21953662,-5.966301,1.046446,-0.032302151
115,135,19,-16.76484372,-3.295456,0.289733,1.422390746
116,135,24,-19.74300026,-5.019273,-0.504817,-1.555765787
117,135,25,-17.96511307,-2.841137,1.426236,0.222121403
118,135,29,-16.75261039,-5.559884,0.834423,1.434624076
119,136,2,-10.71386848,-3.212107,1.050839,0.295985292
120,136,5,-17.46638113,1.412137,-1.177657,-6.456527356
121,136,6,-7.668677169,0.092347,1.295114,3.341176603
122,136,12,-12.81881917,-5.0799,1.104873,-1.808965402
123,136,19,-10.88088207,-4.528713,0.370537,0.128971704
124,136,24,-12.56719172,-10.913007,-0.842418,-1.557337947
125,136,25,-10.51196345,0.769655,1.661211,0.497890318
126,136,29,-11.56957808,-0.008925,0.944434,-0.55972431
127,137,2,-3.772788391,1.769807,1.630738,1.364501788
128,137,5,-10.54697461,0.440458,-0.957831,-5.409684435
129,137,6,-1.26106997,-1.442,1.909479,3.876220208
130,137,12,-5.060926919,-0.271007,1.587673,0.076363259
131,137,19,-0.798587563,-1.721788,0.878009,4.338702615
132,137,24,-10.68276451,-5.31034,-0.973771,-5.545474334
133,137,25,-4.715874688,7.16987,1.963281,0.421415491
134,137,29,-5.948331764,2.757947,0.852029,-0.811041586
135,138,2,-21.18563189,-6.680677,1.688603,-0.246833032
136,138,5,-21.67209918,-1.020717,-0.152469,-0.733300315
137,138,6,-19.86206065,0.114339,2.081493,1.076738214
138,138,12,-21.18843705,-2.506201,1.413702,-0.249638189
139,138,19,-18.02926097,-2.641138,1.517927,2.909537887
140,138,24,-23.15591634,-5.992849,-1.008814,-2.21711748
141,138,25,-22.28424389,14.034345,1.274279,-1.345445033
142,138,29,-22.90349193,-4.353629,-0.028957,-1.964693073
143,139,2,-11.2612317,2.49591,0.836191,2.629117566
144,139,5,-10.69307145,-2.620045,-0.291027,3.197277819
145,139,6,-10.66618718,-4.850412,2.003211,3.224162085
146,139,12,-12.0207381,-7.06519,0.221205,1.869611172
147,139,19,-10.02119706,-4.633542,2.166246,3.869152205
148,139,24,-14.7701367,-0.965614,-2.102737,-0.879787428
149,139,25,-14.50057937,-19.604579,0.002178,-0.610230107
150,139,29,-15.77004186,10.973453,-1.365385,-1.879692598
151,140,2,-6.979420619,3.197708,0.436855,4.369578562
152,140,5,-6.344314167,1.111532,-0.791159,5.004685014
153,140,6,-6.197424452,-1.801432,2.06526,5.151574729
154,140,12,-8.433794781,-2.19288,-0.300932,2.9152044
155,140,19,-5.790972559,1.033307,2.394242,5.558026622
156,140,24,-12.53785524,1.180171,-2.860387,-1.188856063
157,140,25,-12.70760807,10.720199,-0.326763,-1.358608884
158,140,29,-14.33535079,-6.244204,-1.761174,-2.98635161
159,141,2,-8.681320945,5.379987,0.82111,3.564272722
160,141,5,-8.664690355,3.147455,-0.180526,3.580903312
161,141,6,-7.424818281,2.209696,2.556516,4.820775386
162,141,12,-10.14813287,1.86172,-0.122636,2.097460792
163,141,19,-6.94591945,6.97264,3.109437,5.299674217
164,141,24,-14.45527851,-3.867524,-2.989748,-2.209684842
165,141,25,-13.70863494,1.838238,-0.568563,-1.463041276
166,141,29,-15.81435883,-1.128909,-2.368998,-3.568765159
167,142,2,-26.45902423,12.322744,1.229011,1.189801942
168,142,5,-26.65239967,7.157489,-0.179999,0.996426501
169,142,6,-25.82460522,-0.082945,3.055954,1.824220956
170,142,12,-26.68859267,4.845789,0.212231,0.960233505
171,142,19,-25.57589046,1.075172,3.490303,2.072935713
172,142,24,-28.37874156,3.881413,-3.221266,-0.729915387
173,142,25,-27.81391967,18.521202,-0.288177,-0.165093498
174,142,29,-28.72308206,-4.071642,-2.403433,-1.074255888
175,143,2,-12.08585974,14.58112,2.526953,3.004652855
176,143,5,-13.15351783,4.79065,0.266832,1.936994763
177,143,6,-10.37005626,-1.693594,3.552897,4.720456328
178,143,12,-12.44661703,5.309377,1.775364,2.64389556
179,143,19,-10.75380013,-19.597115,3.221514,4.336712465
180,143,24,-16.49343693,-3.952055,-2.116899,-1.402924334
181,143,25,-14.65624331,18.634278,1.149146,0.434269284
182,143,29,-17.0247536,11.448314,-1.17639,-1.93424101
183,144,2,-7.833318428,1.29135,3.821306,2.741616851
184,144,5,-8.263367238,4.986245,0.558973,2.311568041
185,144,6,-6.098272204,2.71428,4.521782,4.476663075
186,144,12,-9.225147465,-1.656425,3.110808,1.349787814
187,144,19,-6.010337325,1.416837,3.616007,4.564597954
188,144,24,-13.00031503,-5.284631,-1.806167,-2.425379746
189,144,25,-12.29848697,1.50734,2.315326,-1.723551688
190,144,29,-13.92677207,-5.1104,-0.56686,-3.351836789
191,145,2,-22.94132196,4.034391,3.403072,1.002832996
192,145,5,-23.47662356,0.0842,-0.681762,0.467531393
193,145,6,-21.74650514,0.946949,4.799007,2.197649817
194,145,12,-22.6312799,2.820029,2.596114,1.312875054
195,145,19,-19.38089655,12.249515,3.807384,4.563258409
196,145,24,-24.47971541,-4.481775,-3.084236,-0.535560452
197,145,25,-24.32595784,7.688174,2.369045,-0.381802882
198,145,29,-25.08514036,1.226525,-0.680411,-1.140985409
199,146,2,-11.49947472,-0.600126,0.935724,-0.016880129
200,146,5,-10.61716983,-8.630561,-2.62444,0.865424761
201,146,6,-9.518799395,4.778365,3.724294,1.963795197
202,146,12,-11.521111,-6.554483,-0.08295,-0.038516408
203,146,19,-8.971223682,-1.162178,3.532645,2.511370909
204,146,24,-13.70086374,-5.168336,-5.19409,-2.218269146
205,146,25,-12.54235862,-3.626509,0.61696,-1.059764028
206,146,29,-13.83535146,-7.826113,-1.8344,-2.35275687
207,147,2,-9.557307338,-8.553365,0.04791,1.663374159
208,147,5,-11.32728635,-6.006723,-2.820065,-0.106604849
209,147,6,-6.700379922,2.36774,3.284881,4.520301575
210,147,12,-9.933840306,-7.069842,-1.122815,1.286841191
211,147,19,-7.397807612,7.591924,3.618046,3.822873885
212,147,24,-13.86749487,-12.068458,-5.76772,-2.646813368
213,147,25,-12.29810606,-9.014731,-0.373696,-1.077424558
214,147,29,-13.57759826,-7.168439,-2.613506,-2.356916765
215,148,2,-8.077659417,-6.940611,0.709401,1.455815098
216,148,5,-9.709306403,-12.036586,-2.164334,-0.175831888
217,148,6,-5.427734547,-1.285925,3.900381,4.105739968
218,148,12,-8.239289637,-5.703762,-0.610122,1.294184878
219,148,19,-5.45030578,-8.086942,4.277471,4.083168735
220,148,24,-12.77424193,-5.745115,-5.700896,-3.240767412
221,148,25,-10.10133846,3.142199,-0.282838,-0.56786394
222,148,29,-11.49104641,1.478236,-2.94276,-1.957571892
223,149,2,-7.365704919,-10.256187,1.221887,1.893909431
224,149,5,-9.294645667,-11.492862,-1.906464,-0.035031316
225,149,6,-5.161476315,-2.931427,4.117341,4.098138035
226,149,12,-6.883629165,-7.418727,-0.021501,2.375985185
227,149,19,-4.818974615,-9.454077,4.246804,4.440639735
228,149,24,-12.06426033,-9.942115,-5.282837,-2.804645982
229,149,25,-8.68749798,12.521075,0.2023,0.57211637
230,149,29,-10.28790116,-0.274764,-2.56312,-1.028286811
231,150,2,-6.023593055,1.709487,1.416134,3.370344465
232,150,5,-9.020179999,3.670981,-1.558098,0.373757521
233,150,6,-4.87064125,1.503318,4.168503,4.52329627
234,150,12,-3.970601512,-3.391404,0.166486,5.423336008
235,150,19,-3.53948723,6.292257,4.3193,5.854450291
236,150,24,-11.10163169,-11.835661,-5.024569,-1.707694172
237,150,25,-5.906977674,-2.937571,0.211053,3.486959847
238,150,29,-7.398304018,0.474309,-2.592535,1.995633502
239,151,2,-8.447340547,6.008055,1.308622,1.09610672
240,151,5,-9.964331449,-0.113564,-1.404761,-0.420884182
241,151,6,-5.846704083,1.382674,3.876224,3.696743184
242,151,12,-8.957441171,3.935785,0.132694,0.586006096
243,151,19,-5.833650351,5.933231,4.047673,3.709796917
244,151,24,-13.07891035,-6.904702,-4.675366,-3.535463085
245,151,25,-10.38095533,21.033428,0.146463,-0.837508068
246,151,29,-12.10840455,8.795012,-2.4649,-2.564957278
247,152,2,-14.21120854,0.195606,1.276598,0.764974817
248,152,5,-15.6899867,-3.183318,-1.583814,-0.713803341
249,152,6,-12.00437331,1.881977,3.546972,2.971810048
250,152,12,-14.10788625,-0.617442,0.298826,0.868297106
251,152,19,-12.44981074,11.477346,3.466346,2.526372616
252,152,24,-17.07376873,-5.0696,-4.228542,-2.097585372
253,152,25,-15.22993831,-1.418871,0.506666,-0.25375495
254,152,29,-16.67353084,-2.81603,-1.842815,-1.697347484
255,153,2,-17.92537278,-4.200545,2.419376,1.274006073
256,153,5,-19.26006392,-0.802196,-0.990747,-0.060685071
257,153,6,-16.69093491,3.462475,3.829252,2.508443936
258,153,12,-17.87986039,4.571033,1.718691,1.319518455
259,153,19,-15.95439885,10.181637,3.091321,3.244979999
260,153,24,-20.39001787,0.822834,-2.970173,-1.190639019
261,153,25,-18.99836786,-2.367523,1.742692,0.201010984
262,153,29,-20.81017428,-4.284946,-0.69282,-1.610795434
263,154,2,-9.837104036,13.872898,4.762948,3.678724023
264,154,5,-9.086133523,8.283931,1.801215,4.429694536
265,154,6,-9.677846215,6.522676,4.970155,3.837981844
266,154,12,-10.86326815,9.889057,4.006837,2.652559907
267,154,19,-8.855549364,10.144192,4.044206,4.660278695
268,154,24,-13.93510446,-3.038825,-0.973212,-0.419276397
269,154,25,-13.89616618,4.109416,2.554858,-0.380338117
270,154,29,-16.26028634,3.924528,-0.626731,-2.744458278
271,155,2,-10.33480241,5.531051,3.576635,3.705390936
272,155,5,-9.20927502,1.478509,2.06607,4.830918325
273,155,6,-10.18352229,9.509873,4.314301,3.856671053
274,155,12,-11.08808653,9.600255,2.548501,2.952106814
275,155,19,-9.373626424,4.445751,4.331202,4.666566921
276,155,24,-14.1937314,13.748874,-1.521043,-0.15353806
277,155,25,-14.28533322,11.297165,0.867378,-0.245139877
278,155,29,-16.58556032,-2.223479,-2.027514,-2.545366974
279,156,2,-9.893997652,-9.174131,2.909404,4.481137919
280,156,5,-10.32142287,-2.834271,1.971039,4.053712704
281,156,6,-9.01416347,-2.979882,3.67513,5.360972101
282,156,12,-11.05577114,-8.595636,1.92424,3.319364436
283,156,19,-8.753583743,17.505016,3.938034,5.621551828
284,156,24,-15.57062749,-11.259837,-1.444883,-1.195491915
285,156,25,-14.51436852,-8.002634,0.336765,-0.139232951
286,156,29,-17.01766118,-12.40112,-2.169818,-2.642525605
287,157,2,-8.205357409,18.859544,2.97411,4.290140954
288,157,5,-8.146778105,17.587435,2.167194,4.348720259
289,157,6,-7.266695515,22.289696,3.754961,5.228802848
290,157,12,-9.574417474,19.401997,1.937048,2.92108089
291,157,19,-6.91528547,-3.145206,4.103622,5.580212893
292,157,24,-14.04154671,7.963118,-1.44372,-1.546048348
293,157,25,-13.45598053,10.439646,0.2244,-0.960482165
294,157,29,-15.71519276,4.142254,-2.350139,-3.219694396
295,158,2,-8.573338131,-4.303542,3.297424,3.675593917
296,158,5,-7.971775914,-5.878165,2.338149,4.277156134
297,158,6,-7.662398686,6.963086,3.833207,4.586533362
298,158,12,-9.911104573,-3.606905,2.339411,2.337827475
299,158,19,-7.070304975,-1.224729,3.996691,5.178627073
300,158,24,-14.35661953,-18.171483,-1.085234,-2.107687479
301,158,25,-14.01836332,3.914646,0.5737,-1.769431276
302,158,29,-15.21902881,-3.881726,-2.024653,-2.970096766
303,159,2,-9.76406819,-17.019779,3.961056,4.345565171
304,159,5,-9.865562828,5.2958,2.694655,4.244070534
305,159,6,-8.925009419,-16.756905,3.954248,5.184623942
306,159,12,-10.80755983,-8.488431,3.185777,3.302073528
307,159,19,-8.079682842,2.906303,3.718073,6.02995052
308,159,24,-15.42725964,-12.561327,-0.284502,-1.317626282
309,159,25,-14.68770178,-2.476153,1.318875,-0.578068415
310,159,29,-17.07278048,-6.288839,-1.299136,-2.963147116
311,160,2,-9.014309232,2.381785,4.125072,3.654526198
312,160,5,-8.490341016,5.148634,2.898002,4.178494414
313,160,6,-8.532040394,17.295681,3.743666,4.136795037
314,160,12,-10.163271,6.848969,3.502089,2.505564431
315,160,19,-8.134624346,-5.089261,3.332601,4.534211084
316,160,24,-13.7601232,10.295904,0.321726,-1.091287771
317,160,25,-13.43307312,-2.598847,1.610536,-0.764237688
318,160,29,-15.44160518,4.110718,-0.840725,-2.772769753
319,161,2,-8.713195377,-3.664947,3.749538,3.738246374
320,161,5,-8.353329204,-2.54976,2.561585,4.098112547
321,161,6,-8.259980368,-3.981549,3.445068,4.191461384
322,161,12,-9.939309698,-12.033001,3.17524,2.512132053
323,161,19,-7.920137797,17.6786,3.056829,4.531303955
324,161,24,-13.62728756,-26.077099,0.209309,-1.175845813
325,161,25,-13.27382748,0.269718,1.487471,-0.822385725
326,161,29,-15.14664969,-21.844388,-0.766166,-2.695207943
327,162,2,-8.604691596,7.253516,3.309597,3.785480196
328,162,5,-8.091027983,5.653481,2.007325,4.299143808
329,162,6,-7.471579924,-0.016065,3.601905,4.918591868
330,162,12,-9.738007454,3.660788,2.549786,2.652164338
331,162,19,-6.778180336,19.275724,3.444574,5.611991455
332,162,24,-14.12959134,-1.432914,-0.766983,-1.73941955
333,162,25,-13.90182694,2.674873,1.051387,-1.511655144
334,162,29,-14.96729204,-4.290272,-1.339632,-2.577120253
335,163,2,-8.843105261,-3.013366,3.291873,3.308709004
336,163,5,-8.790538561,2.395592,1.825115,3.361275705
337,163,6,-7.343204851,0.96771,3.594371,4.808609415
338,163,12,-10.47522013,-3.365732,2.564348,1.676594134
339,163,19,-5.872285505,9.064125,3.35312,6.27952876
340,163,24,-15.00322158,-12.180954,-0.8172,-2.851407312
341,163,25,-14.5142969,-4.522986,1.173197,-2.36248263
342,163,29,-15.39339042,-4.221977,-1.198228,-3.24157615
343,164,2,-7.021286468,22.687269,4.11903,3.224418928
344,164,5,-8.144376863,0.282322,3.197971,2.101328533
345,164,6,-5.868196491,7.307199,3.946977,4.377508906
346,164,12,-9.278099134,5.162377,3.32302,0.967606263
347,164,19,-3.999200038,1.669831,3.81777,6.246505358
348,164,24,-14.52526605,7.42496,0.045122,-4.279560649
349,164,25,-13.35115247,-3.636595,1.194895,-3.105447076
350,164,29,-14.27198213,0.829191,-1.439314,-4.026276737
351,165,2,-4.71513406,8.924529,4.159352,2.719793844
352,165,5,-2.010160155,2.002226,4.122645,5.424767749
353,165,6,-3.311676573,5.852891,3.569913,4.123251331
354,165,12,-7.368737831,0.565621,3.40144,0.066190073
355,165,19,-1.550208192,-1.656198,3.678249,5.884719713
356,165,24,-11.0767153,-7.329194,0.892979,-3.641787399
357,165,25,-11.38045392,-5.985173,0.838867,-3.945526015
358,165,29,-14.09862983,-3.672264,-1.588669,-6.66370193
359,166,2,-2.053244746,0.557265,3.753413,2.867912403
360,166,5,2.841731291,2.597144,4.833678,7.76288844
361,166,6,-1.283547935,4.842369,2.945445,3.637609214
362,166,12,-5.744918209,4.226378,2.995698,-0.823761059
363,166,24,-8.062577498,-2.232475,1.474417,-3.141420348
364,166,25,-10.05724425,-1.720167,0.098353,-5.136087099
365,166,29,-14.15183055,-0.423681,-1.986014,-9.230673399
366,167,2,-2.148418016,1.414751,3.051995,1.82379381
367,167,5,4.32660313,3.031539,5.190958,8.298814957
368,167,6,-0.749777995,1.455835,2.111596,3.222433832
369,167,12,-5.610376437,1.796566,2.336933,-1.63816461
370,167,19,1.727095075,12.390179,3.056365,5.699306902
371,167,24,-5.758235071,14.465472,1.909634,-1.786023244
372,167,25,-10.40004131,2.379902,-0.689736,-6.42782948
373,167,29,-14.02146783,-5.093592,-2.286647,-10.049256
374,168,2,-3.041404404,-0.18079,2.76415,1.797385892
375,168,5,5.42837445,2.629526,6.170184,10.26716475
376,168,6,-2.470427752,-1.710991,1.605717,2.368362543
377,168,12,-5.509331277,-0.20579,1.988954,-0.670540981
378,168,19,0.397352474,12.897723,3.070072,5.23614277
379,168,24,-3.996739339,0.954776,2.520441,0.842050956
380,168,25,-10.87886043,4.985172,-1.540781,-6.040070138
381,168,29,-13.85759563,-3.197132,-2.891132,-9.018805335
382,169,2,-4.259301858,5.780803,2.520335,2.233701132
383,169,5,4.571252569,8.072971,6.608991,11.06425556
384,169,6,-4.467468248,3.584597,1.140916,2.025534742
385,169,12,-6.337900067,6.219897,1.792983,0.155102923
386,169,19,-1.855311241,0.582787,2.816503,4.637691749
387,169,24,-3.597946191,7.031615,3.016743,2.895056799
388,169,25,-11.84669814,-0.935488,-1.919676,-5.353695151
389,169,29,-14.10512867,4.299991,-2.998254,-7.612125679
390,170,2,-3.639493896,8.714035,2.555242,1.66478192
391,170,5,5.592829033,4.857537,6.967885,10.89710485
392,170,6,-3.916206604,5.307848,1.035772,1.388069212
393,170,12,-5.745836133,5.777535,1.83133,-0.441560317
394,170,19,-0.749903996,-4.066163,2.80872,4.55437182
395,170,24,-2.595578055,9.757134,3.307169,2.708697761
396,170,25,-11.98272195,2.193818,-2.057871,-6.678446133
397,170,29,-13.27353543,16.107885,-3.085836,-7.969259615
398,171,2,-3.484284917,9.798701,2.708851,0.225927908
399,171,5,5.77877229,13.577897,7.354641,9.488985115
400,171,6,-2.506276511,2.469291,1.083334,1.203936314
401,171,12,-5.865568238,8.278976,1.957352,-2.155355413
402,171,19,0.079038121,-2.665588,2.937923,3.789250946
403,171,24,-2.742550332,12.79504,3.523229,0.967662493
404,171,25,-11.63376088,2.865403,-2.14244,-7.923548058
405,171,29,-13.01863219,-1.050991,-3.219378,-9.308419364
406,172,2,-3.371791467,8.760342,2.499289,1.534764693
407,172,5,5.926905199,8.825665,7.429911,10.83346136
408,172,6,-3.233631022,4.213862,1.017605,1.672925138
409,172,12,-5.66541331,5.354879,1.668565,-0.75885715
410,172,19,-0.217014703,6.429227,3.083573,4.689541457
411,172,24,-2.907272718,6.780645,3.353546,1.999283442
412,172,25,-11.76932373,0.798026,-2.503829,-6.86276757
413,172,29,-13.14611069,0.919841,-3.571955,-8.239554527
414,173,2,-3.752567708,8.844661,2.271604,1.9589136
415,173,5,5.571131369,11.916206,7.425679,11.28261268
416,173,6,-4.073021748,3.608819,0.888267,1.638459559
417,173,12,-5.795212204,4.446514,1.403431,-0.083730896
418,173,19,-0.965647664,7.90405,3.10488,4.745833644
419,173,24,-2.718628526,-4.671226,3.244598,2.992852781
420,173,25,-12.01239316,0.41404,-2.780039,-6.300911849
421,173,29,-13.31340041,9.078153,-3.786777,-7.601919105
422,174,2,-4.016836804,5.56548,2.442121,1.370005597
423,174,5,5.419951591,4.027187,7.719275,10.80679399
424,174,6,-4.515551902,5.475817,0.893069,0.871290499
425,174,12,-5.919118751,2.594234,1.596781,-0.532276349
426,174,19,-1.431544582,6.328594,3.100517,3.95529782
427,174,24,-2.449865251,4.291592,3.533759,2.93697715
428,174,25,-12.17344029,-3.312684,-2.725824,-6.786597888
429,174,29,-13.32210907,9.083947,-3.738259,-7.935266674
430,175,2,-3.574580759,-0.171228,2.920103,0.864400113
431,175,5,6.12317553,6.733871,8.386062,10.5621564
432,175,6,-3.449327601,-0.774971,0.998048,0.989653271
433,175,12,-5.73185859,-1.34346,2.117604,-1.292877718
434,175,19,-0.497164949,24.601869,3.147541,3.941815923
435,175,24,-2.661316356,11.609415,4.164894,1.777664516
436,175,25,-11.89530103,-7.938533,-2.527474,-7.456320156
437,175,29,-13.06875502,-14.795893,-3.608375,-8.629774148
438,176,2,-3.548738878,8.566119,3.014665,0.890499786
439,176,5,5.898299249,9.713792,8.739687,10.33753791
440,176,6,-2.823883169,7.136832,0.987987,1.615355496
441,176,12,-5.872756707,5.355908,2.194719,-1.433518042
442,176,19,-0.139762935,8.870848,3.227462,4.29947573
443,176,24,-2.886474747,4.923904,4.384841,1.552763918
444,176,25,-11.69130301,-0.73688,-2.637891,-7.252064343
445,177,2,-3.651147087,5.409029,2.797112,0.663947358
446,177,5,6.094527731,6.431645,8.819997,10.40962218
447,177,6,-3.554008428,9.144047,0.921387,0.761086017
448,177,12,-5.840055301,5.605825,1.893929,-1.524960855
449,177,19,-0.503607101,-5.732869,3.382621,3.811487344
450,177,24,-2.534259295,-4.017325,4.206999,1.78083515
451,177,25,-11.84273718,-0.265302,-3.016048,-7.52764273
452,178,2,-4.059096284,6.106132,2.646632,1.147445558
453,178,5,5.463495842,10.295701,9.099721,10.67003768
454,178,6,-4.557241141,2.722568,0.785847,0.649300701
455,178,12,-6.063955566,4.110343,1.690677,-0.857413724
456,178,19,-1.411904095,10.93297,3.469498,3.794637747
457,178,24,-2.295680255,-9.052072,4.273651,2.910861587
458,178,25,-12.15551066,-0.05871,-3.3813,-6.94896882
459,178,29,-13.30016868,8.348503,-4.415727,-8.093626839
460,179,2,-4.08134108,8.90766,2.689862,1.737638544
461,179,5,5.57393671,13.255239,9.68944,11.39291633
462,179,6,-4.522844944,-1.170906,0.725003,1.29613468
463,179,12,-6.075645754,5.085097,1.672801,-0.25666613
464,179,19,-1.52098558,9.996858,3.647085,4.297994044
465,179,24,-2.12372444,10.097921,4.552648,3.695255184
466,179,25,-12.23759217,-1.699899,-3.724759,-6.418612546
467,180,2,-4.106906613,2.591191,3.030054,1.117874163
468,180,5,5.530582905,9.274961,10.554408,10.75536368
469,180,6,-4.597909204,1.340839,0.81348,0.626871572
470,180,12,-6.075177489,-1.787445,1.959947,-0.850396712
471,180,19,-1.521963078,3.271376,3.911485,3.702817698
472,180,24,-2.091611225,4.870623,5.060136,3.133169551
473,180,25,-12.19912865,-6.341922,-3.90437,-6.974347869
474,180,29,-13.26606351,-6.863031,-5.040128,-8.041282735
475,181,2,-4.006949827,8.321506,3.403321,1.214984473
476,181,5,6.053140188,14.52916,11.408424,11.27507449
477,181,6,-4.026904274,9.970395,0.935313,1.195030026
478,181,12,-6.051893949,3.862255,2.280525,-0.82995965
479,181,19,-1.254576725,0.707885,4.189698,3.967357574
480,181,24,-1.99626418,9.99727,5.557723,3.225670119
481,181,25,-12.11717749,-3.183971,-4.046206,-6.895243193
482,182,2,-4.131232467,3.236061,3.261409,1.443235371
483,182,5,5.269746589,13.598072,11.955477,10.84421443
484,182,6,-4.651418709,-2.654065,0.772647,0.92304913
485,182,12,-6.129445624,0.088271,2.052726,-0.554977786
486,182,19,-1.609255259,11.714803,4.368891,3.965212579
487,182,24,-2.150043995,-1.556627,5.735252,3.424423844
488,182,25,-12.17931816,-3.969227,-4.586376,-6.604850322
489,182,29,-13.35030175,-9.355458,-5.791383,-7.77583391
490,183,2,-4.154651023,12.154992,3.22274,0.918103323
491,183,5,6.029590991,13.718481,12.324874,11.10234534
492,183,6,-4.499991969,5.722317,0.70461,0.572762377
493,183,12,-6.100706189,5.632751,1.961935,-1.027951843
494,183,19,-1.543272643,8.2022,4.499195,3.529481703
495,183,24,-1.885992793,10.527254,5.867596,3.186761553
496,183,25,-12.19303385,0.737219,-4.887523,-7.120279502
497,183,29,-13.11591506,-4.513757,-6.084228,-8.043160712
498,184,2,-4.202671263,1.821994,3.439489,0.856549491
499,184,5,5.811292966,15.422296,12.489793,10.87051372
500,184,6,-4.581214849,0.933348,0.852739,0.478005905
501,184,12,-6.143064868,-1.752712,2.17285,-1.083844114
502,184,19,-1.615947125,-4.136142,4.605825,3.443273629
503,184,24,-1.876912777,-4.291743,5.964743,3.182307977
504,184,25,-12.25717811,-6.316148,-4.769632,-7.197957359
505,184,29,-13.14230522,-0.263422,-6.062169,-8.083084469
506,185,2,-4.159975577,5.991661,3.42225,-0.153186626
507,185,5,5.984488203,13.771688,12.321107,9.991277154
508,185,6,-3.788832584,0.688106,0.857911,0.217956367
509,185,12,-6.232061938,5.38709,2.180364,-2.225272988
510,185,19,-1.05717106,5.499352,4.541896,2.949617891
511,185,24,-1.884798837,19.283684,5.898559,2.121990114
512,185,25,-11.97340227,-4.533855,-4.667029,-7.966613324
513,185,29,-12.92916219,-6.23794,-5.952321,-8.922373237
514,186,2,-4.120755087,0.27997,3.079235,-0.483338282
515,186,5,6.093903028,12.123112,11.828815,9.731319833
516,186,6,-3.344639326,-0.524214,0.76788,0.292777479
517,186,12,-6.217631162,-4.012723,1.819911,-2.580214357
518,186,19,-0.749166513,-9.38283,4.478938,2.888250292
519,186,24,-2.034113176,4.695165,5.467747,1.603303629
520,186,25,-11.9676247,-8.640288,-4.784343,-8.330207894
521,186,29,-12.99677727,-11.42138,-6.010108,-9.359360467
522,187,2,-4.077679664,4.704884,2.574149,-0.10342244
523,187,5,6.125075639,10.27428,11.398869,10.09933286
524,187,6,-3.756984281,1.403163,0.500762,0.217272943
525,187,12,-6.214141378,2.713934,1.303149,-2.239884155
526,187,19,-0.966808659,21.018588,4.332288,3.007448564
527,187,24,-1.962633612,3.09344,5.109681,2.011623612
528,187,25,-12.0072076,-3.915541,-5.080909,-8.032950376
529,188,2,-4.344945618,4.72369,2.140525,0.560804127
530,188,5,5.494008372,10.47846,11.160053,10.39975812
531,188,6,-4.812366204,1.122464,0.243767,0.09338354
532,188,12,-6.313278146,0.750567,0.849219,-1.407528402
533,188,19,-1.735003956,7.388199,4.232859,3.170745789
534,188,24,-1.895525159,3.036698,4.873833,3.010224585
535,188,25,-12.35179194,-2.842953,-5.415958,-7.446042195
536,189,2,-4.564886298,1.348025,1.757557,0.441532362
537,189,5,5.936831714,13.952955,10.96461,10.94325037
538,189,6,-5.027900837,-0.867574,-0.229651,-0.021482177
539,189,12,-6.301216827,-0.242151,0.580411,-1.294798167
540,189,19,-2.097064125,5.868114,3.766458,2.909354535
541,189,24,-1.013253037,-0.300446,5.063964,3.993165623
542,189,25,-12.47309165,-5.903461,-5.518934,-7.466672988
543,190,2,-4.448833585,-0.591468,1.596507,0.905641098
544,190,5,6.164480207,11.227662,10.812094,11.51895489
545,190,6,-5.229929271,-2.49598,-0.677663,0.124545412
546,190,12,-6.273792207,-1.816482,0.618913,-0.919317524
547,190,19,-2.251320068,2.97555,3.142379,3.103154615
548,190,24,-1.06705047,0.184429,5.528932,4.287424213
549,190,25,-12.4885611,-5.280188,-5.298063,-7.134086419
550,190,29,-12.92924516,-7.329385,-5.576377,-7.574770477
551,191,2,-4.653095803,3.547659,1.544374,1.146061891
552,191,5,6.013064503,7.346595,10.904259,11.8122222
553,191,6,-5.757213334,1.033509,-0.7246,0.04194436
554,191,12,-6.28687399,1.344342,0.551559,-0.487716296
555,191,19,-2.686196497,3.765664,3.170994,3.112961196
556,191,24,-0.949602342,9.967191,5.552285,4.849555352
557,191,25,-12.67596979,-4.406226,-5.419398,-6.876812095
558,191,29,-12.98664334,-3.953868,-5.681266,-7.187485649
559,192,2,-4.593861383,3.644805,1.294426,1.644363957
560,192,5,6.097476151,9.440377,10.980693,12.33570149
561,192,6,-5.915903219,-2.898813,-0.917878,0.322322121
562,192,12,-6.235482875,0.060295,0.273695,0.002742464
563,192,19,-2.877520696,1.894774,3.158079,3.360704643
564,192,24,-0.955061835,12.407557,5.533855,5.283163504
565,192,25,-12.63115664,-3.678151,-5.744379,-6.392931303
566,192,29,-12.96729463,-2.917678,-5.908715,-6.729069288
567,193,2,-4.781386374,3.795528,1.177278,1.224274738
568,193,5,5.835048971,11.003152,10.963169,11.84071008
569,193,6,-6.151248888,0.599444,-1.028616,-0.145587776
570,193,12,-6.34506152,0.542415,0.166319,-0.339400409
571,193,19,-2.968855572,-0.348068,3.092414,3.03680554
572,193,24,-0.969979862,7.611527,5.547131,5.03568125
573,193,25,-12.7456597,-2.298742,-5.836559,-6.739998584
574,193,29,-13.00345018,-3.432027,-5.936059,-6.997789072
575,194,2,-4.966069851,2.279539,1.131356,1.594702089
576,194,5,5.485250568,13.669619,10.942377,12.04602251
577,194,6,-6.621462996,-0.431335,-1.080499,-0.060691055
578,194,12,-6.424441956,0.782008,0.133137,0.136329984
579,194,19,-3.400046515,4.553641,3.046604,3.160725425
580,194,24,-1.103540215,13.729656,5.563769,5.457231725
581,194,25,-12.8561296,-4.976856,-5.853449,-6.295357662
582,194,29,-12.99185404,-8.664792,-5.921095,-6.431082095
583,195,2,-4.954663914,5.211645,1.051525,1.63395828
584,195,5,5.695043258,10.953055,10.977691,12.28366545
585,195,6,-6.625902463,-1.936977,-1.203863,-0.037280268
586,195,12,-6.369561949,3.883088,0.077833,0.219060245
587,195,19,-3.419297968,5.688099,2.952375,3.169324226
588,195,25,-12.8372649,-1.113537,-5.913279,-6.248642709
589,195,29,-13.02714602,-4.159339,-5.906036,-6.438523824
590,196,2,-4.839480357,4.799305,1.018415,1.93579971
591,196,5,5.841134661,10.686268,11.036147,12.61641473
592,196,6,-6.376598361,-0.92301,-1.296232,0.398681706
593,196,12,-6.138137764,1.752978,0.070467,0.637142303
594,196,19,-3.35954043,5.118947,2.872793,3.415739638
595,196,25,-13.01800234,-2.423597,-5.937414,-6.242722275
596,196,29,-12.9166019,-5.550537,-5.87368,-6.141321838
597,197,2,-4.99321502,-5.530341,0.94908,1.448900029
598,197,5,6.276376645,6.98808,11.052519,12.71849169
599,197,6,-6.668788334,-9.394096,-1.378371,-0.226673285
600,197,12,-6.250013297,-7.980433,0.011923,0.192101753
601,197,19,-3.507392385,-0.365387,2.822737,2.934722664
602,197,25,-12.88884788,-10.431402,-5.998591,-6.446732833
603,197,29,-13.01667867,-6.488399,-5.887529,-6.574563622
604,198,2,-5.070871383,2.54379,0.810352,1.447043683
605,198,5,5.908796361,10.195264,11.033094,12.42671143
606,198,6,-6.862582373,-2.618258,-1.470315,-0.344667307
607,198,12,-6.341328032,-0.304468,-0.137345,0.176587034
608,198,19,-3.602074634,4.644627,2.807109,2.915840432
609,198,25,-12.87298399,-10.258033,-6.14186,-6.355068927
610,198,29,-13.07682948,-3.823835,-5.983234,-6.558914417
611,199,2,-5.144806616,6.460651,0.743962,1.531616172
612,199,5,5.752040374,9.428181,10.991298,12.42846316
613,199,6,-7.006492007,0.74312,-1.419205,-0.330069219
614,199,12,-6.369955543,0.739426,-0.253347,0.306467244
615,199,19,-3.706352626,5.379496,2.932139,2.970070162
616,199,25,-12.93477855,-5.911825,-6.263009,-6.258355764
617,199,29,-13.09503512,-0.336426,-6.150812,-6.418612329
618,200,2,-4.969073593,2.641106,0.698101,1.670466985
619,200,5,6.309920683,9.956317,10.909311,12.94946126
620,200,6,-6.554493653,-0.661104,-1.373731,0.085046926
621,200,12,-6.227525743,0.631693,-0.327979,0.412014836
622,200,19,-3.400959478,0.462779,3.006317,3.238581101
623,200,25,-12.9755017,-2.908011,-6.312517,-6.335961123
624,200,29,-13.09072188,-1.957494,-6.235467,-6.451181305
625,201,2,-5.002080987,-0.453378,0.682402,1.840646559
626,201,5,5.674290236,10.751477,10.852955,12.51701778
627,201,6,-6.620533224,-6.793892,-1.306551,0.222194323
628,201,12,-6.417199878,-4.436244,-0.374755,0.425527669
629,201,19,-3.389669553,2.250505,3.098316,3.453057994
630,201,25,-12.89926923,-8.145728,-6.348918,-6.056541683
631,201,29,-13.12079039,-6.892157,-6.321122,-6.278062842
632,202,2,-4.951678719,5.990359,0.692865,1.779771137
633,202,5,6.054938933,9.027797,10.850191,12.78638879
634,202,6,-6.533750501,0.718748,-1.281145,0.197699355
635,202,12,-6.311516851,3.072117,-0.370126,0.419933005
636,202,19,-3.342195365,8.456946,3.127482,3.389254491
637,202,25,-12.85717287,-4.429546,-6.348231,-6.125723013
638,202,29,-13.21021727,-5.666115,-6.339629,-6.478767413
639,203,2,-4.307205668,1.225509,0.685161,2.725969152
640,203,5,6.596272611,9.386551,10.862425,13.62944743
641,203,6,-6.124049624,-5.096723,-1.257112,0.909125196
642,203,12,-5.800129894,-0.677361,-0.394655,1.233044926
643,203,19,-3.584227475,4.728645,3.180616,3.448947345
644,203,25,-13.11507644,-5.959227,-6.389377,-6.081901618
645,203,29,-12.95550608,-6.632243,-6.40314,-5.922331255
646,204,2,-4.404198692,-2.063751,0.681823,2.873815306
647,204,5,5.713248169,9.147758,10.90612,12.99126217
648,204,6,-6.559389495,-5.572762,-1.279031,0.718624503
649,204,12,-6.011058564,-3.569187,-0.393502,1.266955434
650,204,19,-3.772753673,5.155461,3.174178,3.505260325
651,204,25,-13.15302751,-8.669286,-6.409627,-5.875013515
652,204,29,-12.7881081,-10.168749,-6.413789,-5.510094099
653,205,2,-4.409817598,7.24535,0.715071,2.743339333
654,205,5,6.241526633,14.607911,10.950292,13.39468356
655,205,6,-6.521114016,3.027519,-1.25658,0.632042915
656,205,12,-5.892374569,6.408316,-0.362463,1.260782363
657,205,19,-3.747518698,6.875296,3.20126,3.405638233
658,205,25,-13.14496625,0.611228,-6.404675,-5.991809318
659,205,29,-12.83886558,-6.482591,-6.426954,-5.685708645
660,206,2,-4.353926871,-0.822535,0.743258,2.671313478
661,206,5,6.154897193,10.464992,10.965436,13.18013754
662,206,6,-6.489996917,-7.537891,-1.240721,0.535243432
663,206,12,-5.892035804,-1.01582,-0.329696,1.133204545
664,206,19,-3.695970551,3.273677,3.207429,3.329269798
665,206,25,-13.12795986,-4.763354,-6.379861,-6.102719514
666,206,29,-12.78790934,-7.788048,-6.413265,-5.762668994
667,207,2,-4.375453257,3.325746,0.760575,2.7348889
668,207,5,6.375495546,11.053328,10.917916,13.4858377
669,207,6,-6.454246631,0.474906,-1.226187,0.656095526
670,207,12,-5.83682937,1.920486,-0.300263,1.273512787
671,207,19,-3.691591726,4.767797,3.188639,3.418750431
672,207,25,-13.07418287,-4.503435,-6.322893,-5.963840714
673,207,29,-12.86233671,-5.809203,-6.361935,-5.751994553
674,208,2,-4.397101154,-2.182287,0.784232,2.670528461
675,208,5,6.347521549,8.65839,10.846741,13.41515116
676,208,6,-6.505257402,-4.447204,-1.193512,0.562372213
677,208,12,-5.842213176,-1.254549,-0.266866,1.22541644
678,208,19,-3.703828943,1.557041,3.179282,3.363800672
679,208,25,-13.06926974,-4.415499,-6.251504,-6.001640128
680,208,29,-12.85153688,-6.691253,-6.306443,-5.783907264
681,209,2,-4.205889971,-1.640533,0.715265,2.764584676
682,209,5,6.441069583,9.357899,10.756861,13.41154423
683,209,6,-6.151468421,-4.776185,-1.219555,0.819006226
684,209,12,-5.761867204,-1.132084,-0.335235,1.208607443
685,209,19,-3.407898345,1.897217,3.159853,3.562576301
686,209,25,-12.99641145,-8.316131,-6.274853,-6.025936805
687,209,29,-12.76512927,-6.091323,-6.313909,-5.794654626
688,210,2,-4.385155528,-0.443746,0.987267,2.791128706
689,210,5,5.955511344,5.508559,10.683529,13.13179558
690,210,6,-6.596229907,-3.885701,-0.884975,0.580054327
691,210,12,-5.909918673,2.564399,-0.098758,1.266365561
692,210,19,-3.764962303,5.968412,3.376018,3.411321931
693,210,25,-12.85531166,-7.804173,-6.028873,-5.679027424
694,210,29,-12.65332966,-7.631387,-6.271599,-5.477045427
695,211,2,-4.479242044,-3.254359,0.993221,1.687301039
696,211,5,6.536588636,10.668729,10.787801,12.70313172
697,211,6,-6.459190305,-3.402315,-0.969242,-0.292647222
698,211,12,-5.777947823,-4.374104,-0.061036,0.38859526
699,211,19,-3.745656326,-1.082626,3.295058,2.420886757
700,211,25,-12.9473875,-7.497304,-6.029001,-6.780844419
701,211,29,-12.90028027,-8.411894,-6.220182,-6.733737188
702,212,2,-4.382970608,-2.084016,0.590809,2.587744882
703,212,5,6.564746972,9.660999,11.0169,13.53546246
704,212,6,-6.443655378,-5.787586,-1.512982,0.527060112
705,212,12,-5.75509189,-6.19254,-0.400832,1.2156236
706,212,19,-3.654331678,2.591498,2.966606,3.316383812
707,212,25,-12.92197067,-7.553269,-6.443152,-5.951255181
708,212,29,-12.81232446,-9.304722,-6.313659,-5.841608968
709,213,2,-4.371778275,-2.896454,0.564072,2.618167469
710,213,5,6.592450641,5.248219,11.065283,13.58239638
711,213,6,-6.404467854,-5.914894,-1.556103,0.585477891
712,213,12,-5.765880986,-3.792401,-0.423478,1.224064758
713,213,19,-3.648440916,2.904752,2.952786,3.341504828
714,213,25,-12.88040319,-9.399346,-6.489339,-5.890457446
715,213,29,-12.8387491,-6.877161,-6.33857,-5.848803356
716,214,2,-4.395751273,-4.379644,0.581891,2.556239646
717,214,5,6.524099841,8.706066,11.066727,13.47609076
718,214,6,-6.499846716,-6.415234,-1.554858,0.452144203
719,214,12,-5.748998758,-5.361648,-0.395349,1.20299216
720,214,19,-3.657777091,1.423951,2.93899,3.294213828
721,214,25,-12.86889783,-8.883173,-6.459145,-5.916906911
722,214,29,-12.74073287,-8.597835,-6.308886,-5.788741948
723,215,2,-4.443153258,-1.315503,0.559634,2.47852413
724,215,5,6.280246475,7.513154,11.093499,13.20192386
725,215,6,-6.571441216,-5.069843,-1.607442,0.350236172
726,215,12,-5.801363126,-3.024809,-0.401924,1.120314262
727,215,19,-3.704849742,2.155136,2.894246,3.216827647
728,215,25,-12.88126778,-8.067362,-6.472611,-5.959590388
729,215,29,-12.68015629,-6.030384,-6.291252,-5.758478899
730,216,2,-4.448404318,3.861715,0.520873,1.86363746
731,216,5,6.17628925,12.367118,11.13772,12.48833103
732,216,6,-6.566184544,-3.953869,-1.63205,-0.254142765
733,216,12,-5.809518193,-1.020714,-0.451805,0.502523586
734,216,19,-3.656989123,5.138421,2.919249,2.655052656
735,216,25,-12.87240574,-7.267866,-6.551564,-6.560363958
736,216,29,-12.61497569,-3.444844,-6.364179,-6.302933909
737,217,2,-4.387019318,3.270308,0.500031,1.686613661
738,217,5,6.377326529,10.262326,11.20433,12.45095951
739,217,6,-6.472392757,-3.541634,-1.669357,-0.398759778
740,217,12,-5.734641705,3.587988,-0.472271,0.338991273
741,217,19,-3.521661654,10.128781,2.91856,2.551971325
742,217,25,-12.82399038,-5.299021,-6.606876,-6.750357399
743,217,29,-12.64874646,-1.988762,-6.403571,-6.575113479
744,218,2,-4.435469366,0.075774,0.490249,2.147861363
745,218,5,6.491950969,9.725184,11.240163,13.0752817
746,218,6,-6.51331632,-1.211597,-1.678756,0.070014409
747,218,12,-5.760183526,0.495305,-0.485811,0.823147203
748,218,19,-3.613576771,3.834707,2.93409,2.969753958
749,218,25,-12.7756776,-6.202858,-6.642235,-6.192346875
750,218,29,-12.6781077,-6.624335,-6.439107,-6.094776971
751,219,2,-4.48454287,-5.093255,0.459005,2.022230727
752,219,5,6.368520276,10.954601,11.218087,12.87529387
753,219,6,-6.582883403,-7.957302,-1.68579,-0.076109807
754,219,12,-5.748994855,-4.307943,-0.521533,0.757778741
755,219,19,-3.661628102,1.640357,2.9435,2.845145495
756,219,25,-12.79253636,-11.06581,-6.670577,-6.285762767
757,219,29,-12.58482088,-8.625375,-6.466819,-6.078047286
758,220,2,-4.52217454,0.459786,0.465966,1.996904184
759,220,5,6.367803783,10.434749,11.2621,12.88688251
760,220,6,-6.635296702,-5.684446,-1.65003,-0.116217978
761,220,12,-5.751967377,-2.622748,-0.536692,0.767111347
762,220,19,-3.703280613,2.74982,3.017647,2.815798111
763,220,25,-12.75862175,-9.651867,-6.721517,-6.239543029
764,220,29,-12.60350546,-4.344728,-6.549885,-6.084426736
765,221,2,-4.459873052,-7.792804,0.52199,1.60795714
766,221,5,6.217292542,7.096815,11.392408,12.28512273
767,221,6,-6.547123128,-8.524674,-1.654279,-0.479292935
768,221,12,-5.760885903,-7.860589,-0.473125,0.306944289
769,221,19,-3.575755458,-2.520063,3.026685,2.492074734
770,221,25,-12.72975222,-13.516776,-6.723005,-6.66192203
771,221,29,-12.47844137,-6.453706,-6.555064,-6.41061118
772,222,2,-4.444105881,2.549377,0.65013,2.309280045
773,222,5,6.278643713,13.528586,11.563572,13.03202964
774,222,6,-6.524020453,-0.544177,-1.603216,0.229365473
775,222,12,-5.738729615,-2.579484,-0.340604,1.01465631
776,222,19,-3.601320074,4.801439,3.072754,3.152065852
777,222,25,-12.68852755,-9.145684,-6.679391,-5.93514162
778,222,29,-12.47699484,-7.726724,-6.549714,-5.723608914
779,223,2,-4.517756933,0.908912,0.74301,2.086113544
780,223,5,6.121944134,14.164719,11.687048,12.72581461
781,223,6,-6.613637234,-3.666434,-1.547064,-0.009766756
782,223,12,-5.780912371,2.130581,-0.254242,0.822958107
783,223,19,-3.675121911,4.8577,3.136222,2.928748567
784,223,25,-12.70616696,-4.615516,-6.662762,-6.102296479
785,223,29,-12.45093122,-8.452032,-6.575649,-5.847060747
786,224,2,-4.440695364,0.858624,0.790952,1.968055029
787,224,5,6.359695403,11.138655,11.764554,12.7684458
788,224,6,-6.519406199,-6.663963,-1.552724,-0.110655806
789,224,12,-5.732258976,-2.092066,-0.191734,0.676491417
790,224,19,-3.543186587,2.603752,3.122669,2.865563806
791,224,25,-12.60632069,-5.004008,-6.635036,-6.197570292
792,224,29,-12.49788416,-5.356177,-6.546617,-6.089133767
793,225,2,-4.319292065,1.681213,0.82549,1.98755709
794,225,5,6.334225034,8.838545,11.792691,12.64107419
795,225,6,-6.29291549,-3.08803,-1.558727,0.013933665
796,225,12,-5.78912181,0.23974,-0.139594,0.517727345
797,225,19,-3.311723656,5.081396,3.095303,2.995125499
798,225,25,-12.56391463,-5.984704,-6.590984,-6.257065475
799,225,29,-12.55898071,-4.946121,-6.49806,-6.252131553
800,226,2,-4.430523428,5.060227,0.821801,1.679925025
801,226,5,6.049814668,8.137993,11.800615,12.16026312
802,226,6,-6.216721886,-0.297319,-1.530577,-0.106273433
803,226,12,-5.927965072,1.80931,-0.159421,0.182483381
804,226,19,-3.356025082,12.452482,3.148693,2.754423371
805,226,25,-12.50866134,-4.684646,-6.625178,-6.39821289
806,226,29,-12.56952265,-5.496121,-6.556769,-6.459074193
807,227,2,-4.417443964,-4.359662,0.759721,2.122718725
808,227,5,6.230822799,8.184886,11.825518,12.77098549
809,227,6,-6.307392825,-3.747489,-1.604071,0.232769864
810,227,12,-5.883514437,-3.411151,-0.212968,0.656648252
811,227,19,-3.422636941,1.892475,3.109941,3.117525749
812,227,25,-12.53109491,-8.615105,-6.687727,-5.990932218
813,227,29,-12.55921486,-8.144897,-6.578686,-6.019052175
814,228,2,-4.395400908,-0.620568,0.793947,1.773156376
815,228,5,6.306538686,9.065803,11.92752,12.47509597
816,228,6,-6.405629657,-3.849524,-1.585112,-0.237072372
817,228,12,-5.849030854,-3.610293,-0.189024,0.319526431
818,228,19,-3.347935082,2.212848,3.161942,2.820622203
819,228,25,-12.53641075,-7.498306,-6.723416,-6.367853469
820,228,29,-12.52161123,-5.479153,-6.635973,-6.35305395
821,229,2,-4.501566576,0.075773,0.822102,1.891240024
822,229,5,6.220623291,6.378484,12.014178,12.61342989
823,229,6,-6.558422074,-3.010204,-1.552426,-0.165615474
824,229,12,-5.782360019,0.312279,-0.178802,0.610446581
825,229,19,-3.527673055,7.614858,3.23326,2.865133545
826,229,25,-12.58238544,-5.991253,-6.7689,-6.189578837
827,229,29,-12.43681554,-7.168562,-6.712619,-6.044008945
828,230,2,-4.510774091,7.26935,0.817384,1.669499297
829,230,5,6.211172567,10.850688,12.132209,12.39144595
830,230,6,-6.572029582,-1.881053,-1.569301,-0.391756195
831,230,12,-5.783213635,4.423654,-0.19586,0.397059752
832,230,19,-3.510953487,7.241096,3.276534,2.669319901
833,230,25,-12.54821184,-1.404832,-6.853952,-6.367938455
834,230,29,-12.41006302,-1.517057,-6.800111,-6.229789636
835,231,2,-4.501023191,1.659768,0.875464,1.830670294
836,231,5,6.176193771,9.799354,12.29336,12.50788726
837,231,6,-6.489933285,-0.906974,-1.531979,-0.1582398
838,231,12,-5.838167958,1.120704,-0.157618,0.493525527
839,231,19,-3.426964196,3.359659,3.365584,2.904729289
840,231,25,-12.57738991,-4.340924,-6.910675,-6.245696428
841,231,29,-12.40566517,-5.096661,-6.894643,-6.073971682
842,232,2,-4.493311848,4.279784,0.891049,2.061352411
843,232,5,6.150870799,12.924875,12.412144,12.70553506
844,232,6,-6.500303464,-0.603723,-1.500152,0.054360795
845,232,12,-5.82212916,-1.443174,-0.171546,0.732535098
846,232,19,-3.454702758,6.563352,3.46549,3.0999615
847,232,25,-12.53412673,-7.77457,-7.002273,-5.979462468
848,232,29,-12.40740369,-6.939347,-7.021972,-5.852739436
849,233,2,-4.546628757,0.315565,0.91378,2.158534365
850,233,5,6.096533086,10.1987,12.426742,12.80169621
851,233,6,-6.542468785,-0.907985,-1.495143,0.162694337
852,233,12,-5.834427312,-1.53619,-0.140353,0.870735811
853,233,19,-3.505397565,4.865999,3.459917,3.199765557
854,233,25,-12.56399061,-8.89909,-6.97687,-5.858827488
855,233,29,-12.42156764,-7.53123,-7.000769,-5.71640452
856,234,2,-4.594417755,3.033045,0.953364,2.05476494
857,234,5,6.026150763,12.673429,12.451215,12.67533346
858,234,6,-6.607028203,0.779863,-1.460689,0.042154491
859,234,12,-5.833459479,-3.702005,-0.102292,0.815723215
860,234,19,-3.576343003,4.317599,3.489082,3.072839691
861,234,24,-0.149082137,0.293169,6.298576,6.500100557
862,234,25,-12.57171764,-8.680868,-6.955037,-5.922534946
863,234,29,-12.42435897,-5.792582,-7.003497,-5.775176275
864,235,2,-4.670089164,-3.956286,1.059589,2.176929795
865,235,5,5.73370482,5.171324,12.577528,12.58072378
866,235,6,-6.631698116,-6.270682,-1.389919,0.215320843
867,235,12,-5.913951597,-4.51124,-0.004299,0.933067363
868,235,19,-3.611327617,2.87602,3.563855,3.235691343
869,235,24,-0.399924729,29.497447,6.358848,6.44709423
870,235,25,-12.59134687,-13.335012,-6.929537,-5.744327906
871,235,29,-12.47037995,-8.850922,-7.030089,-5.623360994
872,236,2,-4.749026293,2.59836,1.097067,2.279005412
873,236,5,5.332831191,10.381328,12.643157,12.3608629
874,236,6,-6.753154502,-0.06773,-1.393291,0.274877204
875,236,12,-6.021770867,-2.004111,0.043998,1.006260839
876,236,19,-3.727158593,4.26757,3.55804,3.300873113
877,236,24,-0.643286081,7.006051,6.430898,6.384745625
878,236,25,-12.62141312,-4.101238,-6.911937,-5.593381417
879,236,29,-12.59921016,-7.19228,-7.013577,-5.571178458
880,237,2,-4.728546464,6.274402,1.141514,2.148776129
881,237,5,5.646438042,9.967464,12.68207,12.52376063
882,237,6,-6.783076264,2.723471,-1.373278,0.094246329
883,237,12,-5.964651734,2.98814,0.094678,0.912670859
884,237,19,-3.750295913,6.777675,3.567519,3.12702668
885,237,24,-0.37550509,-7.925724,6.469313,6.501817502
886,237,25,-12.60066764,-7.616805,-6.880926,-5.723345043
887,237,29,-12.43108956,-0.891817,-6.997239,-5.55376697
888,238,2,-4.966363951,1.525302,1.197978,1.99557962
889,238,5,6.221623564,10.058995,12.743091,13.18356713
890,238,6,-6.56136116,-4.384067,-1.337927,0.400582411
891,238,12,-6.322257102,0.087085,0.150599,0.639686468
892,238,19,-3.835202854,3.006809,3.601041,3.126740717
893,238,24,-0.457335554,16.044734,6.504297,6.504608017
894,238,25,-13.08878014,-10.000148,-6.859562,-6.126836572
895,238,29,-13.2375421,-4.2039,-7.002428,-6.275598526
896,239,2,-4.922889675,-4.828455,1.211746,2.257728081
897,239,5,5.970793616,7.028337,12.789036,13.15141137
898,239,6,-6.619702069,-7.052156,-1.314453,0.560915688
899,239,12,-6.363669065,-3.819465,0.152404,0.816948691
900,239,19,-3.818545237,3.661712,3.650341,3.362072519
901,239,25,-13.07766996,-11.554011,-6.889676,-5.897052204
902,239,29,-13.27670521,-9.332178,-7.055025,-6.096087452
903,240,2,-4.847794362,5.931816,1.232215,2.217939621
904,240,5,6.365334766,16.517801,12.848246,13.43106875
905,240,6,-6.500383724,4.305539,-1.310445,0.565350259
906,240,12,-6.265446053,2.185764,0.17257,0.80028793
907,240,19,-3.759042771,6.905198,3.669613,3.306691212
908,240,25,-12.99637725,-3.435425,-6.902341,-5.930643272
909,240,29,-13.21222307,-8.669392,-7.076164,-6.14648909
910,241,2,-4.924345689,0.110675,1.242023,1.981129113
911,241,5,6.518622275,12.921564,12.907087,13.42409708
912,241,6,-6.504693005,-3.28965,-1.315935,0.400781798
913,241,12,-6.272405046,-1.813156,0.182252,0.633069756
914,241,19,-3.742257152,3.154518,3.684426,3.163217651
915,241,25,-12.96801482,-6.463179,-6.925029,-6.06254002
916,241,29,-13.18658269,-8.30062,-7.101842,-6.28110789
917,242,2,-4.880332192,-5.514294,1.206925,1.990542149
918,242,5,6.342578134,11.810288,12.930616,13.21345248
919,242,6,-6.536447804,-10.036881,-1.320629,0.334426537
920,242,12,-6.268334911,-7.748928,0.131219,0.60253943
921,242,19,-3.730836479,-0.973576,3.726154,3.140037863
922,242,25,-12.95815504,-11.665836,-6.99775,-6.087280697
923,242,29,-13.20335608,-8.287451,-7.181076,-6.332481734
924,243,2,-4.873385979,-1.135991,1.148595,2.065736707
925,243,5,6.423531956,11.049612,12.928712,13.36265464
926,243,6,-6.524845629,-5.26626,-1.377433,0.414277058
927,243,12,-6.245649543,-3.07863,0.079378,0.693473143
928,243,19,-3.702536321,5.22042,3.695554,3.236586365
929,243,25,-12.92548524,-8.532201,-7.04654,-5.986362549
930,243,29,-13.19268385,-10.383379,-7.198617,-6.253561168
931,244,2,-4.804108818,-2.008205,1.125955,2.267360664
932,244,5,6.229038393,7.880676,12.949221,13.30050788
933,244,6,-6.570775171,-4.512337,-1.377658,0.500694311
934,244,12,-6.258125655,-4.931265,0.044978,0.813343827
935,244,19,-3.704276378,0.794668,3.730251,3.367193104
936,244,25,-12.91735729,-10.636198,-7.099235,-5.845887812
937,244,29,-13.20859979,-4.466341,-7.259002,-6.137130307
938,245,2,-4.824449169,2.07427,1.112339,2.113164883
939,245,5,6.42354995,12.912016,12.989335,13.361164
940,245,6,-6.506108254,-4.491955,-1.395771,0.431505799
941,245,12,-6.203658106,1.211809,0.030372,0.733955946
942,245,19,-3.654931183,6.979943,3.738525,3.28268287
943,245,25,-12.87376309,-8.258112,-7.136789,-5.936149042
944,245,29,-13.17512185,-9.257392,-7.291753,-6.237507802
945,246,2,-4.860479188,-1.583517,1.070566,2.076011706
946,246,5,6.33562441,9.250115,13.007527,13.2721153
947,246,6,-6.586010544,-3.451324,-1.422755,0.35048035
948,246,12,-6.220189899,-3.120184,-0.017135,0.716300995
949,246,19,-3.675641468,4.011766,3.749097,3.260849426
950,246,25,-12.86736422,-7.835519,-7.198032,-5.930873327
951,246,29,-13.18131347,-8.762211,-7.343477,-6.244822579
952,247,2,-4.820416324,0.88628,1.050453,2.091893982
953,247,5,6.417775638,9.167065,13.010274,13.33008594
954,247,6,-6.525517155,-5.832294,-1.405035,0.386793151
955,247,12,-6.189196545,-3.776825,-0.054482,0.723113761
956,247,19,-3.611931674,4.784607,3.799815,3.300378633
957,247,25,-12.84530849,-7.588306,-7.24752,-5.932998181
958,247,29,-13.17699916,-7.231198,-7.411701,-6.264688854
959,248,2,-4.824973324,0.940993,1.068126,1.789286406
960,248,5,6.308895598,15.317526,13.051687,12.92315533
961,248,6,-6.57777324,-1.611016,-1.379617,0.03648649
962,248,12,-6.210236952,-0.87709,-0.046999,0.404022778
963,248,19,-3.628956769,1.068393,3.84588,2.985302961
964,248,25,-12.85175563,-8.185059,-7.268924,-6.237495903
965,248,29,-13.18310753,-6.766728,-7.456051,-6.5688478
966,249,2,-4.859625963,2.513484,1.081135,2.10137086
967,249,5,6.185476306,9.169485,13.106987,13.14647313
968,249,6,-6.643106505,-2.141805,-1.357661,0.317890318
969,249,12,-6.222688503,-2.147734,-0.04708,0.73830832
970,249,19,-3.621733881,4.309072,3.898701,3.339262942
971,249,25,-12.8633497,-9.266777,-7.306351,-5.902352875
972,249,29,-13.1858754,-4.298344,-7.516003,-6.224878579
973,250,2,-4.764471784,0.209929,1.069754,2.132952057
974,250,5,6.371610894,10.179434,13.115267,13.26903473
975,250,6,-6.520268696,-2.357566,-1.365339,0.377155145
976,250,12,-6.165360906,-1.320842,-0.05825,0.732062934
977,250,19,-3.533864497,4.252962,3.903893,3.363559343
978,250,25,-12.8095276,-8.765005,-7.323778,-5.912103763
979,250,29,-13.16449935,-7.086436,-7.532726,-6.267075511
980,251,2,-4.807648028,3.214938,0.974377,2.030005093
981,251,5,6.406204144,7.447011,13.0698,13.24385727
982,251,6,-6.535780921,-1.993264,-1.414106,0.301872201
983,251,12,-6.151135623,-1.225206,-0.161659,0.686517498
984,251,19,-3.517892568,8.364314,3.899292,3.319760554
985,251,25,-12.81190671,-4.734018,-7.408849,-5.974253589
986,251,29,-13.16138677,-8.380385,-7.593338,-6.323733647
987,252,2,-4.635304323,1.753611,0.777752,2.428163145
988,252,5,5.215121348,8.844846,12.943646,12.27858882
989,252,6,-5.668063172,-2.793801,-1.508127,1.395404296
990,252,12,-6.015067913,-4.714741,-0.375757,1.048399554
991,252,19,-3.183894956,5.925611,3.880967,3.879572512
992,252,25,-12.91479418,-8.725676,-7.566619,-5.851326714
993,252,29,-13.08425883,-8.355267,-7.699465,-6.020791361
994,253,2,-4.670134879,1.422941,0.288826,1.788116922
995,253,5,6.432690674,9.802994,12.530189,12.89094248
996,253,6,-6.172818106,-4.518386,-1.540274,0.285433695
997,253,12,-5.973711491,-0.499836,-1.007187,0.484540311
998,253,19,-3.217100107,6.14618,4.095384,3.241151695
999,253,25,-12.72269995,-10.307322,-8.053927,-6.264448149
1000,253,29,-13.12641591,-5.578844,-8.192781,-6.668164104
1001,254,2,-4.816781888,1.094142,0.055066,2.14438595
1002,254,5,6.130372924,8.87975,12.341297,13.09154076
1003,254,6,-6.657841503,-6.499799,-1.69575,0.303326335
1004,254,12,-6.186677143,-2.591131,-1.23088,0.774490695
1005,254,19,-3.577862668,3.085332,3.983687,3.383305169
1006,254,25,-12.80500269,-11.783922,-8.17475,-5.843834855
1007,254,29,-13.15597136,-3.798053,-8.215258,-6.194803526
1008,255,2,-4.833121204,1.557447,0.276715,2.107656146
1009,255,5,6.144642827,10.769659,12.651563,13.08542018
1010,255,6,-6.637359981,-0.180444,-1.724852,0.303417369
1011,255,12,-6.170593323,0.302769,-0.938357,0.770184027
1012,255,19,-3.548132487,5.597484,3.8867,3.392644863
1013,255,25,-12.79486032,-6.355622,-8.010462,-5.854082972
1014,255,29,-13.16500292,-7.950058,-8.032485,-6.22422557
1015,256,2,-4.894413399,4.272941,0.263708,2.047028763
1016,256,5,6.115597105,13.331753,12.684845,13.05703927
1017,256,6,-6.745841161,-2.706723,-1.741576,0.195601001
1018,256,12,-6.180789663,-0.555579,-0.951516,0.760652499
1019,256,19,-3.639322057,7.339214,3.892927,3.302120105
1020,256,25,-12.80375618,-7.891179,-8.042858,-5.862314022
1021,256,29,-13.13594307,-8.147458,-8.060304,-6.194500907
1022,257,2,-4.907265412,4.838553,0.237117,1.93321742
1023,257,5,6.020487748,15.74919,12.671481,12.86097058
1024,257,6,-6.795652289,0.740305,-1.730868,0.044830543
1025,257,12,-6.196115379,3.590489,-0.991742,0.644367453
1026,257,19,-3.63744213,4.282007,3.930396,3.203040702
1027,257,24,-0.526984846,14.180667,5.838332,6.313497986
1028,257,25,-12.78970974,-3.461438,-8.085144,-5.949226903
1029,257,29,-13.13957771,-6.536555,-8.115249,-6.299094876
1030,258,2,-4.896670637,8.209274,0.173488,2.042569828
1031,258,5,6.166265497,11.983073,12.675699,13.10550596
1032,258,6,-6.736439608,1.047195,-1.77028,0.202800858
1033,258,12,-6.155458432,2.132459,-1.062283,0.783782033
1034,258,19,-3.600976262,5.869025,3.935797,3.338264203
1035,258,24,-0.450458318,1.253399,5.817546,6.488782147
1036,258,25,-12.79708743,-7.873372,-8.162741,-5.857846969
1037,258,29,-13.12296492,0.641987,-8.175801,-6.183724458
1038,259,2,-4.900573849,3.346652,0.058324,1.716949436
1039,259,5,6.109558963,17.349418,12.700806,12.72708225
1040,259,6,-6.775223157,-0.864459,-1.89035,-0.157699871
1041,259,12,-6.162806007,-0.12015,-1.168187,0.454717279
1042,259,19,-3.610695497,4.377347,3.87753,3.006827788
1043,259,25,-12.77880109,-2.832814,-8.277422,-6.161277807
1044,259,29,-13.11130912,-10.524043,-8.223727,-6.493785831
1045,260,2,-4.836526287,1.705751,-0.034697,1.897521467
1046,260,5,6.289596212,12.682672,12.719455,13.02364397
1047,260,6,-6.63001488,-6.116639,-1.967959,0.104032875
1048,260,12,-6.119989739,-1.581844,-1.263696,0.614058016
1049,260,19,-3.522352757,4.948462,3.860253,3.211694998
1050,260,25,-12.75531507,-6.831346,-8.384744,-6.021267317
1051,260,29,-13.10878007,-8.218406,-8.291686,-6.374732317
1052,261,2,-4.905558155,0.712704,-0.151644,1.460185434
1053,261,5,6.48781415,9.234799,12.673596,12.85355774
1054,261,6,-6.657654152,-3.504426,-2.077219,-0.291910563
1055,261,12,-6.112289924,-2.702274,-1.365342,0.253453665
1056,261,19,-3.530132555,7.986702,3.782198,2.835611034
1057,261,25,-12.71790462,-5.599069,-8.455918,-6.35216103
1058,261,29,-13.06267781,-9.278583,-8.296825,-6.696934223
1059,262,2,-4.855308856,3.892825,-0.125744,2.0526242
1060,262,5,6.128518718,14.365435,12.663036,13.03645177
1061,262,6,-6.644901437,-2.03789,-2.039421,0.263031619
1062,262,12,-6.170423433,3.332395,-1.34306,0.737509623
1063,262,19,-3.517756913,5.075582,3.811301,3.390176143
1064,262,25,-12.76241623,-3.742689,-8.432916,-5.854483174
1065,262,29,-13.10974783,-7.568876,-8.299142,-6.201814776
1066,263,2,-4.917387014,0.337093,0.062031,2.043189975
1067,263,5,5.942453496,11.812252,12.76916,12.90303048
1068,263,6,-6.776719416,-2.50905,-1.888347,0.183857573
1069,263,12,-6.22958441,-4.000673,-1.164331,0.730992579
1070,263,19,-3.60967738,5.017913,3.919825,3.350899609
1071,263,25,-12.75024293,-10.060656,-8.318244,-5.789665936
1072,263,29,-13.11451269,-8.571578,-8.28224,-6.1539357
1073,264,2,-4.964274574,8.00925,0.161115,1.72246231
1074,264,5,6.004665868,16.257719,12.831716,12.69140275
1075,264,6,-6.905072606,1.644314,-1.858654,-0.218335723
1076,264,12,-6.231713714,6.159,-1.041704,0.45502317
1077,264,19,-3.674171482,10.191674,3.902906,3.012565402
1078,264,25,-12.76260687,-3.615914,-8.219609,-6.075869985
1079,264,29,-13.04969502,-7.821887,-8.200283,-6.362958139
1080,265,2,-4.887473359,0.79977,0.030966,1.851869101
1081,265,5,6.415550313,10.059202,12.704702,13.15489277
1082,265,6,-6.661828562,-5.370617,-1.978866,0.077513898
1083,265,12,-6.137299402,-2.214231,-1.142152,0.602043059
1084,265,19,-3.550125227,3.090561,3.776747,3.189217233
1085,265,25,-12.67901142,-6.697076,-8.240623,-5.93966896
1086,265,29,-13.04869589,-6.418182,-8.140465,-6.309353428
1087,266,2,-4.899704964,1.104973,0.028293,1.892853
1088,266,5,6.133738761,11.176724,12.642461,12.92629673
1089,266,6,-6.723915972,-2.767108,-1.946471,0.068641992
1090,266,12,-6.21873784,-1.044766,-1.150103,0.573820123
1091,266,19,-3.56843687,5.086201,3.797765,3.224121093
1092,266,25,-12.68275327,-9.291535,-8.221758,-5.890195302
1093,266,29,-13.08300972,-7.206878,-8.141486,-6.290451754
1094,267,2,-4.8061693,1.889032,0.235454,1.806941745
1095,267,5,6.318244642,16.454831,12.741709,12.93135569
1096,267,6,-6.623562373,-5.476692,-1.772916,-0.010451328
1097,267,12,-6.154302371,-2.400676,-0.953866,0.458808673
1098,267,19,-3.475759684,3.580643,3.918397,3.137351361
1099,267,25,-12.65839,-7.854554,-8.087164,-6.045278951
1100,267,29,-13.05389409,-8.673817,-8.117681,-6.440783044
1101,268,2,-4.812863554,4.494751,0.2683,1.697453723
1102,268,5,6.549007088,12.588231,12.735131,13.05932437
1103,268,6,-6.435278654,-0.126344,-1.772243,0.075038624
1104,268,12,-6.117958334,3.148074,-0.901139,0.392358944
1105,268,19,-3.363398333,4.801411,3.884489,3.146918944
1106,268,25,-12.62421631,-5.517016,-8.023886,-6.113899032
1107,268,29,-13.03733364,-4.347918,-8.051878,-6.52701636
1108,269,2,-4.836380644,1.284126,0.359608,1.832706921
1109,269,5,6.507951491,8.97468,12.717278,13.17703906
1110,269,6,-6.476851138,-2.963251,-1.70798,0.192236426
1111,269,12,-6.139576672,-2.256966,-0.795004,0.529510892
1112,269,19,-3.387106722,5.097646,3.885734,3.281980842
1113,269,24,-0.440652653,7.418435,5.998088,6.228434911
1114,269,25,-12.62084994,-9.68877,-7.904734,-5.951762372
1115,269,29,-13.04810385,-6.231055,-7.967301,-6.379016286
1116,270,2,-4.840293911,-0.775681,0.389734,1.722811931
1117,270,5,6.559156527,8.754487,12.632159,13.12226237
1118,270,6,-6.479737277,-2.84938,-1.674854,0.083368565
1119,270,12,-6.117411652,-2.395335,-0.750462,0.445694189
1120,270,19,-3.389604732,4.252607,3.862632,3.173501109
1121,270,25,-12.61210174,-8.041403,-7.812022,-6.048995896
1122,270,29,-13.02212963,-7.627788,-7.887798,-6.459023784
1123,271,2,-4.936665879,-3.814888,0.381897,1.675038213
1124,271,5,6.242980817,9.089409,12.508237,12.85468491
1125,271,6,-6.639635519,-4.305633,-1.698348,-0.027931427
1126,271,12,-6.217578034,-4.781715,-0.723708,0.394126059
1127,271,19,-3.476275677,3.829056,3.767548,3.135428416
1128,271,25,-12.67264636,-13.215877,-7.706485,-6.060942266
1129,271,29,-13.03894404,-8.857292,-7.755157,-6.427239949
1130,272,2,-5.049823465,1.795356,0.356473,1.846789266
1131,272,5,5.93314709,9.198013,12.349441,12.82975982
1132,272,6,-6.941680359,-1.499992,-1.737002,-0.045067628
1133,272,12,-6.292785484,0.206191,-0.708416,0.603827248
1134,272,19,-3.674521612,6.145726,3.647251,3.22209112
1135,272,25,-12.73782768,-7.561312,-7.591157,-5.841214946
1136,272,29,-13.00919658,-6.397437,-7.600323,-6.112583844
1137,273,2,-5.041481408,3.213116,0.468993,1.76270976
1138,273,5,5.917435093,13.326108,12.253611,12.72162626
1139,273,6,-6.855795589,-3.801293,-1.670901,-0.051604421
1140,273,12,-6.352202847,-3.618717,-0.557825,0.451988321
1141,273,19,-3.609863298,-0.011223,3.587629,3.19432787
1142,273,24,-0.553636548,-1.019026,5.991926,6.25055462
1143,273,25,-12.69899667,-3.440002,-7.375894,-5.894805507
1144,273,29,-13.06568126,-2.747511,-7.409469,-6.261490096
1145,274,2,-5.084613221,-1.099519,0.475397,1.854274806
1146,274,5,5.641048655,8.98461,12.135643,12.57993668
1147,274,6,-6.93436843,-5.153446,-1.668677,0.004519598
1148,274,12,-6.423824999,-1.26726,-0.525533,0.515063028
1149,274,19,-3.635291308,4.726795,3.521788,3.303596719
1150,274,24,-0.714554998,9.572185,5.972732,6.224333029
1151,274,25,-12.76142121,-7.085895,-7.272303,-5.822533183
1152,274,29,-13.04976129,-10.036923,-7.296138,-6.11087326
1153,275,2,-5.077331001,1.677274,0.492172,1.823122059
1154,275,5,5.585745001,13.401955,12.019989,12.48619806
1155,275,6,-6.924515647,-0.58334,-1.652728,-0.024062587
1156,275,12,-6.439613252,-0.619981,-0.485979,0.460839808
1157,275,19,-3.619494211,4.826834,3.468333,3.280958849
1158,275,24,-0.763571523,2.302635,5.946087,6.136881537
1159,275,25,-12.78768302,-5.393086,-7.164283,-5.887229959
1160,275,29,-13.09673994,-8.609917,-7.187172,-6.196286883
1161,276,2,-5.027318076,2.505765,0.525161,1.948083503
1162,276,5,5.737585175,12.342229,11.91753,12.71298675
1163,276,6,-6.900393079,1.707725,-1.62503,0.075008499
1164,276,12,-6.363159628,-0.780121,-0.431282,0.612241951
1165,276,19,-3.613998911,5.301007,3.424256,3.361402667
1166,276,25,-12.76186539,-7.692456,-7.048592,-5.786463811
1167,276,29,-13.06225364,-7.225199,-7.078232,-6.086852061
1168,277,2,-5.00309138,1.042421,0.480587,1.809165041
1169,277,5,5.940118086,11.188529,11.800532,12.75237451
1170,277,6,-6.801601637,-2.792518,-1.662492,0.010654784
1171,277,12,-6.360989156,-1.230702,-0.452939,0.451267265
1172,277,19,-3.520312145,3.385662,3.347599,3.291944276
1173,277,25,-12.7655113,-8.339521,-7.000211,-5.953254876
1174,277,29,-13.05761593,-6.227921,-6.998287,-6.245359506
1175,278,2,-5.03888526,2.921312,0.436016,1.837560449
1176,278,5,5.816642545,10.058169,11.672095,12.69308825
1177,278,6,-6.863342117,-1.598274,-1.691308,0.013103592
1178,278,12,-6.393271236,1.003641,-0.47747,0.483174473
1179,278,19,-3.586461533,6.725838,3.278234,3.289984176
1180,278,25,-12.79293032,-7.367883,-6.950236,-5.916484615
1181,278,29,-13.0469614,-6.615381,-6.921796,-6.170515692
1182,279,2,-4.999606014,4.621103,0.40878,1.789482648
1183,279,5,6.042521633,15.642959,11.519752,12.83161029
1184,279,6,-6.765011285,0.862853,-1.680236,0.024077376
1185,279,12,-6.330651065,4.777656,-0.494451,0.458437596
1186,279,19,-3.516386371,3.990266,3.240996,3.27270229
1187,279,25,-12.74697665,-3.860928,-6.885478,-5.957887985
1188,279,29,-13.02833882,-5.355217,-6.854595,-6.239250162
1189,280,2,-5.009498057,3.351293,0.408726,1.80356732
1190,280,5,6.018067244,13.180324,11.390824,12.83113262
1191,280,6,-6.76467853,-2.067919,-1.6654,0.048386847
1192,280,12,-6.331497375,-1.088054,-0.477259,0.481568002
1193,280,19,-3.518426695,3.541756,3.19524,3.294638683
1194,280,25,-12.79871513,-6.284802,-6.795353,-5.985649753
1195,280,29,-13.05611262,-5.198839,-6.763441,-6.243047244
1196,281,2,-5.032352155,4.037041,0.368005,1.730442605
1197,281,5,6.134905523,11.573699,11.269588,12.89770028
1198,281,6,-6.779601826,-2.149114,-1.713588,-0.016807065
1199,281,12,-6.326333775,0.332248,-0.486546,0.436460985
1200,281,19,-3.529501963,6.174639,3.09553,3.233292797
1201,281,25,-12.7964174,-6.674928,-6.728064,-6.033622641
1202,281,29,-13.04531258,-5.977905,-6.655597,-6.282517822
1203,282,2,-5.075171499,0.757423,0.393672,1.81842273
1204,282,5,5.844564946,9.856684,11.170977,12.73815918
1205,282,6,-6.921558043,-4.339912,-1.678075,-0.027963813
1206,282,12,-6.378851807,-1.131605,-0.448163,0.514742422
1207,282,19,-3.628402644,4.478374,3.072963,3.265191586
1208,282,25,-12.81848412,-8.911959,-6.634844,-5.924889889
1209,282,29,-13.09241202,-6.508902,-6.576068,-6.198817788
1210,283,2,-5.047086951,4.178464,0.40151,1.777199843
1211,283,5,5.967392826,15.136214,11.086261,12.79167962
1212,283,6,-6.784901162,-4.329347,-1.638904,0.039385632
1213,283,12,-6.329484912,3.153711,-0.440953,0.494801882
1214,283,19,-3.520499891,3.978652,3.0815,3.303786903
1215,283,25,-12.78675406,-4.912471,-6.586419,-5.962467265
1216,283,29,-13.10395767,-5.543513,-6.547995,-6.279670875
1217,284,2,-5.035627146,3.69234,0.392816,1.744757473
1218,284,5,6.073448734,8.405348,11.155186,12.85383335
1219,284,6,-6.759203392,-1.68291,-1.66275,0.021181227
1220,284,12,-6.300254758,0.782779,-0.450039,0.480129861
1221,284,19,-3.496156573,3.827335,3.091671,3.284228046
1222,284,25,-12.77935024,-2.51834,-6.63325,-5.998965626
1223,284,29,-13.1043954,-3.694261,-6.588317,-6.324010785
1224,285,2,-4.984429692,1.738529,0.401406,1.681275438
1225,285,5,6.276549437,9.748865,11.227285,12.94225457
1226,285,6,-6.61796741,-3.1464,-1.65543,0.047737721
1227,285,12,-6.245227816,-2.172665,-0.451494,0.420477315
1228,285,19,-3.380746255,2.591198,3.135149,3.284958875
1229,285,25,-12.83157903,-3.990953,-6.67913,-6.165873898
1230,285,29,-13.10993687,-5.362246,-6.648385,-6.44423174
1231,286,2,-5.034742395,-1.094572,0.4187,1.70575877
1232,286,5,6.110972491,6.456979,11.257091,12.85147366
1233,286,6,-6.771082277,-2.777366,-1.643536,-0.030581113
1234,286,12,-6.298617411,-1.53632,-0.435053,0.441883753
1235,286,19,-3.441655295,4.952545,3.154012,3.298845869
1236,286,24,-0.55694992,-1.16652,5.680307,6.183551244
1237,286,25,-12.83372734,-10.434059,-6.680774,-6.093226177
1238,286,29,-13.14079649,-4.720445,-6.6617,-6.400295329
1239,287,2,-5.051580477,0.314991,0.483444,1.787865043
1240,287,5,6.129496159,11.882092,11.24624,12.96894168
1241,287,6,-6.824602502,-2.932383,-1.622649,0.014843018
1242,287,12,-6.26951458,-5.35595,-0.345733,0.56993094
1243,287,19,-3.524813721,3.486227,3.117331,3.314631798
1244,287,25,-12.84448859,-8.339914,-6.576268,-6.005043076
1245,287,29,-13.15492263,-8.654965,-6.564301,-6.315477114
1246,288,2,-5.04421682,1.127922,0.497848,1.660923234
1247,288,5,6.266992093,9.353702,11.115293,12.97213215
1248,288,6,-6.741214648,-5.763177,-1.615238,-0.036074593
1249,288,12,-6.272307225,-1.729674,-0.302708,0.43283283
1250,288,19,-3.452220711,4.230397,3.044235,3.252919343
1251,288,24,-0.487067918,7.014436,5.713289,6.218072137
1252,288,25,-12.90625095,-3.648307,-6.453458,-6.201110893
1253,288,29,-13.12199076,-7.262962,-6.432573,-6.416850706
1254,289,2,-4.700905036,-2.492822,0.371365,2.557401769
1255,289,5,6.478052463,8.619664,10.820376,13.73635927
1256,289,6,-6.475634176,-7.583888,-1.642434,0.782672629
1257,289,12,-5.808947977,-5.635606,-0.421445,1.449358828
1258,289,19,-3.702451177,0.188965,2.968137,3.555855629
1259,289,25,-13.09736431,-8.711732,-6.416704,-5.839057508
1260,289,29,-13.2045433,-5.434233,-6.363226,-5.94623649
1261,290,2,-4.649315662,4.393434,0.289869,2.565882229
1262,290,5,6.270092432,15.072755,10.64452,13.48529032
1263,290,6,-6.468796931,-0.081375,-1.639739,0.746400961
1264,290,12,-5.835244149,-0.91776,-0.511069,1.379953742
1265,290,19,-3.712849041,2.937466,2.958916,3.502348851
1266,290,25,-13.05103277,-7.113261,-6.420702,-5.83583488
1267,290,29,-13.1364478,-4.416363,-6.363188,-5.92124991
1268,291,2,-4.600595577,2.288332,0.338904,2.520090337
1269,291,5,6.519514435,7.710143,10.684167,13.64020035
1270,291,6,-6.389522944,-2.81593,-1.606891,0.73116297
1271,291,12,-5.720461218,1.9701,-0.460977,1.400224696
1272,291,19,-3.674305505,7.580359,2.984201,3.446380409
1273,291,25,-12.9986458,-6.781931,-6.393034,-5.877959885
1274,291,29,-13.12417685,-6.688066,-6.359027,-6.00349094
1275,292,2,-4.626405569,0.480962,0.339845,2.575439848
1276,292,5,6.497746877,10.314097,10.760778,13.69959229
1277,292,6,-6.450961238,-2.219579,-1.646303,0.750884178
1278,292,12,-5.711840621,-4.74485,-0.448161,1.490004795
1279,292,19,-3.68799635,3.604303,2.964585,3.513849067
1280,292,25,-12.98899701,-6.137187,-6.415955,-5.787151595
1281,292,29,-13.1506759,-7.921271,-6.363654,-5.948830481
1282,293,2,-4.628598033,-1.861692,0.377116,2.552745523
1283,293,5,6.399937728,9.203277,10.813191,13.58128128
1284,293,6,-6.512515232,-0.320041,-1.628418,0.668828324
1285,293,12,-5.738409742,-3.966753,-0.409338,1.442933814
1286,293,19,-3.70973991,1.812575,2.985185,3.471603646
1287,293,25,-12.97309401,-3.650168,-6.405831,-5.791750454
1288,293,29,-13.09515029,-8.545892,-6.369239,-5.913806729
1289,294,2,-4.603041838,3.106289,0.325805,2.557690783
1290,294,5,6.496173346,8.509068,10.702156,13.65690597
1291,294,6,-6.446811781,-3.630598,-1.650865,0.71392084
1292,294,12,-5.711306914,-2.190116,-0.451179,1.449425707
1293,294,19,-3.668614098,5.957697,2.941792,3.492118523
1294,294,25,-12.93506906,-8.151702,-6.387007,-5.774336438
1295,294,29,-13.09401747,-4.992547,-6.330935,-5.933284854
1296,295,2,-4.630219451,-0.036426,0.340911,2.571601912
1297,295,5,6.249051751,6.135097,10.610707,13.45087311
1298,295,6,-6.611538201,-3.68057,-1.633925,0.590283162
1299,295,12,-5.749604236,-3.471186,-0.419728,1.452217127
1300,295,19,-3.749263504,3.811852,2.904374,3.452557859
1301,295,25,-12.94233568,-7.024036,-6.302123,-5.740514319
1302,295,29,-13.01253118,-5.613814,-6.248135,-5.81070982
1303,296,2,-4.566722065,-0.549907,0.341865,2.613398762
1304,296,5,6.314912414,12.061688,10.5239,13.49503324
1305,296,6,-6.494359481,-6.217779,-1.605308,0.685761346
1306,296,12,-5.715286684,1.116499,-0.416878,1.464834143
1307,296,19,-3.657573977,2.36119,2.901919,3.52254685
1308,296,25,-12.90722001,-4.65108,-6.255303,-5.727099184
1309,296,29,-13.00640015,-7.928397,-6.214344,-5.826279327
1310,297,2,-4.544892638,-0.38105,0.360172,2.624806286
1311,297,5,6.479592985,7.276141,10.420465,13.64929191
1312,297,6,-6.44137503,-1.199718,-1.564162,0.728323894
1313,297,12,-5.674282209,4.234781,-0.39239,1.495416715
1314,297,19,-3.63212766,4.421551,2.892613,3.537571264
1315,297,25,-12.85203054,-3.578694,-6.17618,-5.682331618
1316,297,29,-13.00545807,-6.685014,-6.153054,-5.835759148
1317,298,2,-4.612590696,0.825203,0.256662,2.509754948
1318,298,5,6.412789217,6.899333,10.304924,13.53513486
1319,298,6,-6.57470655,-5.03526,-1.655864,0.547639094
1320,298,12,-5.681037253,-1.866252,-0.472193,1.441308391
1321,298,19,-3.686112863,5.348962,2.79041,3.436232781
1322,298,25,-12.85362049,-8.553303,-6.185376,-5.731274846
1323,298,29,-12.98881241,-5.703218,-6.099016,-5.866466767
1324,299,2,-4.607909333,1.966388,0.24427,2.389399751
1325,299,5,6.25876635,8.710482,10.268398,13.25607543
1326,299,6,-6.622759007,-2.244335,-1.652869,0.374550077
1327,299,12,-5.689471013,-0.628524,-0.483589,1.307838071
1328,299,19,-3.692649559,4.943899,2.788645,3.304659525
1329,299,25,-12.83126448,-5.693533,-6.179163,-5.8339554
1330,299,29,-12.93807504,-5.627893,-6.094586,-5.940765955
1331,300,2,-4.540077815,0.238094,0.256396,2.258394448
1332,300,5,6.447058254,9.770327,10.248114,13.24553052
1333,300,6,-6.460686145,-0.238619,-1.607247,0.337786118
1334,300,12,-5.663947628,0.678901,-0.485458,1.134524635
1335,300,19,-3.567966599,4.716393,2.838004,3.230505664
1336,300,25,-12.78478163,-7.561933,-6.179487,-5.98630937
1337,300,29,-12.96424131,-6.964965,-6.12607,-6.165769048
1338,301,2,-4.471049148,2.893888,0.243942,2.300648926
1339,301,5,6.632515472,7.787549,10.196451,13.40421355
1340,301,6,-6.314499179,-0.764156,-1.60258,0.457198895
1341,301,12,-5.601584326,-0.51778,-0.495307,1.170113748
1342,301,19,-3.441934291,3.75874,2.830614,3.329763783
1343,301,25,-12.71599671,-4.399227,-6.163033,-5.944298638
1344,301,29,-13.00637573,-3.426077,-6.110887,-6.234677661
1345,302,2,-4.54149722,-1.084056,0.193292,2.089377807
1346,302,5,6.329511189,5.919648,10.091719,12.96038622
1347,302,6,-6.482960987,-4.609189,-1.599141,0.147914039
1348,302,12,-5.67322448,-5.649344,-0.552289,0.957650546
1349,302,19,-3.543027981,4.361706,2.83043,3.087847046
1350,302,25,-12.75258649,-6.958143,-6.170309,-6.12171146
1351,302,29,-12.84775121,-6.40902,-6.117828,-6.216876179
1352,303,2,-4.615530164,1.732543,0.178319,2.147491384
1353,303,5,6.180982007,4.489931,10.039784,12.94400355
1354,303,6,-6.628562039,-3.205752,-1.646497,0.134459508
1355,303,12,-5.677127143,-1.950919,-0.536315,1.085894405
1356,303,19,-3.660369879,6.748782,2.74391,3.102651668
1357,303,25,-12.76018122,-7.349735,-6.11374,-5.997159668
1358,303,29,-12.81603553,-3.556681,-6.025034,-6.053013981
1359,304,2,-4.651979395,3.9733,0.255391,2.226758713
1360,304,5,6.140247672,8.033249,10.040055,13.01898578
1361,304,6,-6.689955474,-2.029548,-1.658361,0.188782634
1362,304,12,-5.641093385,1.071638,-0.412176,1.237644723
1363,304,19,-3.717022328,6.988508,2.649482,3.16171578
1364,304,25,-12.73433723,-4.950829,-5.968716,-5.855599119
1365,304,29,-12.76874085,-4.228153,-5.86273,-5.890002745
1366,305,2,-4.634931214,3.471219,0.304081,2.12956224
1367,305,5,6.513314465,8.092542,10.003858,13.27780792
1368,305,6,-6.614147875,-2.347613,-1.654911,0.150345579
1369,305,12,-5.600999125,-1.102209,-0.332809,1.163494329
1370,305,19,-3.645131155,4.033818,2.587439,3.119362299
1371,305,25,-12.6921897,-2.696597,-5.857447,-5.927696251
1372,305,29,-12.9029155,-3.84973,-5.745106,-6.138422048
1373,306,2,-4.612005121,-2.844715,0.257466,2.221403289
1374,306,5,6.367361286,10.607864,9.88469,13.2007697
1375,306,6,-6.605217609,-7.823165,-1.676801,0.228190801
1376,306,12,-5.587712626,-6.796162,-0.366978,1.245695784
1377,306,19,-3.625221954,2.059995,2.535582,3.208186456
1378,306,25,-12.65868174,-10.626501,-5.824998,-5.825273326
1379,306,29,-12.84630963,-8.202834,-5.691666,-6.012901218
1380,307,2,-4.609932943,5.319368,0.327556,2.351693823
1381,307,5,6.38970209,9.573358,9.830603,13.35132886
1382,307,6,-6.607750516,-0.046502,-1.629952,0.35387625
1383,307,12,-5.576309327,0.4779,-0.277338,1.385317439
1384,307,19,-3.633080282,6.574916,2.510245,3.328546484
1385,307,25,-12.63003659,-3.62629,-5.699734,-5.668409827
1386,307,29,-12.78538194,-5.083128,-5.586517,-5.823755175
1387,308,2,-4.626591172,-3.485014,0.381902,2.326356317
1388,308,5,6.503042723,7.132951,9.758286,13.45599021
1389,308,6,-6.633086687,-3.242624,-1.593373,0.319860802
1390,308,12,-5.52363263,-6.003013,-0.202245,1.429314859
1391,308,19,-3.644783255,-0.008011,2.474563,3.308164234
1392,308,25,-12.59582599,-8.068797,-5.578795,-5.642878501
1393,308,29,-12.81306101,-5.874919,-5.478328,-5.860113524
1394,309,2,-4.646748036,-2.191037,0.337161,2.313410082
1395,309,5,6.376984929,9.367559,9.626927,13.33714305
1396,309,6,-6.635499948,-6.179127,-1.612948,0.32465817
1397,309,12,-5.596052806,-3.355669,-0.232965,1.364105312
1398,309,19,-3.649865817,2.243419,2.417707,3.310292301
1399,309,25,-12.61556428,-9.201653,-5.535674,-5.655406157
1400,309,29,-12.76303534,-6.923202,-5.414153,-5.802877224
1401,310,2,-4.669579518,1.430241,0.341226,2.292956439
1402,310,5,6.078432803,11.1831,9.533494,13.04096876
1403,310,6,-6.658265607,-2.928917,-1.598933,0.304270351
1404,310,12,-5.670632444,-1.43898,-0.216535,1.291903514
1405,310,19,-3.672225615,2.759817,2.385386,3.290310343
1406,310,25,-12.62587413,-4.288045,-5.466211,-5.66333817
1407,310,29,-12.66968471,-6.376218,-5.345536,-5.70714875
1408,311,2,-4.612942424,4.898553,0.396011,2.269490778
1409,311,5,6.336338691,7.750615,9.472888,13.21877189
1410,311,6,-6.575728093,-2.232557,-1.548225,0.306705108
1411,311,12,-5.602536391,-0.020516,-0.150976,1.27989681
1412,311,19,-3.57396419,3.865284,2.377745,3.308469012
1413,311,25,-12.58509946,-3.262134,-5.365739,-5.702666253
1414,311,29,-12.72331578,-1.820129,-5.26923,-5.840882577
1415,312,2,-4.679909487,1.266805,0.446267,2.234288861
1416,312,5,6.232029868,6.473621,9.467259,13.14622822
1417,312,6,-6.669627466,-1.453925,-1.513828,0.244570882
1418,312,12,-5.635936803,-2.77306,-0.092332,1.278261545
1419,312,19,-3.674547561,3.727517,2.379248,3.239650787
1420,312,25,-12.58821886,-3.822916,-5.30199,-5.674020511
1421,312,29,-12.66289978,-5.404949,-5.224702,-5.748701428
1422,313,2,-4.747831331,2.205544,0.559768,2.86266329
1423,313,5,4.959902288,13.509259,9.594495,12.57039691
1424,313,6,-6.776410183,-6.565541,-1.42534,0.834084439
1425,313,12,-5.898031426,0.786777,0.007127,1.712463196
1426,313,19,-3.799548802,4.389674,2.475064,3.810945819
1427,313,25,-12.70413987,-6.177653,-5.278161,-5.09364525
1428,313,29,-13.08426595,-7.442769,-5.265744,-5.473771327
1429,314,2,-4.507439159,-5.060606,1.179315,2.604598126
1430,314,5,5.516788104,5.031985,10.067437,12.62882539
1431,314,6,-6.591533422,-9.349395,-0.90887,0.520503863
1432,314,12,-5.636345208,-5.951373,0.558847,1.475692077
1433,314,19,-3.511534552,-3.148539,2.924195,3.600502733
1434,314,24,-0.402640239,18.016044,5.297919,6.709397046
1435,314,25,-12.41673694,-11.560427,-5.011365,-5.30469965
1436,314,29,-12.84156888,-3.460021,-5.343776,-5.729531597
1437,315,2,-4.684968988,-3.274369,1.975051,1.588655631
1438,315,5,5.890687823,3.059927,10.487833,12.16431244
1439,315,6,-6.690776074,-4.533402,-0.172551,-0.417151455
1440,315,12,-5.679191767,-8.754758,1.257165,0.594432852
1441,315,19,-3.607533549,0.790729,3.512274,2.666091071
1442,315,25,-12.54092028,-9.90434,-4.585779,-6.267295661
1443,315,29,-12.64140306,-4.964781,-5.391986,-6.367778446
1444,316,2,-4.646078941,13.619301,2.292111,1.765775582
1445,316,5,6.088624666,15.127156,10.62964,12.50047919
1446,316,6,-6.609285952,4.619185,0.131591,-0.197431429
1447,316,12,-5.704001886,6.206683,1.535027,0.707852637
1448,316,19,-3.496893979,12.300226,3.749902,2.914960545
1449,316,25,-12.57992659,1.598438,-4.404235,-6.168072072
1450,316,29,-12.5714269,6.414299,-5.405197,-6.159572381
1451,317,2,-4.594205731,4.126857,2.074865,1.385175922
1452,317,5,6.45748485,12.60532,10.820769,12.4368665
1453,317,6,-6.545643012,-0.284813,-0.068376,-0.566261359
1454,317,12,-5.625922578,3.814014,1.294589,0.353459074
1455,317,19,-3.402538869,6.371448,3.760361,2.576842784
1456,317,25,-12.49754202,0.376091,-4.756885,-6.518160363
1457,317,29,-12.5663264,-7.702872,-5.66678,-6.586944748
1458,318,2,-4.596842126,4.939925,2.034746,1.553556595
1459,318,5,6.401289931,11.4692,10.887954,12.55168865
1460,318,6,-6.537703685,-2.065139,-0.089624,-0.387304965
1461,318,12,-5.646005637,2.719469,1.237742,0.504393083
1462,318,19,-3.411696545,3.772168,3.805223,2.738702176
1463,318,25,-12.49316223,-1.429567,-4.85866,-6.342763508
1464,318,29,-12.59815833,-2.227615,-5.768328,-6.447759612
1465,319,2,-4.609833262,2.923202,2.020203,1.314879648
1466,319,5,6.48380892,8.490741,10.994522,12.40852183
1467,319,6,-6.551361738,2.051942,-0.105902,-0.626648828
1468,319,12,-5.712922688,-0.591177,1.209594,0.211790223
1469,319,19,-3.408904117,2.510551,3.853917,2.515808793
1470,319,25,-12.46385908,-6.454307,-4.950918,-6.539146165
1471,319,29,-12.60893374,-4.097993,-5.86502,-6.68422083
1472,320,2,-4.564285327,-2.168909,1.940154,1.363610641
1473,320,5,6.391094941,6.988827,11.072037,12.31899091
1474,320,6,-6.421083051,-5.86756,-0.187054,-0.493187083
1475,320,12,-5.735325955,-4.858306,1.125692,0.192570012
1476,320,19,-3.342604611,-0.116826,3.850709,2.585291356
1477,320,25,-12.39359519,-12.288941,-5.078752,-6.465699223
1478,320,29,-12.60030414,-3.082116,-5.956043,-6.672408175
1479,321,2,-4.628348127,1.888344,1.805664,1.006041841
1480,321,5,6.478738383,13.46886,11.044298,12.11312835
1481,321,6,-6.560022797,-4.265141,-0.219271,-0.925632829
1482,321,12,-5.705831452,-0.618627,0.950358,-0.071441485
1483,321,19,-3.362023508,4.598165,3.920796,2.27236646
1484,321,24,0.286849847,4.930879,5.262308,5.921239814
1485,321,25,-12.44687235,-7.653736,-5.261085,-6.812482386
1486,321,29,-12.60360128,-3.897583,-6.132167,-6.969211312
1487,322,2,-4.676660541,1.260511,1.690203,1.505837652
1488,322,5,6.472817311,12.383051,10.870196,12.6553155
1489,322,6,-6.631322589,-3.970784,-0.204203,-0.448824397
1490,322,12,-5.705095539,0.099551,0.801145,0.477402654
1491,322,19,-3.513518713,2.876639,3.965368,2.66897948
1492,322,25,-12.45135528,-7.927612,-5.337186,-6.268857091
1493,322,29,-12.59387556,-4.1955,-6.216654,-6.411377366
1494,323,2,-4.825607971,1.441947,1.717059,1.997279682
1495,323,5,5.915198212,12.248722,10.824419,12.73808587
1496,323,6,-6.842781381,-5.312762,-0.191506,-0.019893728
1497,323,12,-5.776217085,-2.012795,0.844108,1.046670569
1498,323,19,-3.778039015,4.097031,3.934228,3.044848638
1499,323,25,-12.53355211,-6.873233,-5.26405,-5.710664454
1500,323,29,-12.53752267,-7.00909,-6.145666,-5.714635021
1501,324,2,-4.840621796,2.273883,1.887063,1.416676755
1502,324,5,6.107001588,17.132382,10.895234,12.36430014
1503,324,6,-6.854696632,-0.561445,-0.117349,-0.59739808
1504,324,12,-5.717879425,0.373519,1.046006,0.539419126
1505,324,19,-3.749605773,0.731083,3.920027,2.507692779
1506,324,25,-12.50645394,-5.576562,-5.085597,-6.249155389
1507,324,29,-12.51049659,-8.037918,-6.007793,-6.253198036
1508,325,2,-4.714912198,-3.286005,2.132748,1.995301601
1509,325,5,6.331251225,8.556124,11.006921,13.04146502
1510,325,6,-6.671817041,-6.381024,-0.017848,0.038396758
1511,325,12,-5.707016889,-0.388209,1.339578,1.00319691
1512,325,19,-3.598260131,1.296948,3.892156,3.111953669
1513,325,24,0.023176034,6.496615,5.373151,6.733389834
1514,325,25,-12.44922687,-7.170062,-4.829135,-5.73901307
1515,325,29,-12.58473785,-6.816342,-5.804716,-5.874524046
1516,326,2,-4.967432394,1.970377,2.110756,2.22923695
1517,326,5,4.10440483,8.632402,10.86298,11.30107417
1518,326,6,-5.897671194,-5.557529,-0.012301,1.29899815
1519,326,12,-6.445817437,-2.046443,1.330187,0.750851907
1520,326,19,-3.690227102,4.703309,3.844697,3.506442242
1521,326,24,-1.831916754,-7.781675,5.303142,5.36475259
1522,326,25,-12.38296627,-3.405423,-4.758404,-5.186296922
1523,326,29,-12.65293189,-4.946595,-5.726196,-5.456262546
1524,327,2,-4.470755117,7.353555,1.779656,2.319161942
1525,327,5,4.815331076,12.369295,10.249508,11.60524814
1526,327,12,-5.759791358,9.539282,0.65683,1.030125701
1527,327,19,-3.170794518,10.76235,4.615599,3.619122541
1528,327,24,-1.210481038,0.970424,3.931115,5.579436021
1529,327,25,-11.88145537,-5.725611,-5.27956,-5.091538314
1530,327,29,-12.58706166,-5.208333,-6.579677,-5.797144604
1531,328,2,-5.712536424,5.307366,1.507732,1.319035372
1532,328,5,5.002441203,6.912307,9.820385,12.034013
1533,328,6,-7.982064769,5.612437,0.306391,-0.950492974
1534,328,12,-6.475395322,3.437908,0.426278,0.556176473
1535,328,19,-4.843496817,9.886164,4.375799,2.188074979
1536,328,24,-0.012619457,-0.241405,3.754049,7.018952339
1537,328,25,-12.82171518,0.832153,-5.265542,-5.790143386
1538,328,29,-12.34839313,-7.669739,-6.426613,-5.316821336
1539,329,2,-4.930235656,2.019646,1.515162,1.734845816
1540,329,5,6.249768305,5.205423,9.744334,12.91484978
1541,329,6,-6.96821508,-2.458049,-0.629078,-0.303133609
1542,329,12,-5.726374025,2.60929,0.989039,0.938707446
1543,329,19,-3.85990613,2.217122,2.863192,2.805175341
1544,329,24,0.138758858,-10.720118,5.241327,6.803840329
1545,329,25,-12.47637588,0.552047,-4.390822,-5.811294412
1546,329,29,-12.52948804,-1.024847,-4.870179,-5.864406566
1547,330,2,-5.194221324,2.730723,1.252048,1.800122974
1548,330,5,4.279822738,12.787599,9.51916,11.27416704
1549,330,6,-6.351215473,-4.400532,-0.726805,0.643128824
1550,330,12,-6.53063014,-2.64136,0.691924,0.463714158
1551,330,19,-3.866872389,1.675802,2.850849,3.127471909
1552,330,24,-1.383733499,23.994355,4.995908,5.610610799
1553,330,25,-12.45412018,-4.77279,-4.587678,-5.459775885
1554,330,29,-12.53434781,-5.968005,-5.007652,-5.540003515
1555,331,2,-4.726856129,0.368347,0.980353,1.576751849
1556,331,5,6.073684677,9.526791,9.35996,12.37729266
1557,331,6,-6.570418253,-2.248666,-0.783738,-0.266810274
1558,331,12,-5.920118152,-3.507388,0.347422,0.383489826
1559,331,19,-3.367127837,3.477864,2.947293,2.936480141
1560,331,24,0.302571435,-6.959182,4.68902,6.606179414
1561,331,25,-12.38083319,-8.115952,-4.885703,-6.07722521
1562,331,29,-12.55279891,-4.985449,-5.284421,-6.249190929
1563,332,2,-4.911038031,1.129548,0.78506,1.335567368
1564,332,5,5.883116678,4.897898,9.27315,12.12972208
1565,332,6,-6.900819279,-0.51413,-0.854648,-0.65421388
1566,332,12,-5.803374426,-1.867191,0.112944,0.443230973
1567,332,19,-3.755896849,0.994015,2.985177,2.49070855
1568,332,24,-0.263812795,16.241527,4.522971,5.982792604
1569,332,25,-12.50519587,-4.374136,-5.09529,-6.258590468
1570,332,29,-12.50515204,-3.999249,-5.460817,-6.258546643
1571,333,2,-4.829695933,2.859864,0.852613,1.034869787
1572,333,5,5.748600648,10.783252,9.368434,11.61316637
1573,333,6,-6.487256933,-0.505125,-0.871017,-0.622691212
1574,333,12,-6.102903782,2.209273,0.209504,-0.238338061
1575,333,19,-3.197639659,0.373056,2.945334,2.666926062
1576,333,25,-12.37967626,-1.12528,-5.036215,-6.515110543
1577,333,29,-12.53721347,-3.437486,-5.393788,-6.672647751
1578,334,2,-4.6876215,-3.722585,0.718347,0.907089582
1579,334,5,6.266483825,3.491566,9.306719,11.86119491
1580,334,6,-6.303916887,-7.869482,-0.891408,-0.709205805
1581,334,12,-5.988062784,-9.816892,0.032989,-0.393351702
1582,334,19,-3.107191135,4.364916,3.014966,2.487519947
1583,334,25,-12.32090647,-6.710262,-5.202614,-6.72619539
1584,334,29,-12.59440841,-7.164644,-5.558031,-6.999697324
1585,335,2,-4.970590727,5.886737,0.540022,1.076792898
1586,335,5,6.544302656,13.534446,9.201102,12.59168628
1587,335,6,-6.122483344,-1.727227,-0.922047,-0.075099719
1588,335,12,-6.099890103,3.892501,-0.196204,-0.052506479
1589,335,19,-3.542283007,5.383787,3.088525,2.505100617
1590,335,25,-12.8412181,-1.43619,-5.402826,-6.793834474
1591,335,29,-13.25968418,-4.468308,-5.749422,-7.212300554
1592,336,2,-5.034225907,2.760678,0.438635,1.318168052
1593,336,5,6.575704377,9.058123,9.092276,12.92809834
1594,336,6,-6.361825992,-2.273609,-0.942859,-0.009432033
1595,336,12,-6.143828361,-0.83623,-0.315565,0.208565598
1596,336,19,-3.561110817,5.422135,3.098564,2.791283141
1597,336,25,-12.83922385,-4.699712,-5.475345,-6.486829888
1598,336,29,-13.26403661,-5.42917,-5.809439,-6.911642655
1599,337,2,-4.984164711,5.120636,0.247403,1.588440942
1600,337,5,6.625834812,9.59616,8.862615,13.19844046
1601,337,6,-6.368620759,-0.327538,-0.985373,0.203984894
1602,337,12,-6.131496411,-1.359671,-0.536699,0.441109241
1603,337,19,-3.562401349,4.781091,3.098063,3.010204304
1604,337,25,-12.82563578,-0.497032,-5.591856,-6.253030124
1605,337,29,-13.26744883,-5.194549,-5.895589,-6.694843176
1606,338,2,-4.873172892,1.634164,0.257125,1.729346563
1607,338,5,6.46449527,6.623097,8.754449,13.06701473
1608,338,6,-6.307450527,0.24909,-0.903446,0.295068929
1609,338,12,-6.149131256,-1.445813,-0.54934,0.4533882
1610,338,19,-3.448684793,3.197383,3.157819,3.153834663
1611,338,25,-12.80228477,-3.173129,-5.560043,-6.199765319
1612,338,29,-13.32466943,-4.630246,-5.910141,-6.722149979
1613,339,2,-4.871389109,6.765984,0.368755,2.228629458
1614,339,5,5.674154924,11.383566,8.784284,12.77417349
1615,339,6,-6.578388653,0.970974,-0.758104,0.521629914
1616,339,12,-6.323839124,-0.163901,-0.469112,0.776179444
1617,339,19,-3.570038876,4.90543,3.290742,3.529979691
1618,339,25,-12.91755121,-0.929337,-5.512421,-5.817532644
1619,339,29,-13.40467744,-4.050405,-5.95703,-6.304658873
1620,340,2,-4.685918016,8.658649,0.481014,2.14914473
1621,340,5,6.245538123,12.845858,8.894442,13.08060087
1622,340,6,-6.119938921,3.181102,-0.656988,0.715123826
1623,340,12,-6.194459104,4.833658,-0.375807,0.640603642
1624,340,19,-3.204753567,6.683005,3.398139,3.630309179
1625,340,25,-12.74232335,-1.570208,-5.487944,-5.907260604
1626,340,29,-13.39856169,-2.57508,-6.004726,-6.563498941
1627,341,2,-4.567446723,5.744246,0.522775,1.911554018
1628,341,5,6.78979893,9.832336,9.002745,13.26879967
1629,341,6,-5.715984817,2.026951,-0.612851,0.763015925
1630,341,12,-6.09594121,3.536191,-0.354742,0.383059532
1631,341,19,-2.874348888,6.887073,3.48605,3.604651854
1632,341,25,-12.66593525,-2.094538,-5.53567,-6.18693451
1633,341,29,-13.38703784,-4.72383,-6.092946,-6.908037102
1634,342,2,-4.580619377,2.765712,0.515576,1.634929701
1635,342,5,6.369428377,10.226856,9.049809,12.58497746
1636,342,6,-5.707835369,-1.331746,-0.556284,0.507713709
1637,342,12,-6.138971404,-0.189565,-0.403887,0.076577674
1638,342,19,-2.805366301,7.799586,3.608716,3.410182777
1639,342,25,-12.66117283,-10.326119,-5.631785,-6.445623748
1640,342,29,-13.45611279,-3.33494,-6.237744,-7.240563715
1641,343,2,-4.502478716,7.638297,0.561818,1.341212198
1642,343,5,6.164240319,9.117518,9.080546,12.00793123
1643,343,6,-5.602404426,-2.903797,-0.433129,0.241286488
1644,343,12,-6.145348206,0.714292,-0.408832,-0.301657292
1645,343,19,-2.684751302,11.643479,3.772968,3.158939611
1646,343,24,-0.734934905,6.169548,3.520516,5.108756009
1647,343,25,-12.62498281,-0.851706,-5.679512,-6.781291894
1648,343,29,-13.4354239,-2.037244,-6.372825,-7.591732983
1649,344,2,-4.239919747,2.652617,0.726769,1.206480718
1650,344,5,6.430347251,8.32318,9.199397,11.87674772
1651,344,6,-5.181359497,-1.884762,-0.267199,0.265040968
1652,344,12,-6.06219996,0.823062,-0.275503,-0.615799495
1653,344,19,-2.323400867,4.217984,3.933743,3.122999598
1654,344,24,-0.921158694,3.808527,3.503403,4.525241771
1655,344,25,-12.48974397,-0.093179,-5.625681,-7.043343503
1656,344,29,-13.46333038,-3.20162,-6.431673,-8.01692992
1657,345,2,-4.233069474,5.88426,0.92934,1.320319753
1658,345,5,6.512652119,12.997134,9.345873,12.06604135
1659,345,6,-4.942251483,1.587346,-0.023625,0.611137745
1660,345,12,-6.036445768,2.91042,-0.135261,-0.483056541
1661,345,19,-2.105724357,6.939049,4.193525,3.44766487
1662,345,24,-1.021124984,5.737364,3.418665,4.532264243
1663,345,25,-12.45189006,3.1109,-5.594458,-6.898500836
1664,345,29,-13.48385441,-9.811815,-6.567046,-7.930465178
1665,346,2,-4.313675349,7.11008,1.009463,1.497220797
1666,346,5,5.949785564,10.27129,9.409978,11.76068171
1667,346,6,-5.085291317,-1.294175,0.138707,0.72560483
1668,346,12,-6.15341569,1.586922,-0.117697,-0.342519544
1669,346,19,-2.148938712,5.050148,4.403499,3.661957434
1670,346,24,-1.31682245,11.510667,3.281849,4.494073696
1671,346,25,-12.43599057,-6.510125,-5.642714,-6.625094426
1672,346,29,-13.58939191,-1.388308,-6.730122,-7.77849576
1673,347,2,-3.894615224,7.18565,1.168724,0.854524556
1674,347,5,6.764517792,16.054664,9.505801,11.51365757
1675,347,6,-4.230820822,-1.27082,0.270339,0.518318959
1676,347,12,-5.913907497,3.726652,0.030698,-1.164767717
1677,347,19,-1.44094857,7.211293,4.503572,3.308191211
1678,347,24,-1.314045554,14.492387,3.306449,3.435094227
1679,347,25,-12.1353706,0.652806,-5.551394,-7.386230819
1680,347,29,-13.55041787,-7.393776,-6.724916,-8.801278093
1681,348,2,-3.919633274,2.414003,1.294993,0.921865714
1682,348,5,6.886919372,9.215759,9.58253,11.72841836
1683,348,6,-4.060447873,-0.786205,0.405126,0.781051115
1684,348,12,-5.878796104,-1.320505,0.131071,-1.037297117
1685,348,19,-1.296208068,6.773166,4.631118,3.545290919
1686,348,24,-1.321627981,2.22913,3.277729,3.519871007
1687,348,25,-12.11909005,-5.510062,-5.505401,-7.277591065
1688,348,29,-13.56141632,-6.9995,-6.769388,-8.719917337
1689,349,2,-3.857584443,-1.136224,1.350743,1.438986501
1690,349,5,6.299293319,6.363175,9.643684,11.59586426
1691,349,6,-4.017215242,-2.294129,0.500735,1.279355702
1692,349,12,-5.876850612,-5.342857,0.151162,-0.580279668
1693,349,19,-1.15976438,-3.162778,4.759501,4.136806564
1694,349,24,-1.626545805,11.112998,3.214241,3.670025139
1695,349,25,-11.98954781,-10.560922,-5.536398,-6.692976864
1696,349,29,-13.75564433,-7.020083,-6.870276,-8.459073386
1697,350,2,-3.639772186,7.687643,1.437248,1.310692056
1698,350,5,6.725681855,14.12174,9.664416,11.6761461
1699,350,6,-3.649685489,2.538308,0.604519,1.300778753
1700,350,12,-5.695052266,4.235157,0.219135,-0.744588025
1701,350,19,-0.814090854,8.479926,4.847463,4.136373388
1702,350,24,-1.582302273,8.697297,3.169224,3.368161969
1703,350,25,-11.72256013,2.634742,-5.489629,-6.772095891
1704,350,29,-13.75157524,-7.208765,-6.890326,-8.801110998
1705,351,2,-3.40198563,4.868799,1.396036,1.219938358
1706,351,5,6.588171513,11.598478,9.547497,11.2100955
1707,351,6,-2.952599994,-0.777156,0.666012,1.669323994
1708,351,12,-5.665740649,-0.461776,0.143005,-1.043816661
1709,351,19,-0.213038878,-0.610061,4.921278,4.40888511
1710,351,24,-1.757862348,7.641624,2.990398,2.86406164
1711,351,25,-11.57433339,-4.380572,-5.52244,-6.952409397
1712,351,29,-13.85149366,-1.894357,-6.960038,-9.229569675
1713,352,2,-3.348757876,6.424425,1.435267,1.141256036
1714,352,5,6.509046141,11.880594,9.45945,10.99906005
1715,352,6,-2.700370735,2.701038,0.777715,1.789643178
1716,352,12,-5.622569901,2.884655,0.153372,-1.132555988
1717,352,19,0.012547579,9.749713,5.008864,4.502561491
1718,352,24,-1.880915932,6.016881,2.844865,2.60909798
1719,352,25,-11.52764942,-9.715614,-5.480766,-7.037635513
1720,352,29,-13.86913018,-5.779114,-6.983941,-9.379116263
1721,353,2,-3.27436222,4.528789,1.418435,1.011486613
1722,353,5,6.449352902,7.271937,9.322676,10.73520174
1723,353,6,-2.511245273,1.790712,0.819578,1.774603561
1724,353,12,-5.58599609,0.990855,0.128149,-1.300147257
1725,353,19,0.26024007,6.536084,5.016467,4.546088904
1726,353,24,-2.018206722,6.210589,2.725104,2.267642111
1727,353,25,-11.35558426,-9.821351,-5.439006,-7.069735423
1728,353,29,-13.99261063,-4.869527,-6.959312,-9.706761794
1729,354,2,-3.208359438,2.453611,1.368867,1.354272941
1730,354,5,6.395644219,7.666263,9.131658,10.9582766
1731,354,6,-2.623121797,2.723045,0.870852,1.939510581
1732,354,12,-5.579218119,0.981897,0.05727,-1.01658574
1733,354,19,0.368835486,5.66877,5.041598,4.931467865
1734,354,24,-2.14825681,8.30905,2.534364,2.414375569
1735,354,25,-11.09614236,-3.681475,-5.420516,-6.533509979
1736,354,29,-14.06617241,-9.269876,-6.962383,-9.503540032
1737,355,2,-3.133288333,2.077204,1.411688,1.28084379
1738,355,5,6.272694904,8.3733,9.037733,10.68682703
1739,355,6,-2.3022592,-0.47121,0.948001,2.111872924
1740,355,12,-5.686032064,-1.222118,0.093726,-1.27189994
1741,355,19,0.688998782,5.373987,5.068177,5.103130905
1742,355,24,-2.301380662,3.855896,2.44726,2.112751461
1743,355,25,-11.10209488,13.296664,-5.338461,-6.68796276
1744,355,29,-14.07046585,-7.18391,-6.919837,-9.656333724
1745,356,2,-3.137426427,0.710003,1.419256,1.505320195
1746,356,5,6.251179418,9.185772,9.012289,10.89392604
1747,356,6,-2.608280577,-0.17826,0.965884,2.034466044
1748,356,12,-5.545041036,-4.134118,0.100581,-0.902294414
1749,356,19,0.632325955,6.960883,5.075311,5.275072576
1750,356,24,-2.594866396,3.092737,2.423757,2.047880225
1751,356,25,-11.04430952,-5.870726,-5.319699,-6.401562899
1752,356,29,-14.10785852,-10.450162,-6.911123,-9.465111899
1753,357,2,-3.099174386,6.210358,1.528109,1.448735733
1754,357,5,6.285357198,4.449953,9.127626,10.83326732
1755,357,6,-2.600965224,3.022582,1.016758,1.946944894
1756,357,12,-5.576112988,1.903509,0.217,-1.028202869
1757,357,19,0.611739368,7.380558,5.110323,5.159649487
1758,357,24,-2.481296045,8.501655,2.514406,2.066614074
1759,357,25,-10.91484074,-11.645529,-5.261605,-6.36693062
1760,357,29,-14.12431533,-5.329659,-6.89034,-9.576405213
1761,358,2,-3.151090339,-1.66164,1.582871,1.561136345
1762,358,5,6.358420259,5.246921,9.26442,11.07064694
1763,358,6,-2.741615275,-1.372643,1.022166,1.970611409
1764,358,12,-5.5964881,-5.454879,0.275408,-0.884261417
1765,358,19,0.44308677,1.42535,5.140405,5.155313453
1766,358,24,-2.405668896,0.586804,2.61085,2.306557787
1767,358,25,-11.02417803,-5.272075,-5.275097,-6.311951344
1768,358,29,-14.14190341,-6.871108,-6.918436,-9.429676725
1769,359,2,-3.223120274,-0.910326,1.592265,2.010301548
1770,359,5,6.20671337,0.153781,9.34805,11.44013519
1771,359,6,-2.925437332,-2.735298,1.027945,2.30798449
1772,359,12,-5.552745992,-3.939125,0.274384,-0.31932417
1773,359,19,0.2903301,6.634512,5.187189,5.523751922
1774,359,24,-2.732671223,9.313558,2.634297,2.5007506
1775,359,25,-11.19176598,-12.95636,-5.326881,-5.958344162
1776,359,29,-14.364801,-8.335484,-6.984638,-9.131379174
1777,360,2,-3.276954286,4.344453,1.62766,1.983190775
1778,360,5,6.202994911,4.812799,9.464649,11.46313997
1779,360,6,-2.990961607,1.678679,1.053966,2.269183454
1780,360,12,-5.565546342,-0.060353,0.295234,-0.305401281
1781,360,19,0.179223353,8.258726,5.25781,5.439368414
1782,360,24,-2.689634732,6.385301,2.667546,2.570510329
1783,360,25,-11.23345699,-6.417224,-5.376215,-5.973311926
1784,360,29,-14.36054406,-7.140185,-7.063446,-9.100398998
1785,361,2,-3.171084733,5.463632,1.713296,1.554493623
1786,361,5,6.383835561,7.860666,9.480241,11.10941392
1787,361,6,-2.455978711,2.576753,1.135279,2.269599645
1788,361,12,-5.501154101,3.013016,0.375525,-0.775575745
1789,361,19,0.538753894,3.331985,5.308518,5.26433225
1790,361,24,-2.505969806,7.997965,2.655701,2.21960855
1791,361,25,-11.15825631,-3.535862,-5.307668,-6.432677957
1792,361,29,-14.09289509,-3.540425,-7.044972,-9.367316736
1793,362,2,-3.169077953,-2.451944,1.836071,1.595892126
1794,362,5,6.385747177,4.870579,9.434863,11.15071726
1795,362,6,-2.4633297,-4.090095,1.241128,2.301640379
1796,362,12,-5.441813334,-5.961871,0.506959,-0.676843255
1797,362,19,0.555158954,5.513962,5.326509,5.320129033
1798,362,24,-2.625190884,1.841088,2.639681,2.139779195
1799,362,25,-11.34855514,-8.812093,-5.148487,-6.583585064
1800,362,29,-14.05031593,-7.465541,-6.941066,-9.28534585
1801,363,2,-3.083214901,3.105256,1.8505,1.693307576
1802,363,5,6.414336487,5.103961,9.360755,11.19085896
1803,363,6,-2.276928562,-2.411774,1.237671,2.499593915
1804,363,12,-5.515988277,-0.617462,0.544289,-0.7394658
1805,363,19,0.625799969,11.695225,5.266381,5.402322446
1806,363,24,-2.506462838,-1.796876,2.647885,2.270059639
1807,363,25,-11.32510813,-3.764649,-5.061765,-6.548585653
1808,363,29,-14.05434187,-4.580237,-6.842368,-9.27781939
1809,364,2,-3.10240463,0.876622,1.856511,1.18063769
1810,364,5,6.416171075,2.802551,9.277108,10.69921339
1811,364,6,-2.279018815,-2.203092,1.256806,2.004023505
1812,364,12,-5.503000866,-3.458169,0.557411,-1.219958546
1813,364,19,0.74150511,4.24592,5.244733,5.02454743
1814,364,24,-2.538705511,6.517467,2.606671,1.744336809
1815,364,25,-11.32331883,-9.696311,-5.00187,-7.040276506
1816,364,29,-14.01191229,-4.03323,-6.786499,-9.728869974
1817,365,2,-3.163507936,1.33875,1.78736,1.449603921
1818,365,5,6.408299108,10.347145,9.238754,11.02141096
1819,365,6,-2.423717451,0.724805,1.20182,2.189394406
1820,365,12,-5.536685752,-2.752759,0.493793,-0.923573895
